tree
version=v4
num_class=3
num_tree_per_iteration=3
label_index=0
max_feature_idx=97
objective=multiclass num_class:3
feature_names=Column_0 Column_1 Column_2 Column_3 Column_4 Column_5 Column_6 Column_7 Column_8 Column_9 Column_10 Column_11 Column_12 Column_13 Column_14 Column_15 Column_16 Column_17 Column_18 Column_19 Column_20 Column_21 Column_22 Column_23 Column_24 Column_25 Column_26 Column_27 Column_28 Column_29 Column_30 Column_31 Column_32 Column_33 Column_34 Column_35 Column_36 Column_37 Column_38 Column_39 Column_40 Column_41 Column_42 Column_43 Column_44 Column_45 Column_46 Column_47 Column_48 Column_49 Column_50 Column_51 Column_52 Column_53 Column_54 Column_55 Column_56 Column_57 Column_58 Column_59 Column_60 Column_61 Column_62 Column_63 Column_64 Column_65 Column_66 Column_67 Column_68 Column_69 Column_70 Column_71 Column_72 Column_73 Column_74 Column_75 Column_76 Column_77 Column_78 Column_79 Column_80 Column_81 Column_82 Column_83 Column_84 Column_85 Column_86 Column_87 Column_88 Column_89 Column_90 Column_91 Column_92 Column_93 Column_94 Column_95 Column_96 Column_97
feature_infos=[-2.1327617168426514:3.8473730087280273] [-10.00950813293457:6.7797298431396484] [-1.5933166742324829:2.9475564956665039] [-4.8966240882873535:2.8914334774017334] [-5.3686180114746094:3.2797119617462158] [-4.952603816986084:3.1174654960632324] [-5.9491539001464844:3.6216380596160889] [-1.664615273475647:4.6307034492492676] [-6.92767333984375:7.364072322845459] [-3.8960816860198975:2.7368984222412109] [-2.9376442432403564:2.9415857791900635] [-4.8904871940612793:6.3792452812194824] [-127.33074188232422:113.14472198486328] [-345.94577026367188:345.94577026367188] [-3.2269055843353271:3.0934658050537109] [-290.00396728515625:295.41058349609375] [-262.98916625976562:267.89215087890625] [-263.22821044921875:238.12654113769531] [-349.11199951171875:383.68515014648438] [-575.60418701171875:755.47265625] [-297.44549560546875:297.44549560546875] [-190.60826110839844:170.73843383789062] [-4.746863842010498:4.5082221031188965] [-6541.58203125:6541.58203125] [-2.1327617168426514:3.8473730087280273] [-10.00950813293457:6.7797298431396484] [-1.5933166742324829:2.9475564956665039] [-4.8966240882873535:2.8914334774017334] [-5.3686180114746094:3.2797119617462158] [-4.952603816986084:3.1174654960632324] [-5.9491539001464844:3.6216380596160889] [-1.664615273475647:4.6307034492492676] [-6.92767333984375:7.364072322845459] [-3.8960816860198975:2.7368984222412109] [-2.9376442432403564:2.9415857791900635] [-4.8904871940612793:6.3792452812194824] [-151.04124450683594:123.57077026367188] [-345.94577026367188:345.94577026367188] [-2.6628744602203369:3.0934658050537109] [-290.00396728515625:258.98785400390625] [-262.98916625976562:234.86233520507812] [-246.79637145996094:198.88905334472656] [-366.84848022460938:287.91351318359375] [-694.8255615234375:755.47265625] [-297.44549560546875:297.44549560546875] [-215.49417114257812:167.22758483886719] [-4.746863842010498:4.746863842010498] [-6541.58203125:6541.58203125] [-2.1327617168426514:3.8473730087280273] [-10.00950813293457:6.7797298431396484] [-1.5933166742324829:2.9475564956665039] [-4.8966240882873535:2.8914334774017334] [-5.3686180114746094:3.2797119617462158] [-4.952603816986084:3.1174654960632324] [-5.9491539001464844:3.6216380596160889] [-1.664615273475647:4.6307034492492676] [-6.92767333984375:7.364072322845459] [-3.8960816860198975:2.7368984222412109] [-2.9376442432403564:2.9415857791900635] [-4.8904871940612793:6.3792452812194824] [-151.04124450683594:123.57077026367188] [-345.94577026367188:345.94577026367188] [-3.2269055843353271:3.0934658050537109] [-290.00396728515625:295.41058349609375] [-262.98916625976562:267.89215087890625] [-269.36355590820312:238.12654113769531] [-390.79171752929688:383.68515014648438] [-700.31640625:755.47265625] [-297.44549560546875:297.44549560546875] [-215.49417114257812:170.73843383789062] [-4.746863842010498:4.746863842010498] [-6541.58203125:6541.58203125] [-2.1327617168426514:3.8473730087280273] [-10.00950813293457:6.7797298431396484] [-1.5933166742324829:2.9475564956665039] [-4.8966240882873535:2.8914334774017334] [-5.3686180114746094:3.2797119617462158] [-4.952603816986084:3.1174654960632324] [-5.9491539001464844:3.6216380596160889] [-1.664615273475647:4.6307034492492676] [-6.92767333984375:7.364072322845459] [-3.8960816860198975:2.7368984222412109] [-2.9376442432403564:2.9415857791900635] [-4.8904871940612793:6.3792452812194824] [-151.04124450683594:123.57077026367188] [-345.94577026367188:345.94577026367188] [-3.4972350597381592:3.0934658050537109] [-318.98501586914062:258.98785400390625] [-277.01693725585938:234.86233520507812] [-269.36355590820312:198.88905334472656] [-404.62744140625:287.91351318359375] [-700.31640625:755.47265625] [-297.44549560546875:297.44549560546875] [-203.10804748535156:167.22758483886719] [-4.746863842010498:4.746863842010498] [-6541.58203125:6541.58203125] [0:2] [0:11]
tree_sizes=2499 4580 3803 2586 5251 4287 2586 5472 4615 4528 5680 4918 2487 5253 4292 4840 5775 4601 2596 5457 4402 2593 5982 4818 2596 6823 5360 2909 6804 5559 2920 6839 5345 4293 6501 4918 2811 6845 5879 3252 6834 6099 3026 6838 6408 3141 6812 6527 4291 6811 6216 2931 6827 6636 3244 6804 6530 3361 6814 6322 3453 6808 6865 3262 6826 6841 3683 6837 6841 3461 6840 6872 3681 6838 6850 3677 6865 6853 3565 6845 6869 3676 6848 6842 3676 6844 6843 3669 6835 6856 3977 6832 6838 3571 6860 6843 4088 6832 6825 4101 6815 6854 3984 6867 6841 5505 6855 6854 3992 6854 6834 3892 6885 6847 4221 6841 6850 4526 6848 6827 4212 6855 6856 3998 6857 6860 4323 6834 6831 4421 6858 6851 4216 6863 6869 4319 6849 6863 4964 6847 6848 3986 6855 6861 4525 6851 6861 4640 6843 6858 6470 6853 6845 4324 6852 6867 4536 6834 6864 4740 6844 6845 4739 6864 6835 5165 6891 6859 4747 6869 6863 4945 6862 6858 4966 6844 6859 4852 6878 6841 4832 6859 6839 4721 6855 6849 5365 6854 6865 5058 6836 6839 5054 6859 6851 4851 6836 6867 4522 6874 6863 4742 6847 6860 4834 6859 6868 5254 6865 6845 4819 6853 6843 4633 6887 6859 4731 6861 6853 4417 6882 6873 4521 6861 6864 6576 6868 6871 4641 6875 6860 4724 6882 6865 4416 6862 6885 4413 6891 6867 5066 6878 6868 4641 6872 6862 4952 6874 6880 5167 6855 6877 4958 6855 6886 5067 6865 6878 5367 6857 6902 4722 6877 6868 4850 6842 6870 6876 6906 6882 5905 6896 6877 4957 6858 6880 5075 6865 6882 5284 6881 6894 5068 6914 6899 5283 6854 6884 5055 6875 6882 5152 6926 6910 5066 6872 6884 4848 6867 6877

Tree=0
num_leaves=23
num_cat=0
split_feature=96 83 9 97 73 81 1 49 61 78 5 75 83 31 56 8 25 0 76 84 84 47
split_gain=5234.65 84.5516 18.4745 8.66376 5.82644 5.62203 5.11752 5.04688 3.66867 1.98935 2.06639 1.66927 1.12135 1.04729 0.93172 2.2545 0.896391 0.417226 0.367821 0.433939 0.220239 0.0276789
threshold=1.0000000180025095e-35 0.54223835468292247 -0.20017477869987485 7.5000000000000009 -0.19289679825305936 -0.51780223846435536 2.2346483469009404 1.2376427650451662 1.9456709027290346 -0.59184974431991566 -0.83259931206703175 -1.6126582622528074 3.6042716503143315 -1.5595461726188657 -1.1287079453468321 -1.270767033100128 0.50610864162445079 -0.40183442831039423 0.26690007746219641 -7.4464471340179434 9.4248290061950701 2298.0732421875005
decision_type=2 2 2 2 2 2 2 2 2 2 2 2 2 2 2 2 2 2 2 2 2 2
left_child=1 3 16 4 -1 7 -5 12 9 10 11 -9 13 -2 15 17 -3 -7 19 -15 -21 -16
right_child=5 2 -4 6 -6 14 -8 8 -10 -11 -12 -13 -14 18 21 -17 -18 -19 -20 20 -22 -23
leaf_value=-1.5277204591889151 -1.5815379292409395 -1.477958951565983 -1.5446170078857699 -1.5034328565266459 -1.5634923943177801 -1.598482363751752 -1.5391744167574097 -1.590540318128933 -1.5624387442026377 -1.5699233985100678 -1.5976911418532802 -1.5687007911851658 -1.5800459547597869 -1.5880947249127764 -1.5990123425789322 -1.5765860632854238 -1.5193106172614721 -1.5875114586529528 -1.5851072328846465 -1.5987981322177807 -1.588347799782005 -1.5910604384172415
leaf_weight=8.1301382929086703 5.4200921952724448 397.14493721723557 4.9273565411567679 16.753012239933017 8.8692417740821821 24.144047051668167 8.8692417740821821 5.1737243682146072 6.1591956764459601 4.9273565411567715 13.057494834065436 5.6664600223302859 4.9273565411567679 9.1156096011400205 1510.2347798645496 6.651931330561637 4.9273565411567679 8.6228739470243436 4.9273565411567679 79.330440312623978 6.651931330561637 9.1156096011400205
leaf_count=33 22 1612 20 68 36 98 36 21 25 20 53 23 20 37 6130 27 20 35 20 322 27 37
internal_value=-1.57426 -1.48332 -1.47906 -1.52532 -1.54475 -1.59829 -1.51402 -1.59234 -1.58211 -1.58657 -1.59004 -1.57962 -1.59549 -1.59615 -1.59883 -1.59292 -1.47833 -1.59607 -1.59686 -1.59735 -1.59816 -1.59898
internal_weight=2153.75 449.621 407 42.6216 16.9994 1704.13 25.6223 145.357 34.9842 28.825 23.8977 10.8402 110.373 105.445 1558.77 39.4189 402.072 32.7669 100.025 95.098 85.9824 1519.35
internal_count=8742 1825 1652 173 69 6917 104 590 142 117 97 44 448 428 6327 160 1632 133 406 386 349 6167
is_linear=0
shrinkage=1


Tree=1
num_leaves=43
num_cat=0
split_feature=96 96 83 6 30 7 6 97 50 3 9 73 24 35 58 8 72 35 5 80 49 11 43 83 59 33 22 92 51 0 10 1 56 59 6 28 24 33 59 5 72 0
split_gain=1927.98 2587.66 63.7982 14.5123 11.0925 10.1366 8.01198 7.72687 5.73214 7.84464 5.2379 4.86132 3.73021 5.97731 5.04779 3.31351 3.99957 3.37315 3.26886 4.59945 5.84527 7.90922 2.83564 3.33036 1.97941 1.72488 1.59884 1.43734 1.41415 1.39174 1.35011 1.20266 0.902423 0.840599 0.597141 0.452959 0.382537 0.459651 0.332963 0.210762 0.19847 0.253233
threshold=1.5000000000000002 1.0000000180025095e-35 0.54223835468292247 0.041386747732758529 -0.47808220982551569 -0.35157960653305048 -0.075692128390073762 7.5000000000000009 0.041519653052091605 -0.85864380002021778 0.40569883584976202 -0.19289679825305936 -1.4244129657745359 5.3916084766387948 -0.43956227600574488 -1.5672426223754881 -0.33326704800128931 -0.21527507901191709 0.36385767161846166 0.61059752106666576 1.2923059463500979 0.94523298740386974 22.889522552490238 0.25674553215503698 5.6015014648437509 0.31700178980827337 -1.3500397801399229 -20.953894615173336 -0.20028092712163922 -0.60599330067634571 -2.097780585289001 1.9049617648124697 -0.10689066350460051 3.1884315013885502 0.21423473209142688 0.59855580329895031 -1.7249395847320554 1.0391275286674502 6.3775000572204599 0.069067381322383894 -0.42702326178550715 -0.28986375033855433
decision_type=2 2 2 2 2 2 2 2 2 2 2 2 2 2 2 2 2 2 2 2 2 2 2 2 2 2 2 2 2 2 2 2 2 2 2 2 2 2 2 2 2 2
left_child=1 2 7 6 15 -4 10 11 9 -9 12 -1 14 39 -3 -2 -17 -18 19 22 28 -22 24 -24 35 -10 -5 -20 29 -21 -28 -16 -7 -32 -29 36 -6 40 -36 -14 -38 -42
right_child=4 3 5 26 18 32 -8 8 25 -11 -12 -13 13 -15 31 16 17 -19 27 20 21 -23 23 -25 -26 -27 30 34 -30 -31 33 -33 -34 -35 38 -37 37 -39 -40 -41 41 -43
leaf_value=-1.0467232798897808 -1.0438907837928875 -1.036328332227219 -1.0472545543737699 -1.0218766767994891 -1.0672889963800076 -1.0785124433512092 -0.99116056061700208 -1.0637878890018186 -1.0541980338981682 -1.0245360123319127 -1.0286669354537319 -1.0198467696512776 -0.99593853763325491 -1.0286669354537319 -0.99836552375184306 -1.0721633853690051 -1.039341306116345 -1.0642934609051629 -1.0608574811091167 -1.0708046177079105 -1.0315346924360227 -1.0711290953692483 -1.0721946356415426 -1.0454348730832446 -1.0581531184177957 -1.0729931870130345 -1.0182985096490518 -1.0637878890018186 -1.0750673894773128 -1.0523879550557376 -1.0016504711534711 -1.0208910479656059 -1.0637878890018186 -1.0154104643017821 -1.0769138305230646 -1.0651605223059568 -1.0777665000132408 -1.0637878890018186 -1.0659048907862858 -1.0108219375351375 -1.0687720497278543 -1.0751552947434746
leaf_weight=11.271925717592241 8.5393376648426038 6.8314701318740871 9.5640581846237165 8.5393376648426038 15.029234290122984 547.54233106970787 348.40497672557831 7.1730436384677914 8.8809111714363116 9.5640581846237165 6.8314701318740836 12.29664623737335 292.72849515080452 6.8314701318740836 14.346087276935579 22.543851435184479 8.1977641582489031 9.5640581846237165 7.514617145061492 6.8314701318740836 9.2224846780300158 7.1730436384677878 8.5393376648426038 7.1730436384677878 7.8561906516551963 9.9056316912174207 11.955072730779646 7.1730436384677878 24.934865981340408 8.1977641582488996 314.93077307939529 7.8561906516551963 7.1730436384677878 14.68766078352928 833.43935608863831 10.247205197811125 149.60919588804245 7.1730436384677878 8.5393376648426038 12.29664623737335 26.642733514308929 122.28331536054611
leaf_count=33 25 20 28 25 44 1603 1020 21 26 28 20 36 857 20 42 66 24 28 22 20 27 21 25 21 23 29 35 21 73 24 922 23 21 43 2440 30 438 21 25 36 78 358
internal_value=-1.04777 -1.02637 -1.07472 -0.997555 -1.0749 -1.07782 -0.994867 -1.04511 -1.05391 -1.04131 -0.998732 -1.03214 -0.99819 -0.997059 -1.01162 -1.0605 -1.06402 -1.05294 -1.07545 -1.07296 -1.06443 -1.0492 -1.07426 -1.06057 -1.07486 -1.06488 -1.00304 -1.07661 -1.07049 -1.06167 -1.00264 -1.00483 -1.07835 -1.00216 -1.07673 -1.07522 -1.07549 -1.07583 -1.07682 -0.996416 -1.07606 -1.07416
internal_weight=2986.04 1669.61 623.372 1046.24 1316.42 564.279 696.127 59.0922 35.5236 16.7371 347.722 23.5686 340.89 311.857 29.0337 48.845 40.3057 17.7618 1267.58 410.913 56.3596 16.3955 354.553 15.7124 338.841 18.7865 350.113 856.666 39.9641 15.0292 341.574 22.2023 554.715 329.618 849.152 330.985 320.738 305.708 841.979 305.025 298.535 148.926
internal_count=8742 4888 1825 3063 3854 1652 2038 173 104 49 1018 69 998 913 85 143 118 52 3711 1203 165 48 1038 46 992 55 1025 2508 117 44 1000 65 1624 965 2486 969 939 895 2465 893 874 436
is_linear=0
shrinkage=1


Tree=2
num_leaves=35
num_cat=0
split_feature=96 56 30 5 52 97 51 70 5 49 59 59 32 74 24 54 50 72 74 47 73 8 1 24 34 24 59 7 83 74 47 8 8 59
split_gain=4954.34 21.4963 9.46832 3.80589 5.17638 4.61184 3.17017 3.11873 2.03523 3.50141 3.71489 3.07839 1.97809 3.96341 1.9467 2.37849 1.51242 1.50394 1.2811 1.17656 1.04443 0.997654 0.939963 0.921812 0.843977 1.01523 0.686449 0.670219 0.627886 0.563712 0.523978 0.42025 0.347438 0.130657
threshold=1.5000000000000002 -0.067287791520357118 -0.64970466494560231 -0.075443726032972322 -0.18142212182283399 5.5000000000000009 -0.1383002772927284 0.7798573672771455 0.36385767161846166 1.5567013621330263 0.78897610306739818 -0.16480536013841626 0.055087555199861533 1.3010924458503725 2.1131508350372319 1.7368850111961367 -0.47111976146697992 -0.074918501079082475 -1.4153110384941099 1228.726013183594 -0.26262776553630823 -1.9635345339775083 5.1626684665679941 -1.8177068233489988 -0.048911236226558678 -0.22473011910915372 4.3420972824096689 -0.61217537522315968 1.0048201680183413 2.4027630090713505 -456.41471862792963 -6.8669075965881339 -2.8303861618041988 6.3775000572204599
decision_type=2 2 2 2 2 2 2 2 2 2 2 2 2 2 2 2 2 2 2 2 2 2 2 2 2 2 2 2 2 2 2 2 2 2
left_child=1 17 6 18 5 -5 24 12 9 19 11 -11 13 20 23 -16 -9 21 -3 26 -6 31 -20 27 25 -2 -4 -14 -19 30 -25 -1 -33 -10
right_child=2 3 8 4 7 -7 -8 16 33 10 -12 -13 14 -15 15 -17 -18 28 22 -21 -22 -23 -24 29 -26 -27 -28 -29 -30 -31 -32 32 -34 -35
leaf_value=-0.84717787586665327 -0.77690338470499876 -0.83521541622204853 -0.77481245177248637 -0.80871495664380633 -0.83038414902346525 -0.83879297895773941 -0.80847102803219084 -0.8370441828503653 -0.77271583426538837 -0.78573762329501218 -0.77703106004659162 -0.81054602542117693 -0.84109726189072731 -0.81561431673673446 -0.82246111827952251 -0.84330511948775078 -0.81856238522186087 -0.85183350273902658 -0.84945348210545002 -0.79076899530375155 -0.84504286577514132 -0.84906758629878665 -0.83425534104724508 -0.83347253849809344 -0.79689640289343788 -0.79416647838789001 -0.7899892430718326 -0.82632924979354982 -0.84301034038660938 -0.83770076070603794 -0.84647602867542149 -0.83054222349537454 -0.84129765438276605 -0.78650055903126093
leaf_weight=12.579136848449705 16.648857593536377 11.839187622070311 398.09268379211426 8.1394414901733416 10.359289169311525 8.5094161033630353 7.3994922637939444 7.3994922637939444 920.1268630027771 8.1394414901733416 16.27888298034668 9.9893145561218244 7.7694668769836426 7.3994922637939444 10.359289169311525 9.9893145561218244 8.1394414901733381 1113.2536110877991 129.49111461639404 10.359289169311522 17.018832206726074 163.15880441665649 7.7694668769836417 7.3994922637939444 9.9893145561218244 9.9893145561218279 9.2493653297424299 7.3994922637939435 22.93842601776123 20.34860372543335 194.60664653778076 11.839187622070311 10.729263782501222 9.6193399429321271
leaf_count=34 45 32 1076 22 28 23 20 20 2487 22 44 27 21 20 28 27 22 3009 350 28 46 441 21 20 27 27 25 20 62 55 526 32 29 26
internal_value=-0.816177 -0.849139 -0.774378 -0.843487 -0.841421 -0.824499 -0.789268 -0.842305 -0.773924 -0.776271 -0.787469 -0.798399 -0.843017 -0.835093 -0.844008 -0.833485 -0.828093 -0.851124 -0.847791 -0.775419 -0.840192 -0.847783 -0.84873 -0.844834 -0.785697 -0.782346 -0.775092 -0.834967 -0.851679 -0.84542 -0.846087 -0.841076 -0.836504 -0.772826
internal_weight=3234.32 1808.44 1425.88 473.937 324.838 16.6489 44.027 308.189 1381.86 452.109 34.4076 18.1288 292.65 34.7776 257.872 20.3486 15.5389 1334.5 149.1 417.701 27.3781 198.306 137.261 237.524 36.6275 26.6382 407.342 15.169 1136.19 222.355 202.006 35.1476 22.5685 929.746
internal_count=8742 4888 3854 1281 878 45 119 833 3735 1222 93 49 791 94 697 55 42 3607 403 1129 74 536 371 642 99 72 1101 41 3071 601 546 95 61 2513
is_linear=0
shrinkage=1


Tree=3
num_leaves=23
num_cat=0
split_feature=96 83 9 97 81 73 49 1 61 78 5 25 58 56 8 35 0 86 72 48 31 47
split_gain=4709.94 65.6315 14.613 7.35325 5.60153 5.20933 4.9952 4.30038 3.42088 1.61519 1.68114 1.34629 1.58405 0.937985 2.22538 0.485034 0.419469 0.311541 0.371625 0.606753 0.0681795 0.0344478
threshold=1.0000000180025095e-35 0.54223835468292247 -0.20017477869987485 7.5000000000000009 -0.51780223846435536 -0.19289679825305936 1.8185421228408816 2.2346483469009404 4.3564336299896249 -0.6454237401485442 -0.76040750741958607 0.42065517604351049 -0.82191175222396839 -1.1287079453468321 -1.270767033100128 0.22172973304986957 -0.40183442831039423 0.088373083621263518 1.4530616998672488 2.533103466033936 -0.3374445885419845 2298.0732421875005
decision_type=2 2 2 2 2 2 2 2 2 2 2 2 2 2 2 2 2 2 2 2 2 2
left_child=1 3 20 5 6 -1 11 -5 9 10 -8 17 -13 14 16 -14 -6 18 -2 -20 -3 -15
right_child=4 2 -4 7 13 -7 8 -9 -10 -11 -12 12 15 21 -16 -17 -18 -19 19 -21 -22 -23
leaf_value=0.04391025992262966 -0.024302469875891894 0.051703259575787988 0.028136409736532406 0.065651092734614322 -0.024042864174889923 0.010394622586638579 -0.0047849274291294026 0.033207823537125536 0.014279894755964476 0.0032601949344016902 -0.022843556515463791 -0.0023935515823634203 -0.022992043036063805 -0.024567559539688536 -0.0022079061927047605 -0.011343629094291924 -0.013049083592798822 -0.011709322335723062 -0.0054580513172100692 -0.021129109564852016 0.087031467134219012 -0.016584544487809952
leaf_weight=8.4351590573787707 70.00301031768322 5.1494023501873007 5.0695783495903006 17.665072083473209 23.682521432638168 8.9515534192323667 9.0623611658811623 9.142191678285597 4.9492261409759513 5.1564814001321784 10.183810949325563 8.0272033959627169 10.923792064189913 1480.032673150301 6.6234842240810385 9.5178328454494459 8.5296746194362623 5.3501845598220816 4.858952194452284 5.335810661315918 427.26720353960991 8.9894241839647275
leaf_count=33 289 20 20 68 98 36 37 36 20 21 42 33 45 6130 27 39 35 22 20 22 1612 37
internal_value=-1.10064e-05 0.082542 0.0861177 0.0460222 -0.0238395 0.0281585 -0.0178669 0.0561789 -0.00654325 -0.0111624 -0.0149967 -0.0206998 -0.014085 -0.0243879 -0.0184414 -0.0183504 -0.0216123 -0.0227129 -0.0232937 -0.0148148 0.086731 -0.0245305
internal_weight=2152.91 481.68 437.486 44.194 1671.23 17.3867 143.369 26.8073 29.3519 24.4027 19.2462 114.017 28.4688 1527.86 38.8357 20.4416 32.2122 85.548 80.1978 10.1948 432.417 1489.02
internal_count=8742 1825 1652 173 6917 69 590 104 120 100 79 470 117 6327 160 84 133 353 331 42 1632 6167
is_linear=0
shrinkage=0.03


Tree=4
num_leaves=48
num_cat=0
split_feature=96 96 83 6 30 7 97 6 1 9 34 35 35 24 5 80 49 11 49 8 43 83 50 59 67 92 51 0 33 10 59 9 6 0 61 0 3 33 85 85 3 26 59 79 79 5 5
split_gain=1802.66 2391.74 61.5431 12.7726 10.7607 9.83004 7.26758 7.06372 5.54301 4.71716 3.51915 3.87147 3.28548 4.3147 3.19144 4.50359 5.61738 7.58326 2.95473 2.81378 2.79534 3.25038 2.49241 1.92563 1.58255 1.43189 1.40826 1.37848 0.919002 0.786952 0.900425 0.619467 0.605089 0.563646 0.505218 0.462748 0.717306 0.374027 0.463241 1.37235 0.356424 0.340054 0.868176 0.284838 1.02995 0.169495 0.0213268
threshold=1.5000000000000002 1.0000000180025095e-35 0.54223835468292247 0.041386747732758529 -0.47808220982551569 -0.35157960653305048 7.5000000000000009 -0.075692128390073762 2.2346483469009404 0.40569883584976202 -1.5519107580184934 -0.37420356273651117 5.3916084766387948 -1.4244129657745359 0.36385767161846166 0.61059752106666576 1.2923059463500979 0.94523298740386974 -0.19465261697769162 -0.77343299984931935 22.889522552490238 0.25674553215503698 0.087421450763940825 5.6015014648437509 59.278303146362312 -20.953894615173336 -0.20028092712163922 -0.60599330067634571 -0.64459490776062001 -2.097780585289001 3.1884315013885502 -0.22614174336194989 0.21423473209142688 -1.6127200722694395 -21.293804168701168 -1.8328043818473814 0.47473369538784033 1.0391275286674502 2.04082202911377 6.6655395030975351 -0.29870991408824915 2.3969769477844243 2.7340004444122319 0.17829091846942904 0.11166443675756456 0.069067381322383894 -1.2795045375823972
decision_type=2 2 2 2 2 2 2 2 2 2 2 2 2 2 2 2 2 2 2 2 2 2 2 2 2 2 2 2 2 2 2 2 2 2 2 2 2 2 2 2 2 2 2 2 2 2 2
left_child=1 2 6 7 10 -4 18 9 22 12 46 -12 13 33 15 20 26 -18 -1 -13 23 -22 -8 35 29 -16 27 -17 -21 -5 40 -7 -27 -3 -34 -6 37 38 43 -40 -31 -36 -43 44 -37 -15 -2
right_child=4 3 5 24 14 31 8 -9 -10 -11 11 19 -14 45 25 16 17 -19 -20 28 21 -23 -24 -25 -26 32 -28 -29 -30 30 -32 -33 34 -35 41 36 -38 -39 39 -41 -42 42 -44 -45 -46 -47 -48
leaf_value=0.0027426749740620694 -0.015161666451829219 0.036944400419604194 0.00044239493588776391 0.029415723070251101 -0.014851106201689392 -0.03033427678779025 -0.0038443561445679845 0.053502127178222211 0.0096582566624141015 0.018207690389949016 0.011870867478841926 0.0039918986201666435 0.023610127283186035 0.049062718401667656 -0.01258942843009086 -0.022544499892362724 0.015929512238379601 -0.022922683747818518 0.023973990864680821 -0.010476346009033919 -0.023922911014567252 0.0025840874050497681 -0.023570632455049763 -0.010053286498275507 0.022873514295718274 -0.015509275428410536 -0.026768044349943371 -0.0042011486707809317 -0.026487422004774313 0.031194205323902813 0.030303277315434921 -0.017780677423984589 -0.016481748915477375 0.020881605666014793 -0.028859396364491023 -0.026225837039202633 -0.015545252541116878 -0.016125761675948286 -0.012443074705828523 -0.028083143637601834 0.044135460914371046 -0.025761352603174723 -0.011745095237520689 -0.029352933843634365 -0.011671289973924545 0.035139514222744611 -0.025448701810768515
leaf_weight=10.617801249027254 6.7972389757633236 20.503481268882755 9.5746512711048108 12.834686875343321 6.749192774295806 539.67190828919411 11.270166188478472 357.0506329536438 12.332035601139067 6.911212444305419 7.4813270270824459 6.8070477843284634 8.3084596395492536 299.46339127421379 7.4332738518714896 6.739829182624816 9.2591239511966723 7.0873535573482505 13.140644282102583 9.4923447668552452 8.4210552275180799 7.1428879499435416 11.886390209197996 7.8030570447444907 7.3025942742824546 7.0883976221084586 24.569169998168945 8.1347336769103986 6.7537732422351793 12.885821610689161 14.575876325368879 8.4671490192413312 7.730448752641677 7.632371097803115 768.18948712944984 80.099166393280029 9.1181003749370557 7.4295461177825919 12.454363644123079 12.781697869300841 309.53517130017281 45.718913406133652 7.0795107185840598 190.46461203694344 7.0680197775363913 12.523626506328581 11.147175669670103
leaf_count=31 20 59 28 37 20 1599 33 1020 36 20 22 20 24 857 22 20 27 21 38 28 25 21 35 23 21 21 73 24 20 37 42 25 23 22 2285 238 27 22 37 38 888 136 21 566 21 36 33
internal_value=1.51087e-06 0.0204467 -0.0265645 0.0475648 -0.0265778 -0.0296476 0.00246858 0.050059 -0.00608812 0.0464589 -0.0123447 -0.00581754 0.0469655 0.0474652 -0.0271201 -0.0246503 -0.016187 -0.00126602 0.0149796 -0.0118127 -0.0259511 -0.0123363 -0.0145265 -0.0265469 0.0424635 -0.0282767 -0.0221865 -0.0134093 -0.0182823 0.0428061 0.0432275 -0.0301731 -0.028401 0.0334533 -0.0284924 -0.0269096 -0.0271172 -0.0274062 -0.027629 -0.021133 0.0437163 -0.0285853 -0.0241352 -0.0281415 -0.0251914 0.0486179 -0.022558
internal_weight=2983.53 1686.49 616.961 1069.53 1297.04 557.714 59.247 712.393 35.4886 355.343 48.4789 30.5345 348.431 340.123 1248.56 405.322 55.7902 16.3465 23.7584 23.0532 349.532 15.5639 23.1566 333.968 357.134 843.24 39.4437 14.8746 16.2461 349.832 336.997 548.139 835.807 28.1359 828.718 326.165 319.416 310.297 302.868 25.2361 322.421 820.988 52.7984 277.632 87.1672 311.987 17.9444
internal_count=8742 4888 1825 3063 3854 1652 173 2038 104 1018 143 90 998 974 3711 1203 165 48 69 68 1038 46 68 992 1025 2508 117 44 48 1004 967 1624 2486 81 2465 969 949 922 900 75 925 2442 157 825 259 893 53
is_linear=0
shrinkage=0.03


Tree=5
num_leaves=39
num_cat=0
split_feature=96 56 30 5 70 65 51 4 8 32 74 63 5 49 59 35 25 25 25 73 23 7 25 0 59 43 45 24 34 0 48 78 31 0 25 78 25 59
split_gain=4633.89 20.8282 8.58672 3.67526 3.38265 3.53508 2.99357 2.74261 4.34552 2.59676 3.55128 2.16513 1.81567 3.1602 3.46514 4.09608 1.46248 3.21108 3.96621 1.24318 1.19773 1.00929 1.07473 0.993936 0.975951 0.863096 1.16202 0.797914 0.797251 1.13845 0.556082 0.464727 0.420891 0.302502 0.14918 0.582262 0.466966 0.0924994
threshold=1.5000000000000002 -0.067287791520357118 -0.64970466494560231 -0.12273640558123587 0.7798573672771455 -0.20682686567306516 -0.1383002772927284 -0.24377251416444776 0.25447711348533636 0.055087555199861533 1.3010924458503725 -7.7181522846221915 0.36385767161846166 1.5567013621330263 0.78897610306739818 -0.20375370979309079 -0.3083889484405517 -0.44727891683578486 -0.39124377071857447 -0.26262776553630823 837.88055419921886 3.6797624826431279 6.697707176208497 2.9962458610534672 5.6015014648437509 22.889522552490238 9.9079065322875994 -1.8177068233489988 -0.048911236226558678 -0.23250095546245572 -0.69784504175186146 0.24545475840568545 -1.0128918290138242 -0.11283897981047629 0.36094881594181066 0.34500540792942053 0.1542828977108002 6.3775000572204599
decision_type=2 2 2 2 2 2 2 2 2 2 2 2 2 2 2 2 2 2 2 2 2 2 2 2 2 2 2 2 2 2 2 2 2 2 2 2 2 2
left_child=1 16 6 21 7 -6 28 8 -5 10 19 -11 13 24 15 -15 17 -1 -19 -9 23 22 32 27 25 -4 -27 -13 29 -2 -21 -29 -3 -18 36 -36 -33 -14
right_child=2 3 12 4 5 -7 -8 9 -10 11 -12 20 37 14 -16 -17 33 18 -20 30 -22 -23 -24 -25 -26 26 -28 31 -30 -31 -32 34 -34 -35 35 -37 -38 -39
leaf_value=-0.031830773327475914 0.038043451926774101 -0.020032574048737789 0.039906884657118127 -0.024352695527379328 0.0045676330553739864 -0.021603317061244996 0.0073771493763624433 -0.012427429389384377 0.004538313347146437 -0.011153168939005 0.00090846504244041068 -0.018520400953573043 0.041751783247555664 0.032253214328740613 0.037761010293617281 0.0039858637527545376 -0.031106295136340591 -4.2889993342806389e-05 -0.028566218179642108 -0.016551990843782727 -0.012972918760790703 -0.01868380046470227 -0.017353335400251635 -0.017103616416200312 0.023060763204391068 0.017331175606453482 0.035740156462900706 -0.032688539500990946 0.0186249636647495 0.020535374177755982 -0.032138739710430485 -0.02632778856762083 -0.033791089499441249 -0.034849412438058301 -0.018053187955211204 -0.031469404399079463 -0.016043890723767079 0.028631072102337101
leaf_weight=123.43199571967125 17.12173143029213 7.3472727239131919 391.79865166544914 10.660790085792543 7.3776538670063045 10.315926045179365 7.414142668247222 11.048075735569002 7.3786623179912558 9.1996311247348768 7.381881743669509 13.627415865659712 926.54607054591179 7.8075770139694241 16.379835426807404 10.376757472753523 114.65256634354591 7.7166907787323025 9.1789626181125623 7.3548938930034664 7.3556715846061698 10.292273759841917 7.7239041328430167 12.517482250928877 8.1744750142097455 8.5566792488098162 11.910257756710051 63.603012502193451 10.024466186761854 9.6534519195556658 11.025895863771437 88.263611823320389 102.12378853559494 1069.7274792194366 8.0904175043106061 58.09956368803978 10.294187754392622 9.6693307459354383
leaf_count=336 46 20 1052 29 20 28 20 30 20 25 20 37 2487 21 44 28 312 21 25 20 20 28 21 34 22 23 32 173 27 26 30 240 278 2913 22 158 28 26
internal_value=5.93992e-06 -0.0321063 0.0401741 -0.0265305 -0.0246966 -0.0110303 0.0260007 -0.0254026 -0.0129177 -0.02609 -0.0176378 -0.0271688 0.0406056 0.0383761 0.0277161 0.0171712 -0.0340676 -0.0300855 -0.0162692 -0.0221669 -0.0276869 -0.0312424 -0.0321779 -0.0280597 0.0391847 0.0394478 0.0292097 -0.0285537 0.0294584 0.0326977 -0.0270777 -0.0290692 -0.0330574 -0.0345136 -0.0274831 -0.0301226 -0.0254256 0.041647
internal_weight=3231.22 1795.79 1435.43 471.082 343.595 17.6936 44.2138 325.901 18.0395 307.862 36.8107 271.051 1391.22 455.004 34.5642 18.1843 1324.71 140.328 16.8957 29.4289 261.851 127.487 117.195 254.496 420.44 412.266 20.4669 241.978 36.7996 26.7752 18.3808 228.351 109.471 1184.38 164.748 66.19 98.5578 936.215
internal_count=8742 4888 3854 1281 934 48 119 886 49 837 100 737 3735 1222 93 49 3607 382 46 80 712 347 319 692 1129 1107 55 658 99 72 50 621 298 3225 448 180 268 2513
is_linear=0
shrinkage=0.03


Tree=6
num_leaves=23
num_cat=0
split_feature=96 83 9 97 81 49 73 50 3 48 80 25 58 56 8 35 0 72 72 84 27 47
split_gain=4272.11 52.3314 11.8448 6.29976 5.5908 4.92727 4.71538 3.88524 7.56364 2.49971 2.7463 1.34277 1.56803 0.943089 2.1935 0.486962 0.423355 0.240035 0.631028 0.346652 0.194071 0.0433359
threshold=1.0000000180025095e-35 0.54223835468292247 -0.20017477869987485 7.5000000000000009 -0.51780223846435536 1.8185421228408816 -0.19289679825305936 0.041519653052091605 -0.85864380002021778 0.25401890277862554 -1.9130423069000242 0.42065517604351049 -0.82191175222396839 -1.1287079453468321 -1.270767033100128 0.22172973304986957 -0.40183442831039423 1.4530616998672488 2.3986009359359746 -12.18224000930786 -0.94145366549491871 2298.0732421875005
decision_type=2 2 2 2 2 2 2 2 2 2 2 2 2 2 2 2 2 2 2 2 2 2
left_child=1 3 -3 6 5 11 -1 8 -5 10 20 17 -13 14 16 -14 -6 19 -19 -2 -7 -15
right_child=4 2 -4 7 13 9 -8 -9 -10 -11 -12 12 15 21 -16 -17 -18 18 -20 -21 -22 -23
leaf_value=0.041608602243402362 -0.012340296623976395 0.079219885540799007 0.026766405967915945 0.059170871142211 -0.023870194490371463 -0.010500839869007988 0.010004040155870057 0.064374658151319236 0.012772190478892127 0.0085895072388812305 0.0018604989912587419 -0.0022369394886915437 -0.022826511209420763 -0.024385915184281983 -0.0021086575299135192 -0.011149482080545316 -0.012840666687333042 -0.0052849183204683892 -0.021123350246035868 -0.024123653164167733 -0.022439622201419943 -0.016354023234996795
leaf_weight=8.7146142423152941 5.7320777475833884 460.07651573419571 5.202757626771926 5.6386131346225739 23.227169349789619 4.8389726281166103 9.0386430174112302 14.860469669103621 7.4172818362712878 6.8540123999118796 8.8099902868270874 7.9820021390914944 10.737290084362032 1449.4945204108953 6.5996072590351096 9.426967039704321 8.4340076148509997 4.8230835497379285 5.4970340579748154 67.968397930264473 8.6657056957483292 8.8545590043067914
leaf_count=33 24 1632 20 21 98 20 36 55 28 28 36 33 45 6130 27 39 35 20 23 286 36 37
internal_value=-1.92883e-05 0.0756295 0.078692 0.0434109 -0.0236493 -0.0176458 0.0269094 0.0526115 0.035595 -0.00638063 -0.01115 -0.020493 -0.0138704 -0.0242041 -0.0182236 -0.0181521 -0.0214152 -0.0225223 -0.014842 -0.0233847 -0.0191806 -0.0243484
internal_weight=2148.89 510.949 465.279 45.6696 1637.95 141.336 17.7533 27.9164 13.0559 29.1687 22.3147 112.167 28.1463 1496.61 38.2608 20.1643 31.6612 84.0206 10.3201 73.7005 13.5047 1458.35
internal_count=8742 1825 1652 173 6917 590 69 104 49 120 92 470 117 6327 160 84 133 353 43 310 56 6167
is_linear=0
shrinkage=0.03


Tree=7
num_leaves=50
num_cat=0
split_feature=96 96 83 6 30 7 9 53 6 9 34 34 35 8 5 80 49 11 35 24 25 43 83 59 22 92 51 0 10 11 56 59 80 68 6 73 61 0 3 23 5 33 85 85 26 59 79 79 54
split_gain=1687.88 2217.21 59.4195 11.4061 10.4527 9.52752 6.65181 16.1549 6.31785 4.24841 3.81782 3.41013 3.73545 3.3477 3.12618 4.40918 5.39319 7.28172 2.99214 3.93064 2.85714 2.71664 3.17323 1.86975 1.49385 1.42925 1.40444 1.36429 1.15853 0.988218 0.884257 0.839552 0.821777 0.746303 0.613526 0.532203 0.516397 0.467116 0.721641 0.446606 0.396538 0.384413 0.476641 1.37338 0.358416 0.857366 0.307298 1.02619 0.0285478
threshold=1.5000000000000002 1.0000000180025095e-35 0.54223835468292247 0.041386747732758529 -0.47808220982551569 -0.35157960653305048 0.23851522803306582 -0.83259931206703175 -0.075692128390073762 0.40569883584976202 0.33307158946990972 -1.5519107580184934 -0.23424419015645978 -0.48041172325611109 0.36385767161846166 0.61059752106666576 1.2923059463500979 0.94523298740386974 5.3916084766387948 -1.4244129657745359 0.28514412045478826 22.889522552490238 0.25674553215503698 5.6015014648437509 -1.3500397801399229 -20.953894615173336 -0.20028092712163922 -0.60599330067634571 -2.097780585289001 0.60645031929016124 -0.10689066350460051 -0.27209264039993281 0.20546435564756396 -22.573861122131344 0.21423473209142688 1.5858439207077029 -21.293804168701168 -1.8328043818473814 0.47473369538784033 601.89047241210949 0.069067381322383894 1.0391275286674502 2.04082202911377 6.6655395030975351 2.3969769477844243 2.7340004444122319 0.17829091846942904 0.11166443675756456 -2.1958802938461299
decision_type=2 2 2 2 2 2 2 2 2 2 2 2 2 2 2 2 2 2 2 2 2 2 2 2 2 2 2 2 2 2 2 2 2 2 2 2 2 2 2 2 2 2 2 2 2 2 2 2 2
left_child=1 2 6 8 11 -4 7 20 9 18 32 48 -13 -14 15 21 26 -18 19 29 -1 23 -23 37 -5 -16 27 -17 -26 -3 -7 -30 -8 -21 -27 -9 -36 -6 41 -33 -35 42 46 -44 -38 -46 47 -39 -2
right_child=4 3 5 24 14 30 10 35 -10 -11 -12 12 13 -15 25 16 17 -19 -20 33 -22 22 -24 -25 28 34 -28 -29 31 -31 -32 39 -34 40 36 -37 44 38 -40 -41 -42 -43 43 -45 45 -47 -48 -49 -50
leaf_value=-0.021109540317496157 -0.01477701773766707 0.036041846292050192 0.00036225468058787941 0.023138152748824158 -0.014397311411247097 -0.029931416402434172 -0.010317699275390765 0.035698746655707117 0.050773500259429324 0.017449754101786875 0.0070006499395555751 0.0093777315494964451 -0.00091430903790652512 -0.024478383985159079 -0.012100207594338223 -0.022067432495370205 0.015632167856347794 -0.022521016787201361 0.022514649085000612 0.028103200758003089 0.0012222099706290278 -0.023518882353893926 0.0027316399268435482 -0.0097513948252952766 0.026697638397450728 -0.015014788872566211 -0.026263737917572801 -0.0037971242169778673 0.044806187951938428 0.019104121124779102 -0.015389722224686226 0.039712306824364073 -0.02648362197970669 0.04699492232557486 -0.015975580257005666 0.019738878069625408 -0.028327344857377101 -0.025699991356839483 -0.015064814387503104 0.027014923033840992 0.032973008808115815 -0.015643860582966431 -0.01195294713217592 -0.027595828775198231 -0.025221660714610041 -0.011322463911321433 -0.028838750120328927 -0.011213935920348913 -0.024977607403386854
leaf_weight=8.5011889934539813 6.7353683710098293 20.126351833343509 9.5870006382465345 8.8103058636188489 6.6747054159641257 534.10781437158585 7.8427538275718707 9.3250233829021472 364.29766604304314 6.9767786264419547 6.8922054767608634 9.5134542882442492 11.177845865488054 9.6953031718730909 7.3506202697753897 6.6449236869812003 9.2945689558982867 7.003827452659606 8.4127766788005811 7.4560245871543875 11.050464898347853 8.3196998536586744 7.1251524388790122 7.7537980377674094 12.313968718051909 7.00262427330017 24.192514926195145 8.0727808475494367 116.31687480211258 8.4338344037532789 7.0667475759983054 214.07496583461761 6.7496286928653717 298.04984852671623 7.6311118900775901 9.0063410997390729 755.29077649116516 78.873430073261261 9.0140404999256116 11.677133888006209 12.370246350765226 7.341546118259429 12.320164918899538 12.576120316982268 44.997283935546875 7.0114346444606772 187.33858180046082 6.9940644502639762 10.990124285221098
leaf_count=25 20 57 28 25 20 1603 23 27 1020 20 20 28 33 29 22 20 27 21 24 21 32 25 21 23 35 21 73 24 328 24 21 604 20 837 23 26 2285 238 27 33 35 22 37 38 136 21 566 21 33
internal_value=3.18747e-06 0.0195815 -0.0261774 0.0452117 -0.0260481 -0.029246 0.00230326 0.00977977 0.047547 0.0441675 -0.0107284 -0.0119754 -0.00555478 -0.0124782 -0.0265889 -0.0241325 -0.0157295 -0.00111732 0.0446423 0.0451132 -0.00904246 -0.0254304 -0.0119791 -0.0260238 0.0404251 -0.0277419 -0.0216687 -0.0129252 0.0407886 0.0318556 -0.0297703 0.0412165 -0.0190141 0.0462008 -0.0278669 0.0292842 -0.0279588 -0.0263852 -0.0265933 0.0391776 0.0465438 -0.0268832 -0.0271068 -0.0206153 -0.0280522 -0.0235968 -0.027621 -0.0246628 -0.0220977
internal_weight=2976.38 1699.45 610.129 1089.32 1276.94 550.762 59.3676 37.883 726.124 361.826 21.4846 48.1121 30.3866 20.8731 1228.82 399.54 55.2086 16.2984 354.849 346.436 19.5517 344.331 15.4449 328.886 363.193 829.284 38.9102 14.7177 354.383 28.5602 541.175 342.069 14.5924 317.876 821.933 18.3314 814.931 321.133 314.458 225.752 310.42 305.444 298.102 24.8963 807.299 52.0087 273.206 85.8675 17.7255
internal_count=8742 4888 1825 3063 3854 1652 173 110 2038 1018 63 143 90 62 3711 1203 165 48 998 974 57 1038 46 992 1025 2508 117 44 1000 81 1624 965 43 893 2486 53 2465 969 949 637 872 922 900 75 2442 157 825 259 53
is_linear=0
shrinkage=0.03


Tree=8
num_leaves=42
num_cat=0
split_feature=96 56 30 5 71 80 8 4 8 32 74 24 54 73 72 59 43 0 8 24 55 31 78 49 49 77 72 83 25 77 65 78 25 47 1 32 1 8 78 78 78
split_gain=4340.93 20.2209 7.84986 3.58012 3.18043 4.67461 2.51257 2.31473 4.58079 2.73811 3.53495 2.06823 2.44982 1.54799 1.48761 1.40759 1.44207 1.09904 1.00994 0.979578 0.92084 0.969742 0.800429 1.58297 1.69856 1.06149 0.713867 0.679476 1.28384 0.673562 0.641066 0.578224 0.584718 0.611091 0.925044 0.483759 0.436213 0.257216 0.098896 0.22918 0.0128234
threshold=1.5000000000000002 -0.067287791520357118 -0.47808220982551569 -0.13166533410549161 256.33128356933599 0.45243273675441747 -1.5672426223754881 -0.24377251416444776 0.25447711348533636 0.055087555199861533 0.90236833691596996 2.1131508350372319 1.0219137072563174 -0.14305145293474195 -0.074918501079082475 5.6015014648437509 75.058975219726577 0.29521755874156957 -1.9635345339775083 -1.8177068233489988 -0.95083644986152638 3.6822665929794316 0.44794258475303655 1.5567013621330263 2.0425040721893315 0.054483329877257354 -1.9717845320701597 1.0048201680183413 -0.39124377071857447 0.60153678059577953 1.0000000180025095e-35 0.26890134811401373 0.82630464434623729 0.45738279819488531 0.69939997792243969 -6.8669075965881339 5.1626684665679941 -2.8303861618041988 2.1318390369415288 1.5839845538139345 0.41737239062786108
decision_type=2 2 2 2 2 2 2 2 2 2 2 2 2 2 2 2 2 2 2 2 2 2 2 2 2 2 2 2 2 2 2 2 2 2 2 2 2 2 2 2 2
left_child=1 14 6 20 7 30 -2 8 -5 10 13 19 -13 -9 18 16 22 -8 35 26 -3 36 23 29 25 -25 -11 -16 -29 -4 -6 -21 33 34 38 -1 -22 -37 39 -33 -34
right_child=2 3 15 4 5 -7 17 9 -10 11 -12 12 -14 -15 27 -17 -18 -19 -20 31 21 -23 -24 24 -26 -27 -28 28 -30 -31 -32 32 40 -35 -36 37 -38 -39 -40 -41 -42
leaf_value=-0.029519307659614285 0.010623487917043444 -0.016597921540723811 0.038618880822661919 -0.024516699211711835 -0.01279667639251243 0.0039217104386828844 0.031879242763706628 -0.013178595869627248 0.0046815958055257557 -0.023799918555899278 0.00027762038037520796 -0.0018583252217291104 -0.023068472352082196 -0.029596213969850533 -0.033948950987778885 0.027388363845410352 0.021767384030303448 0.016093497275723369 -0.031238993460604405 -0.0314011795005502 -0.033232020933155242 -0.019509823675962958 0.040364605801283725 0.0097783271361909837 0.035263392120791291 0.026762889353928749 -0.0089853343163503688 -0.014680181645065252 -0.03174385228417289 0.02630810719805006 -0.028027188164384393 -0.025200742830248004 -0.021201556809210601 -0.013218856902803387 -0.012167251680930483 -0.013581068945550079 -0.019533973752514797 -0.023317437493216429 -0.031227983262227529 -0.015618740048209231 -0.032469834268088429
leaf_weight=12.399864643812178 9.2949598431587201 7.6667396426200858 461.23159718513489 11.671746134757997 7.3424435555934968 9.1722379028797132 35.837476998567581 13.179181933403015 7.3705585300922385 7.6905402541160583 8.4596480131149274 7.3345190584659603 15.000863045454023 12.411249995231628 1095.1604057252407 19.030150353908539 8.2152532339096052 8.1895056366920453 160.67523318529129 71.865388482809067 95.79016375541687 11.325166970491408 844.86671161651611 7.4521410763263729 25.017242848873138 9.3405265212059003 7.3299938142299634 9.8582695126533526 12.752075791358946 13.093200802803038 8.7824249267578107 74.141305387020111 8.3998817205429059 7.6735133528709403 7.2996340394020072 12.070613354444502 7.3106123507022849 10.221348434686663 18.993631064891815 8.7711754739284498 32.844206243753433
leaf_count=34 25 21 1233 32 20 25 96 36 20 21 23 20 41 34 3009 51 22 22 441 197 263 31 2258 20 67 25 20 27 35 35 24 203 23 21 20 33 20 28 52 24 90
internal_value=9.91952e-06 -0.0313084 0.0386965 -0.0257998 -0.0240313 -0.0129686 0.0263542 -0.0248615 -0.0135454 -0.0255293 -0.0165808 -0.026603 -0.0164816 -0.0219547 -0.0332497 0.0391512 0.0392946 0.0293656 -0.0299709 -0.027455 -0.030572 -0.0313563 0.0393844 0.0377048 0.029826 0.0201988 -0.0175826 -0.0337955 -0.0252409 0.0383351 -0.0222442 -0.0280208 -0.0262968 -0.0244846 -0.0251491 -0.0233869 -0.0324577 -0.0188548 -0.0259517 -0.0243853 -0.0307311
internal_weight=3222.53 1780.96 1441.57 467.827 345.734 25.2971 53.3219 320.437 19.0423 301.395 34.0501 267.345 22.3354 25.5904 1313.14 1388.25 1369.22 44.027 195.367 245.009 122.093 114.426 1361 516.135 41.8099 16.7927 15.0205 1117.77 22.6103 474.325 16.1249 229.989 158.123 116.879 109.206 34.6918 103.101 22.292 101.906 82.9125 41.2441
internal_count=8742 4888 3854 1281 946 69 143 877 52 825 93 732 61 70 3607 3711 3660 118 536 671 335 314 3638 1380 112 45 41 3071 62 1268 44 630 433 320 299 95 283 61 279 227 113
is_linear=0
shrinkage=0.03


Tree=9
num_leaves=41
num_cat=0
split_feature=57 11 11 55 34 78 10 73 32 80 72 54 9 81 57 2 25 86 80 8 25 25 56 24 77 83 73 25 34 2 78 50 73 34 10 72 24 57 73 73
split_gain=2237.01 993.595 383.749 52.3037 21.347 19.5391 13.4427 10.7869 16.3118 10.3434 6.49261 5.19175 4.97495 4.85365 6.54206 4.80486 3.91937 2.91719 3.07907 2.7772 2.65079 6.31069 8.24225 6.15503 1.62553 1.2955 0.926356 2.49808 4.9129 0.771558 0.578928 0.578538 1.56797 0.576292 0.498367 1.74879 0.709858 0.359303 0.243093 0.577116
threshold=-0.22004452347755429 0.54219070076942455 0.74563688039779674 -0.35157960653305048 2.9393005371093754 -0.90982812643051136 -2.505190253257751 -4.3558826446533194 -0.62161713838577259 -6.8669075965881339 0.078032769262790694 -0.93650421500205983 -1.4667202830314634 -0.37271751463413233 -0.064470957964658723 1.666454076766968 3.8619991540908818 0.093561287969350829 0.087371405214071288 0.81067904829978954 1.6433078646659853 1.7472178936004641 0.6268984079360963 1.9812874197959902 -0.26229605078697199 0.11067095026373865 -1.1111747622489927 -1.1237795352935789 -0.097194775938987718 -0.85100764036178578 -1.4004529714584348 -1.1990579366683958 -1.5635242462158201 -1.7190550565719602 1.3332569599151614 1.750755310058594 -1.0289440155029295 -0.20846620947122571 -1.2488936781883238 -1.6955901980400083
decision_type=2 2 2 2 2 2 2 2 2 2 2 2 2 2 2 2 2 2 2 2 2 2 2 2 2 2 2 2 2 2 2 2 2 2 2 2 2 2 2 2
left_child=1 5 3 -3 12 6 -1 8 10 -8 -2 15 -4 14 -9 19 17 38 -19 25 26 22 -22 24 -23 29 27 31 -29 -11 -16 32 -15 -26 36 -36 -33 -28 39 -7
right_child=7 2 4 -5 -6 16 9 13 -10 11 -12 -13 -14 20 30 -17 -18 18 -20 -21 21 23 -24 -25 33 -27 37 28 -30 -31 -32 34 -34 -35 35 -37 -38 -39 -40 -41
leaf_value=0.031627097419622927 -0.022572575240772847 -0.0074426978660834617 0.0019459985297645304 0.072904127564891161 0.040542857266048303 -0.021082780620223118 0.026754887097560704 0.018558808005126329 0.036643777997116718 -0.0093007476925371854 0.0078046742910471362 0.012500626065862783 -0.022801382671458124 0.0001260957291153954 -0.0089345056421188725 0.0066054717632104748 -8.2056208167751213e-05 0.0077279414069789144 -0.021028802437874659 0.004078091915520941 -0.021270441101591035 -0.0075133379480152853 0.024538438120912422 0.010875316296495338 -0.010024571925051422 -0.0053144557452282134 -0.012651074618486503 0.014073189109716595 -0.021757607203866977 -0.023113943230754129 -0.020947830027223214 -0.012055254385894573 -0.02161399769062498 -0.024116633384941199 -0.022152095666199242 5.2126226207790281e-05 -0.023884843013334787 -0.024250630288413996 -0.023408651071694309 -0.0058929298895320659
leaf_weight=8.8385756462812406 23.995411798357967 7.2253667563199988 8.6959806531667692 477.71820639073849 5.2518863230943671 5.634011521935463 6.9261206686496726 5.0141805261373547 5.6228910684585562 6.2777184545993725 7.9126386642456046 7.6068954169750205 40.426005646586418 4.7661470323801041 8.0639513731002843 9.1660218834876996 8.352062061429022 6.1869790554046613 5.4377206116914749 4.950396239757537 6.0639762282371503 7.3264752179384223 6.0817047655582428 4.6759955137968054 4.708898961544036 6.3163656145334235 5.7958227843046179 4.9549795687198639 7.3949446678161603 30.187033817172058 13.14205680787563 7.9701872020959845 6.9416679441928846 89.209010973572731 8.5805310606956464 4.7806054800748816 138.26753079891205 1016.8575375974178 103.53450173139572 5.0161524564027768
leaf_count=34 103 30 35 1608 20 24 27 20 21 26 32 31 172 20 34 37 34 26 23 20 26 31 24 19 20 26 24 20 32 128 56 34 30 385 37 20 598 4391 443 21
internal_value=-2.54676e-05 0.0415489 0.0632352 0.0716942 -0.0121399 -0.0130349 -0.00129433 -0.0226139 -0.00653923 -0.00574833 -0.0150313 -0.0095935 -0.018469 -0.0230554 -0.00975788 -0.0127123 -0.0199978 -0.0213089 -0.00632387 -0.0164813 -0.0233111 -0.0185618 0.00178919 -0.0208903 -0.0224494 -0.0188992 -0.0237602 -0.0212081 -0.00740441 -0.0210476 -0.0169876 -0.0221545 -0.0134503 -0.0235231 -0.0227053 -0.014757 -0.0233264 -0.0241973 -0.0227663 -0.0150484
internal_weight=2141.88 753.748 539.317 484.944 54.3739 214.431 80.2691 1388.13 37.5309 71.4306 31.9081 64.5044 49.122 1350.6 26.2202 56.8975 134.161 125.809 11.6247 47.7315 1324.38 118.066 12.1457 105.92 101.244 42.7811 1206.31 183.657 12.3499 36.4648 21.206 171.307 11.7078 93.9179 159.599 13.3611 146.238 1022.65 114.185 10.6502
internal_count=8742 2765 1865 1638 227 900 329 5977 156 295 135 268 207 5821 110 237 571 537 49 200 5711 505 50 455 436 180 5206 791 52 154 90 739 50 405 689 57 632 4415 488 45
is_linear=0
shrinkage=0.03


Tree=10
num_leaves=52
num_cat=0
split_feature=96 96 83 6 30 7 97 6 50 3 73 9 34 35 8 5 80 49 11 35 72 43 83 59 33 67 92 51 0 11 57 74 56 11 6 61 28 72 33 26 59 59 59 22 72 79 0 79 57 9 0
split_gain=1582.37 2060.56 57.3775 10.3416 10.1708 9.32701 6.51233 5.74001 5.16165 7.21079 4.08326 3.86932 3.33071 3.62388 3.26337 3.09947 4.35454 5.23842 7.04327 2.77483 2.9438 2.68138 3.10679 1.82993 1.60565 1.43726 1.42994 1.40085 1.35204 0.961793 0.916929 1.10502 0.864775 0.689186 0.611832 0.526575 0.482057 0.380688 0.470036 0.376877 0.849146 0.367764 0.186782 0.430746 0.156177 1.49289 0.357953 0.40129 0.131404 0.0348613 0.00877016
threshold=1.5000000000000002 1.0000000180025095e-35 0.54223835468292247 0.041386747732758529 -0.47808220982551569 -0.35157960653305048 7.5000000000000009 -0.075692128390073762 0.041519653052091605 -0.85864380002021778 -0.19289679825305936 0.40569883584976202 -1.5519107580184934 -0.23424419015645978 -0.48041172325611109 0.36385767161846166 0.61059752106666576 1.2923059463500979 0.94523298740386974 5.3916084766387948 -1.4237725138664243 22.889522552490238 0.25674553215503698 5.6015014648437509 0.31700178980827337 59.278303146362312 -20.953894615173336 -0.20028092712163922 -0.60599330067634571 -2.4006038904190059 1.8488973975181582 2.7841069698333745 -0.10689066350460051 0.60645031929016124 0.21423473209142688 -21.293804168701168 0.59855580329895031 -1.9717845320701597 1.0391275286674502 2.3969769477844243 2.7340004444122319 0.29467006027698522 -1.0768463611602781 -0.94105780124664296 -0.42702326178550715 0.17829091846942904 -0.18519955128431317 -0.7773398458957671 -3.8513830900192256 -1.4667202830314634 -1.7660632133483884
decision_type=2 2 2 2 2 2 2 2 2 2 2 2 2 2 2 2 2 2 2 2 2 2 2 2 2 2 2 2 2 2 2 2 2 2 2 2 2 2 2 2 2 2 2 2 2 2 2 2 2 2 2
left_child=1 2 6 7 12 -4 10 11 9 -8 -1 19 49 -14 -15 16 21 27 -19 20 33 23 -23 36 -10 30 -17 28 -18 -22 31 42 -7 -3 -28 -36 37 -6 44 -37 -41 -32 -5 -44 50 46 -46 -48 -31 -2 -39
right_child=4 3 5 25 15 32 8 -9 24 -11 -12 -13 13 14 -16 26 17 18 -20 -21 29 22 -24 -25 -26 -27 34 -29 -30 48 41 -33 -34 -35 35 39 -38 38 -40 40 -42 -43 43 -45 45 -47 47 -49 -50 -51 -52
leaf_value=0.00054125501929347983 -0.014430430815817727 0.035292813956661083 0.00045154085851547367 0.04497100024070682 -0.01506120505913801 -0.029538903763765931 -0.015800977120299466 0.048361702501439577 -0.0062278895691994579 0.021741058770218556 0.02491589347961835 0.016719195845249051 0.0094112495723629244 -0.00074254201309902025 -0.024078182437395981 -0.011622433069041175 -0.021606471547498517 0.015548307697412179 -0.022091448839898959 0.021451670762807074 0.030749330155579544 -0.023066668642029713 0.0029817887861555486 -0.0094138870842369951 -0.024467167441997943 0.020591419087749731 -0.014594598219240586 -0.02577254573752406 -0.0033926613681131783 0.030428061736524771 0.020558518276177183 0.028234496482502574 -0.015132550340027934 0.020307266262607159 -0.01549563044244839 -0.027827745761741244 -0.015915420662648838 -0.018196993025312417 -0.01457058063008174 -0.024711275263027809 -0.010909536358749276 0.035080103874526737 0.023973718663524258 0.03910987433949057 -0.009623946658490987 -0.026808531166300553 -0.011089819377402711 -0.022141528263524772 0.04488187467573021 -0.024555666212457992 -0.028512171294483021
leaf_weight=11.359484702348711 6.6771948337554958 21.863573044538501 9.572671562433241 54.274497270584106 7.2292529642581931 526.81760606169701 7.1351909339427975 370.20793375372887 8.8438178896904009 9.7333600521087629 12.700220644474028 7.037586420774459 9.508049279451372 11.143889278173448 9.5732118487358075 7.2667532563209525 6.5470945835113517 9.304416775703432 6.9095102548599234 8.5094597637653333 14.447639822959898 8.1990530192852003 7.094856232404708 7.6975070536136618 9.6917845010757429 7.4875388443469992 6.9265809059143058 23.795357912778854 8.0093467533588392 9.3806569278240186 10.777336061000826 18.631979703903198 7.020877093076705 9.2492351830005628 7.532504975795745 742.0202222764492 9.8841330111026746 6.8885815739631644 6.922192007303237 44.26127028465271 6.9427101612091056 8.2681613862514478 7.4981015026569358 261.42351832985878 6.537581890821456 104.85948994755745 7.1700517535209682 23.537294924259186 296.75287240743637 10.840346395969389 142.89584198594093
leaf_count=33 20 61 28 151 22 1603 21 1020 26 28 36 20 28 33 29 22 20 27 21 24 40 25 21 23 29 21 21 73 24 26 30 52 21 26 23 2285 30 21 21 136 21 23 21 727 20 322 22 72 821 33 439
internal_value=6.49362e-06 0.0187939 -0.0257964 0.0431053 -0.0255433 -0.0288527 0.00214921 0.0453115 -0.00599089 0.00586565 0.0138885 0.0421137 -0.0116169 -0.00527482 -0.0121379 -0.0260834 -0.023627 -0.0152466 -0.000843288 0.0425622 0.0430107 -0.0249275 -0.0115414 -0.0255226 -0.016529 0.0385778 -0.027239 -0.0211597 -0.012447 0.0440156 0.0388931 0.0393991 -0.0293781 0.031609 -0.027365 -0.0274571 -0.0258841 -0.0261532 -0.0263704 -0.027551 -0.0230847 0.0282983 0.0399537 0.0387782 -0.0265995 -0.0247678 -0.0184714 -0.0199921 0.0445395 -0.0216839 -0.0281616
internal_weight=2964.86 1708.69 602.875 1105.81 1256.17 543.411 59.4639 737.449 35.4042 16.8686 24.0597 367.241 47.7427 30.2252 20.7171 1208.43 393.482 54.5657 16.2139 360.203 351.694 338.916 15.2939 323.622 18.5356 368.361 814.95 38.3518 14.5564 320.581 360.874 341.828 533.838 31.1128 807.683 800.757 315.924 306.04 298.811 793.224 51.204 19.0455 323.196 268.922 291.889 142.104 37.2449 30.7073 306.134 17.5175 149.784
internal_count=8742 4888 1825 3063 3854 1652 173 2038 104 49 69 1018 143 90 62 3711 1203 165 48 998 974 1038 46 992 55 1025 2508 117 44 887 1004 951 1624 87 2486 2465 969 939 917 2442 157 53 899 748 896 436 114 94 847 53 460
is_linear=0
shrinkage=0.03


Tree=11
num_leaves=45
num_cat=0
split_feature=96 56 30 5 70 1 34 35 1 48 53 51 73 1 17 2 83 49 25 25 25 6 77 53 49 49 78 30 48 24 25 31 73 28 78 31 35 24 81 81 31 77 43 25
split_gain=4072.08 19.6697 7.23814 3.49 3.97879 3.00066 2.21158 3.30359 2.1678 3.22897 6.84281 3.80194 3.96907 5.42106 2.7941 2.20955 1.93627 1.89371 1.4805 3.23632 3.8767 1.39933 1.33415 2.14685 1.31887 1.06853 1.05731 1.17977 1.40354 1.29437 0.918324 1.04367 0.761115 0.819096 0.814336 0.467573 0.407635 0.285675 0.183624 0.296862 0.138683 0.120842 0.106786 0.05976
threshold=1.5000000000000002 -0.067287791520357118 -0.47808220982551569 -0.13166533410549161 0.7798573672771455 0.0071969844866544017 -1.5519107580184934 -0.37420356273651117 2.3829028606414799 -0.55316913127899159 1.1374179124832156 -0.1148703135550022 0.47925014793872839 -0.039140969514846795 10.243064403533937 2.6674346923828129 2.1289545297622685 1.4449694156646731 -0.3083889484405517 -0.44727891683578486 -0.39124377071857447 0.53623172640800487 0.010570637881755831 -0.054060118272900574 0.84172174334526073 0.077073730528354659 0.28709478676319128 0.29182527959346777 2.533103466033936 3.1768476963043217 6.697707176208497 3.6822665929794316 -0.3007595539093017 0.11463001370429994 0.031226702034473423 -1.0128918290138242 0.5654711425304414 -0.11097636446356772 1.0174562335014345 1.289109528064728 1.0000000180025095e-35 -0.67080482840538014 24.797707557678226 -1.0778024196624754
decision_type=2 2 2 2 2 2 2 2 2 2 2 2 2 2 2 2 2 2 2 2 2 2 2 2 2 2 2 2 2 2 2 2 2 2 2 2 2 2 2 2 2 2 2 2
left_child=1 18 6 30 8 -6 -2 -8 9 10 11 -5 13 21 16 -12 26 -14 19 43 -21 -13 23 24 -4 41 40 -28 38 -30 31 35 34 -34 -25 -3 -26 -20 -29 -40 -11 -9 -24 -1
right_child=2 3 22 4 5 -7 7 25 -10 14 15 12 17 -15 -16 -17 -18 -19 37 20 -22 -23 42 32 36 -27 27 28 29 -31 -32 -33 33 -35 -36 -37 -38 -39 39 -41 -42 -43 -44 -45
leaf_value=-0.031799720996118983 0.033910616586979206 -0.018835801026016022 0.037500308522526282 0.0076566709100996354 -0.018502536734971629 0.0054370510531841203 0.0027069569700344217 0.021042922122036012 -0.032597777456858934 -0.020579752182958724 -0.03113021843687503 -0.023136144953867444 -0.029543633965263289 0.014672039236603908 -0.0087371344613080808 -0.012122288623978053 -0.012979982028426599 -0.01220472814727825 -0.029702198149384594 0.0011926303473700898 -0.027046441960520907 -0.0044885273506011748 0.038493137608447109 0.035441767669521201 0.031071918853299862 0.012685911723495419 -0.011881649284644377 -0.029196424411427759 -0.0070958309302588266 -0.024132057726725678 -0.016011530028803157 -0.018480086221450011 0.01277168281120329 0.027345778123824851 0.018493477193678193 -0.032492104301380248 0.016995672063341318 -0.033262717261977437 -0.014103980035801855 -0.025098010800225015 -0.032111943614618083 0.034544780712454058 0.031414534236098662 -0.025572230387707989
leaf_weight=87.718741446733475 19.835907191038132 7.2505831122398368 147.30330240726471 7.6596539020538321 10.58473387360573 7.3269728124141684 8.2000306844711286 9.3378922939300555 30.38362181186676 8.337832570075987 32.657952040433884 7.6294893622398394 13.780343919992449 7.657932072877883 9.8158413469791395 8.7316671013832075 11.996323227882383 13.047833830118178 116.64003765583038 7.6306369006633785 9.0062444508075696 7.2661266028881073 1150.5685722529888 17.615654379129413 8.6050720214843768 7.4692783057689658 8.7065569758415204 58.005286246538162 9.1069071888923663 8.3736836612224561 7.6163545846939078 10.890200793743132 10.85318559408188 8.6198072135448438 7.4951317012310019 95.212747812271118 8.9647258520126325 1045.4013110399246 8.3339517414569872 16.669511586427689 57.182086080312729 8.6021115779876727 31.090054333209991 33.553409606218338
leaf_count=243 53 20 393 21 29 20 22 25 84 23 90 21 38 21 27 24 33 36 323 21 25 20 3069 47 23 20 24 160 25 23 21 30 29 23 20 264 24 2902 23 46 158 23 83 93
internal_value=1.10019e-05 -0.030563 0.0373449 -0.0251136 -0.0233671 -0.00894011 0.0254962 0.0196937 -0.0241315 -0.0231522 -0.0182769 -0.0112254 -0.0142481 -0.00465859 -0.0254891 -0.0275008 -0.0263186 -0.0218525 -0.0324882 -0.0285451 -0.0147611 -0.0148944 0.0377814 0.034499 0.0363484 0.0248656 -0.0271553 -0.0246027 -0.0255769 -0.0161209 -0.0298373 -0.0306181 0.0270123 0.0202436 0.031285 -0.0317171 0.0251917 -0.0329312 -0.0273526 -0.0221169 -0.0309758 0.0289991 0.0383336 -0.0302999
internal_weight=3208.74 1764.17 1444.56 464.224 343.254 17.9117 53.4452 33.6093 325.343 294.959 98.431 57.0414 49.3817 22.5535 196.528 41.3896 186.712 26.8282 1299.95 137.909 16.6369 14.8956 1391.12 209.457 164.873 25.4093 174.716 109.196 100.489 17.4806 120.97 113.354 44.5838 19.473 25.1108 102.463 17.5698 1162.04 83.0087 25.0035 65.5199 17.94 1181.66 121.272
internal_count=8742 4888 3854 1281 946 49 143 90 897 813 271 157 136 62 542 114 515 74 3607 382 46 41 3711 559 440 68 482 301 277 48 335 314 119 52 67 284 47 3225 229 69 181 48 3152 336
is_linear=0
shrinkage=0.03


Tree=12
num_leaves=22
num_cat=0
split_feature=96 83 9 81 97 49 73 61 1 81 83 9 72 56 8 55 87 76 0 57 47
split_gain=3595.01 31.3632 7.80078 5.50364 5.07561 4.85117 4.18614 3.45371 3.3028 1.98256 1.10756 0.992178 1.66852 0.954356 2.16001 0.903875 0.444531 0.504253 0.42504 0.257813 0.0737524
threshold=1.0000000180025095e-35 0.54223835468292247 -0.20017477869987485 -0.51780223846435536 7.5000000000000009 1.2376427650451662 -0.19289679825305936 1.9456709027290346 2.2346483469009404 -0.62970817089080799 3.6042716503143315 -0.8835882544517516 -0.043288242071866982 -1.1287079453468321 -1.270767033100128 -1.5531033277511594 -77.25710296630858 0.26690007746219641 -0.40183442831039423 -3.8513830900192256 2298.0732421875005
decision_type=2 2 2 2 2 2 2 2 2 2 2 2 2 2 2 2 2 2 2 2 2
left_child=1 4 -3 5 6 10 -1 9 -6 11 15 12 -7 14 18 -2 -17 19 -5 -18 -15
right_child=3 2 -4 13 8 7 -8 -9 -10 -11 -12 -13 -14 20 -16 16 17 -19 -20 -21 -22
leaf_value=0.039018874520475491 -0.0076976257395614161 0.067774017673987136 0.024965370138417136 -0.023545220315508292 0.05620097691383065 -0.016169697217523777 0.0095425528724768453 0.01186010090537272 0.028988813072569581 0.0050560410460310087 -0.0050877885002911247 -0.022460925016398337 0.0045488374317090869 -0.024039300150393964 -0.0017924468313326729 -0.012485207130167668 -0.013225395306791008 -0.0098033106649795324 -0.01248309389226988 -0.023950983284814563 -0.015805438451650267
leaf_weight=9.0423414707183856 5.6799410581588736 507.33097112178802 5.3823567926883689 22.33832959830761 19.522896170616153 8.7435404956340808 9.1415949612855893 6.1517837196588507 9.7915343642234784 4.8171103745698955 4.7807724624872199 9.4138338863849622 4.893470659852027 1388.749053016305 6.5234750360250464 8.3610446155071241 6.3222277313470832 4.6633104234933844 8.2698452472686785 73.960670858621597 8.5342195034027082
leaf_count=33 24 1632 20 98 68 37 36 25 36 20 20 40 20 6130 27 36 27 20 35 321 37
internal_value=-3.18861e-05 0.0651551 0.0673741 -0.0232862 0.0403077 -0.0172628 0.0254701 -0.00715064 0.0483677 -0.0116127 -0.0204781 -0.0151615 -0.00893226 -0.0238523 -0.0177991 -0.0211631 -0.0218924 -0.0226623 -0.0210459 -0.0232794 -0.0240003
internal_weight=2132.41 560.212 512.713 1572.2 47.4984 137.788 18.1839 34.0197 29.3144 27.868 103.768 23.0508 13.637 1434.41 37.1316 98.9872 93.3073 84.9462 30.6082 80.2829 1397.28
internal_count=8742 1825 1652 6917 173 590 69 142 104 117 448 97 57 6327 160 428 404 368 133 348 6167
is_linear=0
shrinkage=0.03


Tree=13
num_leaves=48
num_cat=0
split_feature=96 96 83 30 6 7 97 6 9 75 9 34 35 8 5 80 49 11 43 83 35 24 49 31 59 92 51 22 0 10 11 59 1 56 23 68 6 61 28 5 24 33 59 72 85 11 77
split_gain=1484.43 1922.18 54.7216 9.94002 9.46961 8.97282 6.18046 5.21687 5.00562 17.5636 3.56559 3.19266 3.44682 3.1907 3.08342 4.30097 5.10153 6.83222 2.64433 3.05116 2.56284 3.40798 2.48766 1.90128 1.81608 1.42885 1.39071 1.36228 1.34495 1.19452 0.900756 0.829465 1.23015 0.824103 0.741277 0.702523 0.62291 0.542506 0.496728 0.467511 0.443025 0.50216 0.369662 0.348011 2.19736 0.105472 0.0613952
threshold=1.5000000000000002 1.0000000180025095e-35 0.54223835468292247 -0.47808220982551569 0.041386747732758529 -0.35157960653305048 7.5000000000000009 -0.075692128390073762 0.3210511058568955 -0.58818641304969776 0.40569883584976202 -1.5519107580184934 -0.23424419015645978 -0.48041172325611109 0.36385767161846166 0.61059752106666576 1.2923059463500979 0.94523298740386974 22.889522552490238 0.25674553215503698 5.3916084766387948 -1.4244129657745359 -0.55755388736724842 1.0000000180025095e-35 5.6015014648437509 -20.953894615173336 -0.20028092712163922 -1.3500397801399229 -0.60599330067634571 -2.097780585289001 0.60645031929016124 -0.27209264039993281 2.1597447395324711 -0.10689066350460051 525.41400146484386 -22.573861122131344 0.21423473209142688 -21.293804168701168 0.59855580329895031 0.069067381322383894 -1.7249395847320554 1.0391275286674502 6.3775000572204599 -0.42702326178550715 2.04082202911377 -3.3131198883056636 -1.6566417813301084
decision_type=2 2 2 2 2 2 2 2 2 2 2 2 2 2 2 2 2 2 2 2 2 2 2 2 2 2 2 2 2 2 2 2 2 2 2 2 2 2 2 2 2 2 2 2 2 2 2
left_child=1 2 6 11 7 -4 22 10 9 -8 20 46 -13 -14 15 18 26 -18 24 -20 21 30 -1 -24 38 -16 28 -6 -17 -29 -3 -31 34 -7 -33 -23 -27 -38 40 -37 -5 43 45 -42 -45 -39 -2
right_child=3 4 5 14 27 33 8 -9 -10 -11 -12 12 13 -15 25 16 17 -19 19 -21 -22 35 23 -25 -26 36 -28 29 -30 31 -32 32 -34 -35 -36 39 37 42 -40 -41 41 -43 -44 44 -46 -47 -48
leaf_value=0.00076622339295121466 -0.013886955708807236 0.032908421893088943 0.00023205385124092765 -0.01748385933486055 0.020958422560440105 -0.029160267163294073 -0.020089781540124703 0.046215898806656941 -0.021042094396400857 0.030174867630947708 0.016024020496062163 0.0092360653383681737 -0.00054088495811756949 -0.02368777267682174 -0.011170257295897091 -0.021198376920058781 0.015508145657086836 -0.021685701208701461 -0.022651634008310426 0.0032368356419988876 0.020550207655449529 0.02554533778506857 0.030785176220240466 0.0084777113924251763 -0.0089963069138985722 -0.014124563449802192 -0.025301017840899609 0.023973344128651885 -0.003006879150380544 0.040993970941077117 0.017268986086457293 0.035141728345523232 0.04499254760306285 -0.014988625816648721 0.022943557865680666 0.042876014510578243 -0.01500124328169356 -0.018815610997582482 -0.015427483724628216 0.029873116141947671 -0.02804959315351024 -0.014101469308419306 -0.016312313789719216 -0.025303963032105432 -0.008971170964565553 -0.02726173496429438 -0.024113167504840563
leaf_weight=9.336714446544649 6.5848555266857174 20.645987451076511 9.606376111507414 14.257541716098784 9.0018151402473432 519.22804322838783 13.257218986749647 374.86261054873466 12.075219959020613 10.154078006744387 7.0930741131305686 9.5324274897575396 11.104441583156587 9.4474175274372083 7.1847528517246237 6.4553989470005035 9.3088143467903155 6.8148365616798392 8.0814555585384351 7.0636039674282065 8.5869395136833173 7.6302447319030753 7.0967076420783979 7.8229250311851501 7.625985473394393 6.8383468687534323 23.385155439376831 12.629322081804274 7.9476365149021131 119.49016052484512 8.5995184481143934 195.90804046392441 23.302715361118317 6.9937925636768332 12.302394032478331 306.34272983670235 7.4266570210456839 10.845076233148573 9.7535035014152509 12.699672043323515 139.96960002183914 6.8339599370956412 8.143692344427107 130.37740233540535 9.3660597205162031 759.72668570280075 10.67221090197563
leaf_count=27 20 57 28 44 25 1603 39 1020 36 29 20 28 33 29 22 20 27 21 25 21 24 21 20 22 23 21 73 35 24 328 24 539 64 21 34 837 23 34 30 35 438 21 25 407 29 2383 33
internal_value=1.03383e-05 0.0180669 -0.025446 -0.0250587 0.041226 -0.0284772 0.00176145 0.043324 -0.00616616 0.00205431 0.0402905 -0.0112436 -0.00504258 -0.0117866 -0.0255996 -0.0231386 -0.0147785 -0.000560606 -0.0244425 -0.0111247 0.0407175 0.0411452 0.0131443 0.0203558 -0.0250396 -0.0267602 -0.0206742 0.0369186 -0.0120072 0.0372552 0.0290327 0.0376636 0.0357758 -0.0290007 0.0345341 0.0421376 -0.0268872 -0.0269801 -0.0254034 0.0424534 -0.0256747 -0.02602 -0.0270749 -0.0262599 -0.0242808 -0.0271674 -0.0211855
internal_weight=2949.41 1714.67 595.571 1234.75 1119.1 535.828 59.7429 746.461 35.4865 23.4113 371.598 47.3414 30.0843 20.5519 1187.41 387.241 53.9118 16.1237 333.329 15.1451 364.505 355.918 24.2563 14.9196 318.184 800.165 37.7882 372.634 14.403 363.633 29.2455 351.003 231.513 526.222 208.21 326.673 792.98 786.142 310.558 319.042 300.805 286.547 778.715 279.713 139.743 770.572 17.2571
internal_count=8742 4888 1825 3854 3063 1652 173 2038 104 68 1018 143 90 62 3711 1203 165 48 1038 46 998 974 69 42 992 2508 117 1025 44 1000 81 965 637 1624 573 893 2486 2465 969 872 939 895 2442 874 436 2417 53
is_linear=0
shrinkage=0.03


Tree=14
num_leaves=39
num_cat=0
split_feature=96 56 30 65 8 8 29 51 27 56 32 33 9 73 71 77 73 72 29 0 49 5 8 23 33 24 83 25 0 24 31 73 53 32 31 8 43 65
split_gain=3826.36 19.1771 6.63076 3.41996 4.04201 2.8269 2.7498 2.67833 2.45626 6.32927 2.47804 2.98616 2.65635 3.09909 2.06094 1.70583 2.21108 1.48721 1.44714 1.34625 1.34612 1.06133 1.0446 0.915986 0.931986 0.960039 0.724938 1.28968 0.606899 1.37386 0.587236 0.586894 0.569268 0.527541 0.470706 0.290238 0.108291 0.0955532
threshold=1.5000000000000002 -0.067287791520357118 -0.64970466494560231 -0.20682686567306516 0.52457603812217724 0.92136636376380932 -0.13100403547286985 -0.1383002772927284 -0.23012606799602506 0.34421434998512274 0.11175409704446794 0.21474334597587588 0.0099278679117560404 0.21892718225717547 322.50868225097662 0.010570637881755831 0.9252157211303712 -0.074918501079082475 -0.054035892710089677 2.9962458610534672 2.0425040721893315 0.003915453329682351 -1.9635345339775083 601.89047241210949 1.8511264920234682 -1.8177068233489988 1.0048201680183413 -0.39124377071857447 -0.30217447876930231 -1.0000000180025095e-35 3.6822665929794316 -0.3007595539093017 0.41505676507949835 -6.8669075965881339 -0.76064071059226979 -2.8303861618041988 24.797707557678226 -7.7396869659423819
decision_type=2 2 2 2 2 2 2 2 2 2 2 2 2 2 2 2 2 2 2 2 2 2 2 2 2 2 2 2 2 2 2 2 2 2 2 2 2 2
left_child=1 17 7 4 14 -6 30 28 9 -8 11 12 13 -10 37 16 18 22 -4 23 -18 -20 33 24 25 -12 -19 -28 -2 -30 34 -23 -15 -1 -5 -35 -17 -3
right_child=2 3 15 6 5 -7 8 -9 10 -11 19 -13 -14 32 -16 36 20 26 21 -21 -22 31 -24 -25 -26 -27 27 -29 29 -31 -32 -33 -34 35 -36 -37 -38 -39
leaf_value=-0.028150053427065572 0.031106590158576086 -0.018290690804331152 0.036225055000610358 -0.018262975366526889 0.010013744467977264 -0.014868573164508602 -0.025360169516438425 0.0062230061351358432 -0.0004771012665913889 0.0047857284512066705 -0.016187793101741746 -0.0047168569746650632 -0.031426717801419583 -0.014215492701589503 -0.0085700402307691062 0.037230526057663249 0.014823778225939117 -0.032476084015586527 0.018078372406359428 -0.013724280736216425 0.031404224224151289 0.035251470909051029 -0.029804530994300193 -0.013823839501193093 -0.016810882868572557 -0.028046234205533711 -0.013431034557954323 -0.030331566252707533 0.00863646245750198 0.02767120437507609 -0.018625737696868986 0.022260961660166282 -0.029120432057439635 -0.012333462908266833 -0.03180043759703665 -0.021991774911351389 0.0303685003428949 -0.030796113081114938
leaf_weight=12.160096347331999 21.347347378730774 7.1979807615280178 142.45692610740662 7.1918154656887046 7.2615582346916181 7.2152613699436188 15.043001741170885 7.4545689225196829 9.0382038354873675 9.8358204960823041 11.212550044059752 12.637520790100096 15.853619664907454 8.6262355148792249 8.6809248924255353 1154.981119543314 14.218863904476168 1071.5498325824738 13.122191429138182 11.212248027324675 9.3572644591331464 21.745997846126556 157.50938329100609 8.3041514456272107 13.686691731214522 192.12667858600616 9.7145794630050677 12.482740283012388 7.4812075495719919 8.2298101484775508 9.3684707283973676 13.122964411973951 7.1789711713790885 11.909017980098723 86.094989359378815 10.047263056039812 31.106504559516907 12.574292689561846
leaf_count=34 57 20 380 20 20 20 42 20 25 27 31 35 44 24 24 3081 38 3009 35 31 25 58 441 23 38 535 27 35 20 22 26 35 20 33 241 28 83 35
internal_value=1.17581e-05 -0.029868 0.0361147 -0.0244696 -0.0157152 -0.00254704 -0.0253303 0.0236506 -0.0237084 -0.0137176 -0.0245158 -0.017922 -0.0218111 -0.0146964 -0.0221011 0.0364938 0.0331085 -0.0317808 0.0343083 -0.0259208 0.0224146 0.0279954 -0.0285368 -0.0264644 -0.0268824 -0.0274748 -0.0323226 -0.0238329 0.0269007 0.0196665 -0.0300263 0.0311194 -0.0223155 -0.0220017 -0.0309616 -0.0175186 0.0370763 -0.0273433
internal_weight=3190.34 1745.71 1444.62 460.341 42.93 14.4768 417.411 44.5129 314.756 24.8788 289.877 53.3346 40.697 24.8434 28.4532 1400.11 214.024 1285.37 190.448 236.542 23.5761 47.9912 191.626 225.33 217.026 203.339 1093.75 22.1973 37.0584 15.711 102.655 34.869 15.8052 34.1164 93.2868 21.9563 1186.09 19.7723
internal_count=8742 4888 3854 1281 119 40 1162 119 875 69 806 148 113 69 79 3735 571 3607 508 658 63 128 536 627 604 566 3071 62 99 42 287 93 44 95 261 61 3164 55
is_linear=0
shrinkage=0.03


Tree=15
num_leaves=44
num_cat=0
split_feature=57 11 11 7 10 77 73 49 73 32 72 72 8 81 57 56 25 49 49 57 48 7 97 87 74 73 85 73 25 10 51 58 72 48 26 10 74 57 51 73 52 73 54
split_gain=1958.26 791.964 295.642 39.779 18.9869 16.7576 12.1649 11.8884 10.5428 14.5443 7.35226 6.19413 5.17138 4.79423 6.11596 4.5931 3.73003 2.72587 8.26875 6.52524 6.02163 2.66439 4.56787 2.56403 1.57851 1.52298 1.03122 0.970764 2.47325 4.67732 1.32225 1.19696 0.825623 0.551876 0.526928 0.426421 0.329174 0.273307 0.164414 0.074956 0.692003 0.17173 0.0281004
threshold=-0.22004452347755429 0.54219070076942455 0.74563688039779674 -0.35157960653305048 2.5010930299758916 -1.0091374516487119 3.3571397066116337 -1.8490338325500486 -4.3558826446533194 -0.62161713838577259 1.4530616998672488 0.078032769262790694 -0.85147881507873524 -0.37271751463413233 -0.064470957964658723 -0.69176417589187611 -1.4751548767089842 1.6607169508934023 1.7789078354835512 0.76160988211631786 1.966387212276459 0.067969657480716719 6.5000000000000009 -16.330628395080563 2.9424902200698857 1.6399480104446413 2.6993153095245366 -1.1111747622489927 -1.1237795352935789 -0.00805329089052975 -0.430348590016365 0.32573732733726507 0.16506224870681765 3.8357101678848271 1.8923171758651736 -2.0641123056411739 -0.73343241214752186 -0.20846620947122571 -0.53434985876083363 -1.2133152484893797 -0.4410566240549087 1.2372415065765383 -0.21096440404653546
decision_type=2 2 2 2 2 2 2 2 2 2 2 2 2 2 2 2 2 2 2 2 2 2 2 2 2 2 2 2 2 2 2 2 2 2 2 2 2 2 2 2 2 2 2
left_child=1 5 3 -3 16 6 7 -1 9 11 23 -2 -12 14 -10 21 -4 27 19 -19 24 32 -23 -9 42 35 39 28 30 -30 31 38 -7 -32 36 -25 -16 -29 -15 40 -17 -41 -20
right_child=8 2 4 -5 -6 15 -8 10 13 -11 12 -13 -14 17 34 26 -18 18 20 -21 -22 22 -24 25 -26 -27 -28 37 29 -31 33 -33 -34 -35 -36 -37 -38 -39 -40 41 -42 -43 -44
leaf_value=0.029737493494528918 -0.022211707516002176 -0.0071941553225711051 0.0036661704061541323 0.063182546773965467 0.024905462587040701 -0.02207294187683911 0.035482703643101916 0.0038195424011038021 0.017763595593297991 0.033515786266900417 0.027840511218088282 0.0075545052752550718 -0.010685878878888192 -0.0092856356307764436 -0.0093453941802823653 -0.021241682400400842 -0.02319737844382291 -0.013229161368203566 -0.01604007945078479 0.02911747907691295 0.010572134581237364 -0.012935251559886771 0.017524468794184064 -0.010071894207918474 -0.0078210832690971555 -0.0059346614694618573 -0.0092314504344052067 -0.013190420055808779 0.013823053170703389 -0.021379915940153947 -0.023009078242721803 0.00069792167804936611 -0.005324246239521005 -0.0092449308615251049 -0.0066824687423882251 -0.023562758301802683 -0.022491873628854502 -0.023911328309668359 -0.020944049079801547 -0.023396509615637242 -0.0052660988999153006 -0.016795713789196046 -0.024093606332348236
leaf_weight=6.94717814028263 23.067267268896106 7.1335979998111716 4.9838792979717246 519.40784922242165 9.4886515289545041 8.3150584101676959 6.7176488935947409 5.0453837662935248 5.0827346295118359 5.8962839990854254 6.1274908930063248 7.9512624889612189 4.8586522042751294 4.5166424661874762 4.5471751838922527 6.5203092247247696 38.731647983193398 6.5060593187808973 8.8619318157434446 4.8641287833452225 4.7053769528865805 8.6542102545499784 7.1943160593509665 4.7176941931247667 7.5475485175847998 8.0638152956962568 8.4098624438047391 6.1391020566225043 4.9639997482299805 7.0889805853366834 144.46761173009872 4.6550001353025428 4.8192836642265311 4.5146547555923453 5.3405102044343939 22.51586069166661 10.697752878069876 973.0210207849741 6.010277807712554 78.025403335690498 4.8749549239873868 17.399203255772591 80.589158296585083
leaf_count=26 103 30 20 1608 36 36 25 21 20 21 23 32 20 20 20 29 171 29 39 18 19 37 28 20 33 33 37 26 20 32 652 20 20 20 23 99 47 4392 27 349 21 76 364
internal_value=-3.63875e-05 0.037387 0.0554178 0.0622173 -0.0117797 -0.0126055 5.47585e-05 -0.00455883 -0.02223 -0.00621969 -0.00968028 -0.0145838 0.0113321 -0.0226815 -0.00934687 -0.0182723 -0.0201212 -0.0229438 -0.0180501 0.00577597 -0.020744 -0.00726657 0.00111116 -0.0155381 -0.0223556 -0.018334 -0.0209541 -0.0234067 -0.0207805 -0.00693336 -0.021749 -0.011995 -0.0167389 -0.0226564 -0.0165535 -0.0216652 -0.0193873 -0.0238576 -0.0171814 -0.0217829 -0.0153835 -0.0223796 -0.0234819
internal_weight=2119.99 788.952 579.746 526.541 53.2042 209.206 64.9937 58.2761 1331.03 36.9148 51.3289 31.0185 10.9861 1294.12 25.6682 144.213 43.7155 1268.45 113.074 11.3702 101.704 28.9829 15.8485 40.3428 96.9986 35.2974 115.23 1155.38 176.217 12.053 164.164 15.1819 13.1343 148.982 20.5854 27.2336 15.2449 979.16 10.5269 106.82 11.3953 95.4246 89.4511
internal_count=8742 2765 1865 1638 227 900 267 242 5977 156 216 135 43 5821 110 633 191 5711 502 47 455 121 65 173 436 152 512 5209 791 52 739 67 56 672 90 119 67 4418 47 475 50 425 403
is_linear=0
shrinkage=0.03


Tree=16
num_leaves=53
num_cat=0
split_feature=96 96 83 30 6 7 9 53 52 35 34 35 5 80 49 11 33 97 43 83 8 5 11 24 59 92 51 55 67 48 89 33 56 10 59 49 88 6 59 61 22 4 91 24 0 26 59 72 59 11 5 1
split_gain=1394.46 1793.4 52.9943 9.7081 8.8431 8.80175 5.9456 14.2372 5.00483 3.5853 3.1267 3.32321 3.07506 4.25989 4.98542 6.62224 2.95313 2.7622 2.61145 2.99562 2.57392 2.39963 2.23573 2.57146 1.80476 1.42032 1.38261 3.64795 1.31183 1.26808 1.11954 0.862731 0.811276 0.775409 0.888111 0.765447 0.744327 0.635789 0.631907 0.555514 0.54637 0.513825 0.456987 0.507899 0.571999 0.444838 0.879808 0.312375 0.208929 0.104232 0.0679606 0.0650674
threshold=1.5000000000000002 1.0000000180025095e-35 0.54223835468292247 -0.47808220982551569 0.041386747732758529 -0.35157960653305048 0.23851522803306582 -0.83259931206703175 -0.15438868850469586 -0.073771402239799486 -1.5519107580184934 -0.37420356273651117 0.36385767161846166 0.61059752106666576 1.2923059463500979 0.94523298740386974 0.4074274748563767 8.5000000000000018 22.889522552490238 0.25674553215503698 -0.77343299984931935 0.21559669077396396 5.3916084766387948 -1.4244129657745359 5.6015014648437509 -20.953894615173336 -0.20028092712163922 4.0442452430725107 59.278303146362312 -1.9578125476837156 13.551768302917482 -0.64459490776062001 -0.10689066350460051 -2.097780585289001 3.1884315013885502 0.53430581092834484 -6.4179320335388175 0.21423473209142688 -0.53944817185401905 -21.293804168701168 -1.182036221027374 0.71890476346015941 -37.419799804687493 -1.7249395847320554 1.3105447888374331 2.3969769477844243 2.7340004444122319 -1.6694879531860349 -0.27209264039993281 -3.6744141578674312 -1.2795045375823972 0.44417950510978704
decision_type=2 2 2 2 2 2 2 2 2 2 2 2 2 2 2 2 2 2 2 2 2 2 2 2 2 2 2 2 2 2 2 2 2 2 2 2 2 2 2 2 2 2 2 2 2 2 2 2 2 2 2 2
left_child=1 2 6 10 8 -4 7 17 16 -8 50 -12 13 18 26 -16 22 -1 24 -20 -13 29 23 47 41 -14 27 -15 33 -10 36 -22 -7 -6 40 -32 -25 -27 -9 -39 -35 42 -5 -44 -45 49 -47 -3 -42 -41 -2 -36
right_child=3 4 5 12 28 32 9 38 21 -11 11 20 25 14 15 -17 -18 -19 19 -21 31 -23 -24 30 -26 37 -28 -29 -30 -31 35 -33 -34 34 51 -37 -38 39 -40 45 48 -43 43 44 -46 46 -48 -49 -50 -51 -52 -53
leaf_value=0.0054787351766989699 -0.013556325543060249 0.029602555970289626 0.00034049389924310211 -0.015721654737127538 0.0241377275119012 -0.028790627973271268 -0.022469000043631934 0.015705914587576437 0.025064149147439135 0.0014109533918878468 0.011481549276418814 0.00456172893336022 -0.010771239636401106 0.0035217101973168928 0.015485306234960552 -0.02126806972811706 0.017933771360611885 -0.017088190399108003 -0.022251353014110353 0.0034771983759217758 -0.0093678775338637606 0.022416940387124197 0.017765905684494602 0.026975054211013479 -0.0085896030890250663 -0.013661966400187481 -0.024853637873293449 -0.025447572118138213 0.018683830556274615 0.044009194816580742 0.017759200303906687 -0.024960563081470735 -0.014721910913894166 0.022025656834112776 0.029248596258640673 0.03461043118174912 0.041245592819072641 -0.014538955448655412 0.031570260597616313 -0.016330244866839767 0.039461435155567208 -0.012926939402973504 -0.01703051868725998 -0.026157348406399907 -0.015907050756803098 -0.023723985533710842 -0.0098444710018128889 0.016326569203783683 0.035002472149466973 -0.026980314578688644 -0.023731370025449866 0.017067619094642654
leaf_weight=7.0331716835498819 6.5247741639614132 9.8483020365238207 9.5888314545154554 10.454414278268812 13.470915049314497 511.25971069931984 10.414949655532839 7.1136849522590664 7.6564934253692618 11.000555813312529 7.5219580829143551 6.7417234480381056 7.1103578507900229 7.1786218881607038 9.3111640214920062 6.7124338448047629 9.4342409670352918 12.499613702297211 7.9618536531925184 7.0338273346424103 9.2647469043731707 8.0355332493782026 7.2311282455921164 11.075995773077009 7.5543567836284629 6.7484075725078574 22.969201862812042 7.0704516172409058 7.6218270361423484 490.15490961074829 8.1156421601772326 6.3841438591480193 6.9438025057315818 7.6310811042785636 8.0279300510883314 11.064281314611433 182.82901185750961 7.3241575360298148 11.687139660120009 6.2763454616069785 119.59689581394196 6.413353592157363 14.065519839525221 263.46438902616501 10.716889828443525 42.68846607208252 6.7570773065090171 7.9971872866153708 212.58450174331665 708.22172737121582 10.518031448125837 7.2788945436477652
leaf_count=20 20 27 28 33 37 1603 31 20 21 32 22 20 22 22 27 21 26 37 25 21 28 22 20 30 23 21 73 22 21 1323 22 20 21 21 22 30 495 23 33 20 325 20 44 838 34 136 21 22 579 2265 33 20
internal_value=1.45687e-05 0.0174046 -0.0250787 -0.024598 0.0395031 -0.0281048 0.00167486 0.00867698 0.0415188 -0.0106868 -0.0108988 -0.00476539 -0.0251399 -0.0226709 -0.0143183 -0.000255942 0.0373647 -0.00909143 -0.0239804 -0.0107203 -0.0104809 0.0434744 0.0380562 0.0386122 -0.0245802 -0.0263074 -0.0202074 -0.0115791 0.0353667 0.0437686 0.0396447 -0.0168462 -0.0286308 0.0356602 0.0360283 0.0287135 0.040573 -0.0264353 0.026664 -0.0265293 0.036457 -0.0249467 -0.0251608 -0.0254476 -0.025816 -0.0266251 -0.02206 0.0248352 0.0367215 -0.0269097 -0.0208031 0.024858
internal_weight=2930.18 1717.2 587.541 1212.99 1129.65 527.792 59.7491 38.3336 753.443 21.4155 46.9554 29.9126 1166.03 380.906 53.2419 16.0236 247.596 19.5328 327.665 14.9957 22.3906 505.847 238.162 230.93 312.669 785.127 37.2183 14.2491 376.212 497.811 213.085 15.6489 518.204 368.59 355.119 19.1799 193.905 778.016 18.8008 771.268 339.812 305.115 298.701 288.247 274.181 763.944 49.4455 17.8455 332.181 714.498 17.0428 15.3068
internal_count=8742 4888 1825 3854 3063 1652 173 110 2038 63 143 90 3711 1203 165 48 672 57 1038 46 68 1366 646 626 992 2508 117 44 1025 1344 577 48 1624 1004 967 52 525 2486 53 2465 925 969 949 916 872 2442 157 49 904 2285 53 42
is_linear=0
shrinkage=0.03


Tree=17
num_leaves=42
num_cat=0
split_feature=96 56 30 5 70 1 8 1 48 53 8 73 55 17 2 59 75 83 25 25 25 59 43 78 30 48 0 0 25 74 2 49 25 0 64 81 24 25 0 57 24
split_gain=3597.77 18.8379 6.21672 3.38423 3.82895 2.8925 2.26013 2.1724 3.21174 6.74368 4.38403 2.80215 5.96592 2.70686 2.1448 1.99262 1.92745 1.91038 1.49746 3.28636 3.8171 1.33042 1.30597 1.06448 1.20016 1.40154 1.99852 1.04709 0.984843 0.931418 0.803428 4.61658 5.39761 0.381919 0.274977 0.224185 0.619266 0.142476 0.571909 0.122724 0.0177743
threshold=1.5000000000000002 -0.067287791520357118 -0.47808220982551569 -0.13166533410549161 0.7798573672771455 0.0071969844866544017 -1.5672426223754881 2.3829028606414799 -0.55316913127899159 1.1374179124832156 0.66083422303199779 0.57312056422233593 -0.56414675712585438 10.243064403533937 2.6674346923828129 -0.14130976796150205 0.29700970649719244 2.1289545297622685 -0.3083889484405517 -0.44727891683578486 -0.39124377071857447 5.6015014648437509 75.058975219726577 0.28709478676319128 0.29182527959346777 2.533103466033936 3.1251568794250493 0.29521755874156957 6.697707176208497 -1.4153110384941099 -0.66876164078712452 1.5567013621330263 2.0425040721893315 -0.11283897981047629 5.8664507865905771 1.0174562335014345 0.46454559266567236 -1.0778024196624754 -1.0729437470436094 0.085846662521362319 -1.0000000180025095e-35
decision_type=2 2 2 2 2 2 2 2 2 2 2 2 2 2 2 2 2 2 2 2 2 2 2 2 2 2 2 2 2 2 2 2 2 2 2 2 2 2 2 2 2
left_child=1 18 6 28 7 -6 -2 8 9 10 11 12 -5 17 -11 -14 -13 23 19 37 -21 22 30 39 -25 35 -27 -8 29 -3 31 -4 -33 34 -20 -26 40 38 -1 -10 -37
right_child=2 3 21 4 5 -7 27 -9 13 14 -12 16 15 -15 -16 -17 -18 -19 33 20 -22 -23 -24 24 25 26 -28 -29 -30 -31 -32 32 -34 -35 -36 36 -38 -39 -40 -41 -42
leaf_value=-0.017475580562335086 0.0092464329779432999 -0.016050136801466802 0.03424052289454349 0.013125351984923168 -0.017445622340732665 0.0060965077883391181 0.029223259530496145 -0.031340788345806343 -0.021980716727482641 -0.029874999443757374 0.010706993999060841 -0.0068730152014174848 -0.026031027519293773 -0.0077899852642860871 -0.011191115928226419 -0.0059278640052376512 -0.026861760144286564 -0.011894966954691371 -0.028832792891630248 0.0024033456749749911 -0.025710197375719005 0.02440239199599803 0.019307490744928924 -0.010738086357041774 -0.027968256250411046 -0.0051135521694459386 -0.025692078587057642 0.014293692110646319 -0.014654638601451503 -0.030202920268117141 0.036207513872321684 -0.0025546444729448938 0.030337858795091863 -0.031890762126698634 -0.017054913459586558 -0.017731323177484611 -0.027199179369788818 -0.024213327298542333 -0.031434835524191247 -0.031280889968003739 -0.010291095755889275
leaf_weight=7.1074557304382315 9.3393534421920759 8.1831342577934247 277.3231101334095 8.6821478605270404 10.450263708829882 7.281761407852172 35.962664633989334 29.755886614322662 13.487213730812071 32.044181644916534 7.2091952562332144 7.1551783084869411 8.2141702175140399 9.7099928259849531 8.63610792160034 10.066673636436461 14.954017966985701 11.841488391160963 103.24404355883598 7.5301784574985531 8.7967437803745252 19.118704378604889 8.2404039502143842 8.5828157067298871 56.968394637107849 9.7266561090946215 7.5306154787540427 8.2296529412269575 7.4763278663158408 102.77122339606285 1066.5931009948254 7.4713243544101742 9.7320789694786054 1024.1618983745575 7.0599159002304068 7.1398252844810486 10.337786436080931 32.85621565580368 78.709780126810074 50.73203718662262 7.1333556175231951
leaf_count=20 25 23 741 24 29 20 96 84 38 90 20 20 23 27 24 28 42 33 292 21 25 51 22 24 160 27 21 22 21 291 2851 20 26 2913 20 20 29 93 223 143 20
internal_value=1.08804e-05 -0.0292095 0.0349726 -0.02384 -0.0221201 -0.00796855 0.0239805 -0.0228772 -0.0219046 -0.0170487 -0.0100396 -0.0132404 -0.00637895 -0.0242414 -0.0262722 -0.0158425 -0.0209702 -0.0250651 -0.0311183 -0.0271947 -0.0133535 0.0353788 0.0355142 -0.0258996 -0.0233778 -0.0243568 -0.0150088 0.0268208 -0.028517 -0.0293118 0.035598 0.0332758 0.0166973 -0.0315609 -0.028239 -0.0261286 -0.0209445 -0.0289715 -0.0304933 -0.0296947 -0.0149302
internal_weight=3167.55 1725.54 1442.01 456.07 337.64 17.732 53.5317 319.908 290.152 96.9617 56.2814 49.0722 26.963 193.19 40.6803 18.2808 22.1092 183.48 1269.47 135 16.3269 1388.48 1369.36 171.639 107.419 98.8366 17.2573 44.1923 118.431 110.954 1361.12 294.527 17.2034 1134.47 110.304 81.5794 24.611 118.673 85.8172 64.2193 14.2732
internal_count=8742 4888 3854 1281 946 49 143 897 813 271 157 137 75 542 114 51 62 515 3607 382 46 3711 3660 482 301 277 48 118 335 314 3638 787 46 3225 312 229 69 336 243 181 40
is_linear=0
shrinkage=0.03


Tree=18
num_leaves=23
num_cat=0
split_feature=96 83 59 27 9 81 49 1 80 77 1 78 1 86 30 77 56 8 30 49 0 47
split_gain=3079.74 20.5332 10.101 9.55788 5.78164 5.47429 4.79517 2.25383 2.17045 3.22123 1.74499 1.38771 1.31375 2.68663 1.38106 1.58672 0.967091 2.12139 0.705485 0.592286 0.424694 0.102185
threshold=1.0000000180025095e-35 -0.35187545418739313 -0.53944817185401905 -0.12851595878601071 0.54023349285125744 -0.51780223846435536 1.8185421228408816 -0.19061017781496045 -1.9130423069000242 -0.55732339620590199 2.2346483469009404 -1.9170577526092527 0.026619665324687961 -0.077104385942220674 -1.0003829896450041 -1.1220329999923704 -1.1287079453468321 -1.270767033100128 -1.8585048317909239 0.099416006356477751 -0.40183442831039423 2298.0732421875005
decision_type=2 2 2 2 2 2 2 2 2 2 2 2 2 2 2 2 2 2 2 2 2 2
left_child=1 2 7 10 -5 6 12 -1 11 -10 -3 -8 19 -14 15 18 17 20 -15 -2 -7 -18
right_child=5 3 -4 4 -6 16 8 -9 9 -11 -12 -13 13 14 -16 -17 21 -19 -20 -21 -22 -23
leaf_value=0.052689183713425042 -0.023544506074082747 0.059590674363197281 -0.0012128505084833474 0.0074211211444598722 0.045193263205258002 -0.023231906250871147 -0.0014934059030679459 0.025609973488971226 0.01642374361073199 -0.012054211647502831 0.036681450786212717 -0.019445807500215968 0.0052289161678247325 -0.021674503544247988 -0.023322660251592971 0.0025589849488028785 -0.023708308677470671 -0.0015107052248423641 -0.0059280895992168377 -0.0091906706705631031 -0.012147026604541724 -0.015274487051244186
leaf_weight=8.3182237446308189 59.495617344975471 549.33329001069069 7.1660744547843924 5.9985316395759609 10.535944402217863 21.442530319094658 6.4475661367177954 9.3027610480785352 6.8195863366127014 5.63586677610874 8.8524497151374799 9.4363197833299655 4.8382893055677405 7.4828931093215951 18.799800619482994 5.436174824833869 1327.7121281176805 6.4550440013408652 5.0954411178827295 4.5079302042722693 8.1158148199319857 8.2260111868381482
leaf_count=28 267 1648 26 22 36 98 27 34 28 24 31 41 21 33 83 24 6130 27 22 20 35 37
internal_value=-4.12306e-05 0.0574087 0.0288873 0.0585865 0.0326947 -0.0229346 -0.0168552 0.0405362 -0.00564526 0.00359979 0.0592936 -0.0126787 -0.0197808 -0.0148826 -0.0175942 -0.0107038 -0.0235156 -0.0173822 -0.016202 -0.0226905 -0.0206854 -0.0236678
internal_weight=2105.45 599.507 24.7871 574.72 16.5345 1505.95 133.995 17.621 28.3393 12.4555 558.186 15.8839 105.656 41.6526 36.8143 18.0145 1371.95 36.0134 12.5783 64.0035 29.5583 1335.94
internal_count=8742 1825 88 1737 58 6917 590 62 120 52 1679 68 470 183 162 79 6327 160 55 287 133 6167
is_linear=0
shrinkage=0.03


Tree=19
num_leaves=50
num_cat=0
split_feature=96 96 83 30 58 6 9 75 97 6 35 9 5 80 57 33 8 72 24 35 24 83 47 59 24 92 67 4 57 24 74 59 50 27 11 0 72 72 6 61 24 26 59 72 85 57 11 85 26
split_gain=1310.67 1679.03 50.6905 9.49898 8.48963 8.29296 5.70871 13.5373 5.95066 4.63065 3.44515 3.19202 3.08045 4.20272 5.30729 5.12302 2.78892 3.85499 3.26598 2.30032 3.01349 2.29959 2.02032 2.05568 1.45297 1.43018 1.20368 1.04367 0.938122 1.17359 1.386 0.991209 0.933342 0.901633 0.865686 0.772751 0.665907 1.39849 0.649185 0.573432 0.483431 0.471002 0.876105 0.228027 1.23682 0.197953 0.118165 0.0877683 0.0650231
threshold=1.5000000000000002 1.0000000180025095e-35 0.54223835468292247 -0.47808220982551569 0.65382063388824474 0.041386747732758529 0.23851522803306582 -0.75554481148719776 7.5000000000000009 -0.075692128390073762 -0.073771402239799486 0.40569883584976202 0.36385767161846166 0.61059752106666576 0.74379435181617748 0.35224698483943945 -1.5672426223754881 -0.33326704800128931 -0.056969679892063134 5.3916084766387948 -1.4244129657745359 3.6042716503143315 1228.726013183594 5.6015014648437509 1.3199563622474673 -20.953894615173336 59.278303146362312 0.63484370708465587 1.8488973975181582 2.9962458610534672 2.7841069698333745 -1.0768463611602781 -0.55979910492897023 -0.2799586802721023 0.60645031929016124 0.21945185959339145 1.2392751574516299 1.6012421250343325 0.21423473209142688 -21.293804168701168 -1.7249395847320554 2.3969769477844243 2.7340004444122319 -0.69989407062530506 2.04082202911377 -2.682736754417419 -3.6744141578674312 6.3682627677917489 0.41766889393329626
decision_type=2 2 2 2 2 2 2 2 2 2 2 2 2 2 2 2 2 2 2 2 2 2 2 2 2 2 2 2 2 2 2 2 2 2 2 2 2 2 2 2 2 2 2 2 2 2 2 2 2
left_child=1 2 6 16 -4 9 7 8 -1 11 -8 19 13 22 15 -15 -2 -18 -19 20 34 -6 23 24 27 -14 28 40 29 30 31 -7 -9 -16 -3 -30 45 -38 -27 -40 -5 46 -43 -42 -45 -22 -41 -46 -31
right_child=3 5 4 12 21 26 10 32 -10 -11 -12 -13 25 14 33 -17 17 18 -20 -21 36 -23 -24 -25 -26 38 -28 -29 35 48 -32 -33 -34 -35 -36 -37 37 -39 39 41 43 42 -44 44 47 -47 -48 -49 -50
leaf_value=0.011819685234102494 0.0046231238367478939 0.03035229819192194 -0.028385442306771251 -0.016847336574076853 0.0076506321606477183 0.041595398890684483 -0.022344678901014551 0.016188236542758978 -0.019757046089988385 0.042588824892305956 0.0010803346876758573 0.014490713319505475 -0.010308316230579222 -0.017148326838831572 -0.011135587155385099 0.0094030029344936636 -0.022226355272096904 0.011874015602483197 -0.01337049354660857 0.018740596249031471 0.027173595731196196 -0.015295574756358328 -0.0084777746740654168 -0.0065203616504413758 -0.012476313734997342 -0.013209427389886648 0.018006313708414906 -0.011452378221784213 0.01443471234113637 0.017120014523764198 0.02423179475205324 0.034521297999301849 0.033898519471867887 -0.025794483424019833 0.015601439565854599 0.029968842776776177 0.020534539507436708 0.036127566641108992 -0.014062891295682186 -0.015901823906215737 -0.027589498350583237 -0.023263588752387807 -0.0094385131372155401 -0.02474441820145017 -0.0081772042501108248 0.040016068831279193 -0.026556051767566334 -0.016289864888818246 0.028231395306783594
leaf_weight=7.8186180591583261 8.4285942018032056 20.994577020406727 505.72416517138481 14.189486831426619 6.819608271121977 50.777061760425568 10.375387489795687 8.2191485464572924 13.146736651659012 380.69199058413506 11.05320820212364 7.2051918506622306 7.0218940377235404 11.50959160923958 7.3599716722965267 12.774044662714003 21.088023900985718 6.9194974601268795 10.123669028282164 8.7271989285945875 10.003715813159941 7.0344253778457642 9.2310945093631727 6.8457746207714072 12.137092560529707 6.6576693356037131 7.6633602976799002 7.6097571849822989 8.1170565783977526 8.8290984630584735 18.762006878852844 264.89775004982948 9.3269214332103711 20.9311743080616 8.7310078740119916 11.441588938236235 12.259018838405607 30.850148588418961 7.2151269018650046 6.1809692084789267 103.29102349281311 41.888406872749329 6.6832402348518363 155.95990374684334 6.2923581898212415 278.95212769508362 694.11577069759369 6.2616403698921204 8.4904697835445386
leaf_count=22 25 57 1611 45 20 137 31 23 39 1020 32 20 22 36 23 39 66 21 31 24 27 21 29 21 39 21 21 24 22 24 51 716 26 67 24 31 33 83 23 20 335 136 21 505 20 750 2265 20 23
internal_value=2.09353e-05 0.016791 -0.024743 -0.0241539 -0.0277512 0.0379564 0.00136014 0.00820129 -0.00797913 0.0399004 -0.0107523 0.0370855 -0.0246976 -0.0222147 -0.0138834 -0.0033619 -0.010556 -0.0139436 -0.00303121 0.0374847 0.0378839 -0.00424573 -0.0235285 -0.0239446 -0.0243122 -0.0258748 0.0339713 -0.0247574 0.0342515 0.0347205 0.0352129 0.0357869 0.0269226 -0.0224913 0.0266684 0.0245377 0.0388048 0.0322594 -0.0260044 -0.0260995 -0.0250703 -0.0261966 -0.0215901 -0.0254363 -0.0239615 0.0396667 -0.0264848 -0.0131269 0.0238108
internal_weight=2907.63 1716.91 579.518 1190.72 519.578 1137.39 59.94 38.5114 20.9654 758.415 21.4286 377.723 1144.16 374.393 52.5748 24.2836 46.5598 38.1312 17.0432 370.518 361.791 13.854 321.818 312.587 305.741 769.763 378.978 293.604 371.315 351.756 334.437 315.675 17.5461 28.2911 29.7256 19.5586 332.065 43.1092 762.741 756.084 285.994 748.868 48.5716 271.805 168.514 288.956 700.297 12.554 17.3196
internal_count=8742 4888 1825 3854 1652 3063 173 110 61 2038 63 1018 3711 1203 165 75 143 118 52 998 974 41 1038 1009 988 2508 1025 949 1004 951 904 853 49 90 81 53 893 116 2486 2465 925 2442 157 880 545 777 2285 40 47
is_linear=0
shrinkage=0.03


Tree=20
num_leaves=40
num_cat=0
split_feature=96 8 30 78 70 7 78 49 49 24 8 72 24 81 74 81 65 74 78 27 3 43 49 49 73 5 1 7 5 1 0 78 0 97 48 35 31 26 50
split_gain=3387.57 18.3964 5.83605 3.75834 4.33325 3.82462 2.69256 2.13026 4.05426 2.26486 2.12599 2.68924 2.79783 1.95258 4.63596 2.67639 1.96192 1.86907 1.25185 3.20832 3.23093 1.5777 1.10911 1.16081 1.09273 1.25805 3.87259 8.7309 0.930796 0.972439 0.918434 0.844764 0.504715 0.465172 0.428794 0.148376 0.140871 0.12886 1.25095
threshold=1.5000000000000002 -0.065248791128396974 -0.47808220982551569 -0.12679067999124524 0.7798573672771455 1.0381280183792116 -0.080712635070085512 -0.30699206888675684 -0.50996795296668995 0.54386314749717724 -1.5672426223754881 -0.33326704800128931 -0.056969679892063134 0.02616031747311354 0.90236833691596996 -0.058226894587278359 -8.5544681549072248 -1.4709393382072447 0.44794258475303655 0.96523779630661022 1.5566104054450991 41.41466140747071 1.5567013621330263 2.0425040721893315 0.35926693677902227 0.46898137032985693 -0.045677291229367249 -0.16029414534568784 0.74503555893898021 -0.48555120825767512 -1.2288003563880918 0.60511350631713878 -0.51819509267806996 10.500000000000002 -1.0304525494575498 5.3916084766387948 -0.68278390169143666 -0.71065446734428395 -0.98006954789161671
decision_type=2 2 2 2 2 2 2 2 2 2 2 2 2 2 2 2 2 2 2 2 2 2 2 2 2 2 2 2 2 2 2 2 2 2 2 2 2 2 2
left_child=1 7 10 17 6 -6 -5 8 30 -10 -2 -12 -13 14 15 -8 -15 -3 19 21 -21 22 35 -24 25 32 28 36 29 31 -1 -27 -18 -9 -35 -4 -28 38 -26
right_child=2 3 18 4 5 -7 13 33 9 -11 11 12 -14 16 -16 -17 24 -19 -20 20 -22 -23 23 -25 37 26 27 -29 -30 -31 -32 -33 -34 34 -36 -37 -38 -39 -40
leaf_value=-0.015336091271091484 0.0089831389816098679 -0.012378427806059453 0.034091021383200013 -0.0053410725062804478 -0.01821946069177614 0.0071437306162848912 -0.027595621869355717 -0.031098517052637824 -0.0049498098029894955 -0.024885007939790066 0.032756380715870066 0.0019969745802019528 0.025073788736674527 -0.0089147563853431023 0.0025976224628061679 -0.0086977787652794611 -0.016415285689568453 -0.029620352242312499 0.03530807490175869 0.0032306660865987179 0.028852822521713273 0.01762681965045633 0.018232460925546631 0.031118774031457616 -0.027064145113833149 -0.017010668658677387 -0.025104055688786077 0.016922794139483523 -0.025567371289123012 -0.024767650013364419 -0.029290579843632664 -0.0024066592034987268 -0.027294575176110926 -0.015963365591128882 -0.027741251388079355 0.022195361057674966 -0.01380190321417383 -0.028815612692175703 -0.011436128685632143
leaf_weight=8.0886311531066877 9.3450710475444776 8.125993072986601 451.64000168442726 8.8965605497360212 11.427036315202715 8.6553298532962781 20.340401887893673 1105.14059227705 13.391998022794725 8.0304550528526288 24.699202120304108 7.8631333708763149 11.607951223850248 9.2346865832805616 9.2547366023063642 11.701552063226702 10.290447831153868 97.173388510942459 854.77835503220558 7.8452522158622768 10.08377221226692 9.3531537055969221 16.436341464519501 25.031231731176376 17.56708383560181 7.0546027719974536 7.7609884738922128 7.4948518574237815 47.157997369766235 7.4061126708984366 102.46592843532562 7.0840224921703339 55.289971888065338 10.227050751447679 15.93852776288986 8.2450034916400892 7.1129077970981607 72.542140930891037 9.1820546388626081
leaf_count=23 25 23 1211 25 32 24 58 3185 38 23 66 21 31 26 26 33 29 278 2294 21 27 25 44 67 50 20 22 21 133 21 294 20 157 29 46 22 20 206 26
internal_value=8.26131e-06 -0.0285938 0.0339234 -0.0231784 -0.0214539 -0.0074678 -0.0223181 -0.0304634 -0.0260641 -0.0131993 0.02327 0.0260269 0.0163073 -0.0227919 -0.0159052 -0.0211663 -0.0238006 -0.0284188 0.0343184 0.0326546 0.0184042 0.0331179 0.0333712 0.0265607 -0.0243009 -0.0222379 -0.0193773 -0.00805149 -0.0228964 -0.0161754 -0.0284162 -0.0103358 -0.0258597 -0.0309532 -0.0238949 0.0339264 -0.0209092 -0.0273016 -0.022305
internal_weight=3140.96 1704.04 1436.93 440.753 335.453 20.0824 315.371 1263.28 131.977 21.4225 53.5154 44.1703 19.4711 306.475 41.2967 32.042 265.178 105.299 1383.41 528.635 17.929 510.706 501.353 41.4676 255.943 156.652 91.0715 22.3687 68.7027 21.5447 110.555 14.1386 65.5804 1131.31 26.1656 459.885 14.8739 99.2913 26.7491
internal_count=8742 4888 3854 1250 949 56 893 3638 378 61 143 118 52 868 117 91 751 301 3711 1417 48 1369 1344 111 725 443 257 63 194 61 317 40 186 3260 75 1233 42 282 76
is_linear=0
shrinkage=0.03


Tree=21
num_leaves=23
num_cat=0
split_feature=96 83 59 27 82 81 49 61 56 81 1 83 31 9 72 56 8 87 76 84 0 47
split_gain=2860.88 18.1512 9.34283 8.32934 5.60943 5.49089 4.73774 3.27298 2.04618 1.95389 1.51831 1.1917 1.08558 1.00344 1.62226 0.979562 2.09816 0.446469 0.534365 0.501621 0.429326 0.114298
threshold=1.0000000180025095e-35 -0.35187545418739313 -0.53944817185401905 -0.12851595878601071 0.50303110480308544 -0.51780223846435536 1.2376427650451662 1.9456709027290346 -0.55614730715751637 -0.62970817089080799 2.2346483469009404 3.9720547199249272 -1.5595461726188657 -0.8835882544517516 -0.043288242071866982 -1.1287079453468321 -1.270767033100128 -77.25710296630858 0.26690007746219641 8.8436036109924334 -0.40183442831039423 2298.0732421875005
decision_type=2 2 2 2 2 2 2 2 2 2 2 2 2 2 2 2 2 2 2 2 2 2
left_child=1 2 8 10 -5 6 11 9 -1 13 -3 12 -2 14 -8 16 20 -14 19 -19 -7 -17
right_child=5 3 -4 4 -6 15 7 -9 -10 -11 -12 -13 17 -15 -16 21 -18 18 -20 -21 -22 -23
leaf_value=0.021816058393720784 -0.005691721882498787 0.056200101640533462 -0.001353260219325875 0.042540639875780134 0.0051361089510895954 -0.02307277939593522 -0.0156843679027363 0.011870529963501481 0.047594901196447027 0.0055381120851660795 0.03490834788310971 -0.0037757389005903825 -0.012048284690222818 -0.022094511161239557 0.0048699954633879741 -0.023545846819457077 -0.0013752436552689018 -0.023551138972320466 -0.0090964494268019527 -0.010286321158710081 -0.011939396938834484 -0.015024532669127511
leaf_weight=7.5077917277813002 5.0433240532875052 564.83986216783524 7.1946147084236136 11.340162664651873 5.5283912420272818 20.976368248462677 8.4548693150281924 6.1467235684394828 10.554733663797379 4.7435737103223827 9.0775729417800886 4.4522516727447501 8.2360072731971723 9.0308396071195585 4.842956915497779 1296.7408344596624 6.4228301495313636 71.557285234332085 4.4875272810459128 4.9420195519924155 8.0221530944108981 8.082356855273245
leaf_count=26 22 1648 26 38 20 98 37 25 36 20 31 19 37 40 20 6130 27 328 20 22 35 37
internal_value=-4.48847e-05 0.0541858 0.0275911 0.0552743 0.0312554 -0.0227594 -0.0166313 -0.00657007 0.0385863 -0.0110307 0.0559246 -0.0199171 -0.0206319 -0.0146371 -0.00838159 -0.0233498 -0.0171598 -0.0214039 -0.0221968 -0.022838 -0.0204935 -0.0235046
internal_weight=2088.23 616.043 25.2571 590.786 16.8686 1472.18 131.937 33.219 18.0625 27.0722 573.917 98.7184 94.2662 22.3287 13.2978 1340.24 35.4214 89.2228 80.9868 76.4993 28.9985 1304.82
internal_count=8742 1825 88 1737 58 6917 590 142 62 117 1679 448 429 97 57 6327 160 407 370 350 133 6167
is_linear=0
shrinkage=0.03


Tree=22
num_leaves=55
num_cat=0
split_feature=96 96 83 30 7 6 9 75 97 52 35 78 51 29 34 35 8 33 0 49 55 43 8 64 83 58 59 59 27 48 59 22 10 91 2 23 1 82 72 9 85 93 59 1 73 2 8 12 47 76 24 20 9 0
