tree
version=v4
num_class=3
num_tree_per_iteration=3
label_index=0
max_feature_idx=25
objective=multiclass num_class:3
feature_names=Column_0 Column_1 Column_2 Column_3 Column_4 Column_5 Column_6 Column_7 Column_8 Column_9 Column_10 Column_11 Column_12 Column_13 Column_14 Column_15 Column_16 Column_17 Column_18 Column_19 Column_20 Column_21 Column_22 Column_23 Column_24 Column_25
feature_infos=[-1.4929076433181763:3.1235282421112061] [-6.3650708198547363:3.7251839637756348] [-1.0943320989608765:2.4413688182830811] [-3.1357979774475098:3.0312621593475342] [-3.0428669452667236:2.8272488117218018] [-2.9713237285614014:2.6913537979125977] [-3.860931396484375:3.1404893398284912] [-1.7580406665802002:4.1081223487854004] [-7.8304300308227539:5.6683526039123535] [-4.2009267807006836:3.3704423904418945] [-2.2546417713165283:2.7871806621551514] [-4.6485471725463867:6.1197414398193359] [-85.616752624511719:99.380081176757812] [-2751.354736328125:2751.354736328125] [-537.00140380859375:537.00140380859375] [-184.24513244628906:184.24513244628906] [-1458.796875:1620.429443359375] [-208.85090637207031:222.92909240722656] [-106.45618438720703:106.45618438720703] [-104.24640655517578:89.603057861328125] [-349.12002563476562:349.12002563476562] [-110.79360198974609:102.43088531494141] [-111.05520629882812:111.05520629882812] [-174.02957153320312:174.02957153320312] [0:2] [0:11]
tree_sizes=5042 3416 3153 1829 4378 3324 1729 4059 3218 1941 4485 3530 1837 4384 3546 1944 5120 3542 1835 4806 3554 1944 6802 3431 1839 4812 3653 5227 4911 3961 2056 5115 3755 1946 6806 4182 2156 5335 3872 2048 5020 3970 2164 6808 4297 2045 5645 3540 5339 6186 3972 1837 6803 4917 2151 6176 4396 2041 6711 4698 1949 6387 4710 2377 6601 5240 2369 6807 4608 2589 6798 5150 2264 6486 5372 2378 6824 5564 2152 6810 5802 2479 6727 6799 2582 6828 5267 2464 6808 5050 2253 6802 5036 2277 6831 5472 2469 6827 5151 2363 6820 6200 3127 6818 5468 3010 6817 5789 2800 6802 6131 2474 6815 6802 5355 6821 6641 2368 6835 6746 2691 6828 6213 2789 6819 6449 3006 6834 6727 2695 6837 6719 3120 6815 6641 3022 6830 6845 3228 6828 6851 3231 6822 6859 3453 6815 6821 3124 6822 6842 2923 6839 6837 3230 6840 6836 3448 6826 6847 3553 6831 6839 3670 6821 6843 3433 6810 6837 4190 6825 6844 4184 6842 6822 3639 6838 6844 3442 6829 6836 4080 6859 6844 3869 6836 6838 3855 6832 6846 3874 6832 6844 3646 6835 6834 3859 6828 6839 4297 6835 6842 4290 6815 6855 4177 6820 6836 4308 6839 6850 4180 6836 6877 3979 6839 6846 4508 6832 6864 4297 6857 6859 4501 6848 6858 4287 6853 6844 4401 6836 6848 4294 6845 6863 6316 6840 6863 4395 6841 6853 4504 6859 6871 4618 6853 6860 4727 6866 6859 4497 6843 6850 4495 6846 6851 4399 6838 6849 4508 6861 6852 4287 6860 6853 4500 6853 6870 4615 6862 6869 4498 6854 6867 4500 6864 6850 6684 6885 6845 4291 6856 6856 4292 6855 6855 4507 6846 6858 4302 6896 6868 6582 6867 6861 4595 6850 6839 4292 6897 6873

Tree=0
num_leaves=48
num_cat=0
split_feature=0 1 14 1 11 0 20 0 17 14 11 7 8 14 11 8 10 7 8 9 2 7 1 0 10 0 8 0 5 6 6 5 9 10 5 4 6 10 4 1 1 6 1 1 6 2 10
split_gain=1029.09 1236.1 384.361 363.008 354.109 118.706 94.2953 89.4237 87.7295 61.4294 44.108 26.4384 14.1866 12.1975 17.7209 7.56042 7.16039 6.79088 5.90344 30.2496 70.2834 15.0032 5.51841 3.98143 3.65521 3.35618 4.39764 2.71636 2.63846 1.85136 1.8294 1.81362 1.50645 1.20007 1.13453 0.912726 1.25107 0.970206 0.754755 0.736654 3.76912 0.938447 2.43203 0.534281 1.31033 0.300392 0.178188
threshold=1.5669491887092593 -1.3558686375617979 26.166875839233402 0.3874813467264176 0.54167157411575328 0.00042224429489579057 17.542545318603519 -0.23433592170476911 -1.2794635295867918 27.500801086425785 -0.076439321041107164 -0.98262688517570485 -0.71567848324775685 -23.399065017700192 0.93273785710334789 -1.0194156765937803 -1.4007479548454282 0.72202575206756603 0.78916519880294811 0.63777959346771251 0.23200266063213351 -0.33881247043609614 2.1028115749359135 1.6935604214668276 0.83722963929176342 1.1883393526077273 0.43784074485301977 0.26053506135940557 -0.3614827692508697 -1.312960088253021 -0.10917474329471587 -0.13316524028778073 0.83491632342338573 0.68195858597755443 -0.22312480211257932 -0.98503360152244557 -1.820562422275543 -1.3235406279563902 0.79617470502853405 -0.77256834506988514 -0.81385496258735646 -0.49878436326980585 -0.99350646138191212 1.2419165372848513 -0.69375813007354725 -0.11696018651127814 -1.4007479548454282
decision_type=2 2 2 2 2 2 2 2 2 2 2 2 2 2 2 2 2 2 2 2 2 2 2 2 2 2 2 2 2 2 2 2 2 2 2 2 2 2 2 2 2 2 2 2 2 2 2
left_child=1 4 6 9 15 -4 13 -6 -8 12 -7 -5 -2 14 31 -1 -13 -17 22 20 45 -22 25 -14 -24 29 38 -10 -21 35 -25 -3 -30 -18 -9 37 -37 -15 46 40 41 42 -31 -41 -45 -20 -27
right_child=3 2 5 11 7 10 8 34 27 -11 -12 16 23 18 -16 17 33 -19 19 28 21 -23 24 30 -26 26 -28 -29 32 39 -32 -33 -34 -35 -36 36 -38 -39 -40 43 -42 -43 -44 44 -46 -47 -48
leaf_value=-1.4815608641272393 -1.4264678240651325 -1.4625869264190525 -1.4788702221147769 -1.4385754573440968 -1.4758399012001675 -1.374841637171893 -1.3835316389820542 -1.3712973455348736 -1.4790432899650081 -1.3883983021164745 -1.4641877269176451 -1.4160057352124027 -1.4537797601703861 -1.4657859330676479 -1.4229470389685164 -1.4390007261032309 -1.3710953932149574 -1.4784984304026099 -1.4814046479164491 -1.4594727390610811 -1.4453277754913887 -1.3814180502661342 -1.4501992334157505 -1.46352291746381 -1.4786512870443367 -1.4694497800803989 -1.4511565654920637 -1.4547577512045169 -1.467598691814795 -1.4547577512045169 -1.4801821492245215 -1.4805512033206694 -1.4822560241394436 -1.4076078726388763 -1.4076078726388763 -1.4739741052415043 -1.4547577512045169 -1.4799629865577604 -1.4641877269176451 -1.4819878681969259 -1.4596980625333835 -1.4809890603196574 -1.4797092551157163 -1.4650263920020947 -1.4799335063220314 -1.4689027147742091 -1.4809738384217499
leaf_weight=28.9585200548172 5.3626888990402213 9.3847055733203941 14.747394472360609 6.4352266788482657 7.5077644586563101 46.923527866601944 17.160604476928711 153.37290251255035 15.551797807216646 8.8484366834163648 5.3626888990402213 6.1670922338962546 7.239630013704299 7.7758989036083248 7.5077644586563101 8.5803022384643537 155.51797807216644 5.6308233439922324 24.400234490633011 5.3626888990402213 5.3626888990402213 9.6528400182723981 9.1165711283683759 8.3121677935123426 5.8989577889442435 5.6308233439922359 7.5077644586563101 5.3626888990402213 8.8484366834163648 5.3626888990402213 37.270687848329544 12.870453357696531 147.74207916855812 5.3626888990402213 5.3626888990402213 5.6308233439922333 5.3626888990402204 21.7188900411129 5.3626888990402213 869.56000497937202 9.384705573320387 100.28228241205215 8.5803022384643537 9.1165711283683795 21.450755596160889 5.3626888990402248 16.892470031976703
leaf_count=108 20 35 55 24 28 175 64 572 58 33 20 23 27 29 28 32 580 21 91 20 20 36 34 31 22 21 28 20 33 20 139 48 551 20 20 21 20 81 20 3243 35 374 32 34 80 20 63
internal_value=-1.45635 -1.46474 -1.47455 -1.39848 -1.39676 -1.40488 -1.47795 -1.37698 -1.43186 -1.4578 -1.38398 -1.37568 -1.46932 -1.47926 -1.46013 -1.47301 -1.37338 -1.45508 -1.47969 -1.4748 -1.45303 -1.40213 -1.48058 -1.47414 -1.46207 -1.48083 -1.471 -1.47303 -1.4808 -1.48114 -1.47736 -1.47357 -1.4815 -1.372 -1.37221 -1.47385 -1.46525 -1.47666 -1.47634 -1.48141 -1.47837 -1.47986 -1.47065 -1.4818 -1.4759 -1.47963 -1.47877
internal_weight=1906.17 1665.65 1456.24 240.517 209.413 67.0336 1389.2 166.243 38.0751 67.0336 52.2862 173.483 58.1852 1351.13 29.7629 43.1696 167.048 14.2111 1321.37 206.732 44.7785 15.0155 1114.63 52.8225 15.0155 1099.62 35.3937 20.9145 161.953 1064.23 45.5829 22.2552 156.591 160.881 158.736 40.4883 10.9935 29.4948 27.886 1023.74 123.61 114.225 13.943 900.127 30.5673 29.7629 22.5233
internal_count=7109 6212 5431 897 781 250 5181 620 142 250 195 647 217 5039 111 161 623 53 4928 771 167 56 4157 197 56 4101 132 78 604 3969 170 83 584 600 592 151 41 110 104 3818 461 426 52 3357 114 111 84
is_linear=0
shrinkage=1


Tree=1
num_leaves=32
num_cat=0
split_feature=24 24 0 25 11 11 0 2 7 5 8 0 1 2 11 6 5 0 1 0 13 7 6 0 3 3 0 8 3 8 6
split_gain=1431.85 2309.73 24.4838 15.8455 13.6495 9.7812 9.28446 8.12553 6.65477 4.95334 8.25257 5.06432 3.97072 3.68839 3.31188 2.52127 2.90753 2.11967 1.80574 1.68228 1.42486 1.39591 1.30138 1.15634 1.08607 1.02634 0.677246 0.471712 0.462929 0.121361 0.0359455
threshold=1.5000000000000002 1.0000000180025095e-35 -0.33638969063758845 3.5000000000000004 0.10584146529436113 -0.22070848941802976 2.4158294200897221 0.77765613794326793 0.69661492109298717 0.17917665839195254 -2.2947716712951656 2.0962634086608891 1.0841641426086428 2.1594794988632207 -2.2129209041595455 0.55021834373474132 0.72336214780807506 0.084586430341005339 1.2841300368309023 -1.0106863379478452 73.649951934814467 -0.55693614482879628 -0.53358688950538624 -1.2686298489570615 -0.15653450787067411 2.5303585529327397 -0.19491708278656003 -0.23051956295967099 0.31693661212921148 -0.26240299642086024 -0.0086097600869834406
decision_type=2 2 2 2 2 2 2 2 2 2 2 2 2 2 2 2 2 2 2 2 2 2 2 2 2 2 2 2 2 2 2
left_child=1 2 -1 -4 5 6 13 8 14 10 -2 12 23 20 -5 17 -17 -6 -14 -7 -3 22 -16 -12 -20 -18 -23 29 -29 -25 -11
right_child=9 4 3 7 15 19 -8 -9 -10 30 11 -13 18 -15 21 16 25 -19 24 -21 -22 26 -24 27 -26 -27 -28 28 -30 -31 -32
leaf_value=-1.0645073285034743 -1.073123414244332 -1.0291164472885064 -1.067345903822589 -1.0870307471888256 -1.0380069651572239 -1.0470825725789068 -1.0674721893141903 -1.07684353448225 -1.07926663374843 -1.1006886228131461 -1.0935976275056434 -1.07926663374843 -1.07926663374843 -1.0567587308241726 -1.0870307471888256 -1.0640395484496752 -1.0357510886937127 -1.0281187253853266 -1.104174446654677 -1.0224965374180512 -1.0497546746375055 -1.0994561711917665 -1.1050847798916583 -1.1041675224010787 -1.0870307471888256 -1.0549245890151788 -1.1099951592733723 -1.1076026967211006 -1.0954441356718394 -1.0966083191339175 -1.1091291533393162
leaf_weight=11.437366008758543 7.0642554759979239 150.03133058547974 8.0734348297119123 6.7278623580932608 95.199252367019653 7.0642554759979239 7.400648593902587 7.0642554759979239 6.7278623580932608 11.437366008758543 9.7554004192352277 6.7278623580932608 6.7278623580932644 7.400648593902587 6.7278623580932644 8.0734348297119123 19.510800838470463 72.324520349502563 8.7462210655212402 430.58319091796875 8.4098279476165754 12.782938480377195 10.428186655044554 81.407134532928467 6.7278623580932591 8.7462210655212385 493.48870396614075 271.13285303115845 7.0642554759979239 12.110152244567869 584.31484580039978
leaf_count=34 21 446 24 20 283 21 22 21 20 34 29 20 20 22 20 24 58 215 26 1280 25 38 31 242 20 26 1467 806 21 36 1737
internal_value=-1.08008 -1.06018 -1.10685 -1.10776 -1.02791 -1.02549 -1.03254 -1.10838 -1.1088 -1.10714 -1.10441 -1.10496 -1.10539 -1.03106 -1.10917 -1.03538 -1.04526 -1.03345 -1.09225 -1.02282 -1.03001 -1.10944 -1.09878 -1.10612 -1.0976 -1.04062 -1.10977 -1.10641 -1.10735 -1.10337 -1.109
internal_weight=2391.42 1378.2 563.458 552.021 814.744 610.89 173.242 543.948 536.883 1013.22 417.464 410.4 403.672 165.842 530.156 203.854 36.3305 167.524 22.2019 437.647 158.441 523.428 17.156 381.47 15.4741 28.257 506.272 371.714 278.197 93.5173 595.752
internal_count=7109 4097 1675 1641 2422 1816 515 1617 1596 3012 1241 1220 1200 493 1576 606 108 498 66 1301 471 1556 51 1134 46 84 1505 1105 827 278 1771
is_linear=0
shrinkage=1


Tree=2
num_leaves=29
num_cat=0
split_feature=24 0 9 9 5 8 0 1 8 8 25 5 5 6 1 6 6 1 6 9 8 1 7 11 11 0 8 0
split_gain=4099.28 12.4479 6.74001 4.88046 3.17992 7.4633 4.30309 2.7653 2.35052 2.94765 1.4357 1.42274 3.2385 1.15479 1.14263 1.08557 2.29216 3.37506 0.895486 0.712651 1.21898 0.561251 0.555161 0.512499 0.799161 0.486294 0.235945 0.168174
threshold=1.5000000000000002 -0.33638969063758845 2.6737009286880498 -0.62439036369323719 0.17917665839195254 -2.2947716712951656 2.0962634086608891 1.0841641426086428 -0.23861689865589139 -0.12071580812335013 1.5000000000000002 -0.51860263943672169 -0.3614827692508697 -0.32367189228534693 1.2841300368309023 -0.22884353250265119 0.75467300415039074 0.35308855772018438 0.39167428016662603 0.63777959346771251 0.26393137872219091 1.0841641426086428 -0.59122595191001881 0.4986852109432221 1.1038476228713991 -1.1652069687843321 -3.6511447429656978 -1.2686298489570615
decision_type=2 2 2 2 2 2 2 2 2 2 2 2 2 2 2 2 2 2 2 2 2 2 2 2 2 2 2 2
left_child=1 3 10 23 5 -2 7 27 -5 -10 13 -11 -13 -3 -9 -14 17 -17 19 20 -15 -19 -12 26 -25 -18 -1 -7
right_child=4 2 -4 8 -6 6 -8 14 9 11 22 12 15 18 -16 16 25 21 -20 -21 -22 -23 -24 24 -26 -27 -28 -29
leaf_value=-0.87074243933857842 -0.83973903928775306 -0.88273050172928746 -0.85597274468653162 -0.88027390608709 -0.80463150336399392 -0.82026110927393436 -0.83414703152949032 -0.83414703152949032 -0.85007350597136155 -0.87873738349141695 -0.88012570556477776 -0.84853269148213495 -0.8809004263755853 -0.86351880071459353 -0.81604215533115132 -0.84487869585117237 -0.8647116489131953 -0.87281208678188427 -0.88199059970030402 -0.85932193644661836 -0.87951208247691426 -0.86071078996847294 -0.884281573861189 -0.86396865991784155 -0.87913695497306055 -0.87764439059556543 -0.88347833441061596 -0.80701809181817108
leaf_weight=7.7087219953536978 7.7087219953536978 39.277773976325989 8.4428859949111921 18.721181988716125 650.10222160816193 10.645377993583677 7.3416399955749503 7.3416399955749538 7.7087219953536978 13.949115991592405 102.78295993804932 7.3416399955749503 7.3416399955749503 11.746623992919927 16.885771989822388 8.0758039951324481 8.0758039951324481 9.1770499944686907 10.27829599380493 7.3416399955749503 10.645377993583677 10.27829599380493 1122.1696733236313 9.1770499944686907 9.9112139940261823 15.784525990486143 57.998955965042114 405.62560975551605
leaf_count=21 21 107 23 51 1771 29 20 20 21 38 280 20 20 32 46 22 22 25 28 20 29 28 3057 25 27 43 158 1105
internal_value=-0.850162 -0.882393 -0.883462 -0.874919 -0.806332 -0.808852 -0.808345 -0.807952 -0.870244 -0.867789 -0.883635 -0.869476 -0.867123 -0.8783 -0.820676 -0.869436 -0.867242 -0.860731 -0.873263 -0.869309 -0.872052 -0.867247 -0.883958 -0.880484 -0.872895 -0.874028 -0.882315 -0.807284
internal_weight=2609.59 1503.93 1312.69 191.25 1105.65 455.549 447.84 440.498 106.454 87.7326 1304.24 80.0239 66.0748 79.2897 24.2274 58.7331 51.3915 27.5311 40.0119 29.7336 22.392 19.4553 1224.95 84.7959 19.0883 23.8603 65.7077 416.271
internal_count=7109 4097 3576 521 3012 1241 1220 1200 290 239 3553 218 180 216 66 160 140 75 109 81 61 53 3337 231 52 65 179 1134
is_linear=0
shrinkage=1


Tree=3
num_leaves=16
num_cat=0
split_feature=24 7 2 1 1 0 0 4 6 5 16 6 6 6 11
split_gain=3948.11 23.945 20.8091 7.18623 3.9579 10.367 3.94487 1.89957 0.704353 2.58857 0.548239 1.5784 0.23876 1.16464 1.5162
threshold=1.0000000180025095e-35 0.77703484892845165 0.77765613794326793 2.308197140693665 1.4226912856101992 1.5669491887092593 -0.23433592170476911 -0.98503360152244557 -0.5862477421760558 -0.6014324128627776 200.47236633300784 -0.15047119557857511 -1.312960088253021 -1.820562422275543 -0.30941912531852717
decision_type=2 2 2 2 2 2 2 2 2 2 2 2 2 2 2
left_child=1 2 3 6 10 7 -1 -6 9 -9 12 -12 13 -2 -15
right_child=4 -3 -4 -5 5 -7 -8 8 -10 -11 11 -13 -14 14 -16
leaf_value=0.038743136786617303 -0.025120796323293816 0.012507315849899442 0.027806968077220776 0.033196375188426164 -0.0058396456405682877 0.019644746469811389 0.077477705081079803 -0.023513999307466671 -0.024704865717238955 0.0018173326772399107 -0.00293826956897765 -0.023520856684645243 -0.025459801583887481 -0.0037114011519509527 -0.021090218729599014
leaf_weight=5.4100683331489554 30.465577393770218 5.8963381946086875 9.4828216433525068 5.4877676069736472 7.7264966368675223 5.4521915316581717 447.55259922146797 9.5617789924144727 45.177975416183472 5.3263986110687247 5.3279384970664987 9.7826338410377467 1293.6552370488644 8.2461347281932849 10.574685692787169
leaf_count=20 115 22 35 20 29 20 1578 36 171 20 20 37 4915 31 40
internal_value=-5.42096e-06 0.0749622 0.0757209 0.0766493 -0.0248584 -0.017535 0.0771014 -0.0207672 -0.0225603 -0.0149075 -0.0252402 -0.0168964 -0.0253214 -0.0212556 -0.0140473
internal_weight=1905.13 473.83 467.933 458.45 1431.3 73.2448 452.963 67.7926 60.0662 14.8882 1358.05 15.1106 1342.94 49.2864 18.8208
internal_count=7109 1675 1653 1618 5434 276 1598 256 227 56 5158 57 5101 186 71
is_linear=0
shrinkage=0.03


Tree=4
num_leaves=40
num_cat=0
split_feature=24 24 0 25 7 8 2 7 5 8 0 10 1 0 1 13 0 0 1 10 25 10 0 8 8 10 10 3 0 0 8 8 3 0 8 6 10 7 6
split_gain=1340.82 2135.58 23.4073 15.1641 11.5523 11.1694 7.77146 6.38708 4.86376 7.94186 4.88642 4.56489 3.84983 2.16758 1.71959 1.50368 1.40485 1.25918 1.18871 1.31059 1.13859 1.48442 1.1223 1.08041 1.80526 1.64177 2.36679 1.07243 0.910096 0.836225 0.494791 0.474053 0.541636 0.232638 0.133204 0.100002 0.0970997 0.0716625 0.0557522
threshold=1.5000000000000002 1.0000000180025095e-35 -0.33638969063758845 3.5000000000000004 -0.030740902759134766 0.21313102543354037 0.77765613794326793 0.69661492109298717 0.17917665839195254 -2.2947716712951656 2.0962634086608891 -1.4007479548454282 1.0841641426086428 -0.22867498546838758 1.2841300368309023 73.649951934814467 -0.50016671419143666 -0.35898967087268824 2.1028115749359135 -1.0474601387977598 1.5000000000000002 -1.9344909787178037 -1.2686298489570615 -0.28464442491531367 0.13567853718996051 0.2376673370599747 1.2914006114006045 -0.15653450787067411 -0.69221827387809742 0.68764245510101329 -0.23051956295967099 0.73739072680473339 -0.5013025403022765 1.3539837002754214 -0.26240299642086024 -0.28897623717784876 -0.81333759427070607 -0.59122595191001881 -0.0086097600869834406
decision_type=2 2 2 2 2 2 2 2 2 2 2 2 2 2 2 2 2 2 2 2 2 2 2 2 2 2 2 2 2 2 2 2 2 2 2 2 2 2 2
left_child=1 2 -1 -4 20 15 7 11 9 -2 12 -5 22 16 -14 28 35 -18 37 -20 29 -22 -11 -23 25 36 -27 -16 -6 -3 34 -32 -33 -30 -24 -7 -25 -13 -10
right_child=8 4 3 6 5 13 -8 -9 38 10 -12 18 14 -15 27 -17 17 -19 19 -21 21 23 30 24 -26 26 -28 -29 33 -31 31 32 -34 -35 -36 -37 -38 -39 -40
leaf_value=0.014786839020549582 0.006839904986531988 0.020354039741280659 0.012056107464190951 -0.0041046653520765974 0.033999673030626162 0.044928005980064183 0.0028429074268957362 0.00054823425247531332 -0.020089571791078897 -0.013164920225312583 0.00087266550119551554 -0.021060777313342278 0.00082650372675769918 0.045039795871393007 -0.023655154372946366 0.031119760040271581 0.011485025680018423 0.031080074411838111 -0.026135920366564893 -0.0067344081895311146 0.026901766427817341 0.048366057542780179 -0.023554903777059179 0.027677587528421411 0.045380992202101782 0.0115017940535861 0.035004623497400716 -0.0066182736574344888 0.054499399966510487 0.03869305518047688 -0.027369708080554486 -0.010961177894141022 -0.02334697081083429 0.034759024270006739 -0.016033391838919064 0.026391919291030085 0.042504219880634783 -0.029484407496831018 -0.028524223031847401
leaf_weight=11.560927003622053 7.077367275953292 8.9409109652042407 8.1539025008678419 7.0496501028537741 8.2443249523639661 9.2811526060104388 7.1116242706775656 6.7592081725597373 11.276624411344526 9.6756988167762739 6.7201219499111167 12.352888256311415 6.7258207798004177 66.40843403339386 8.6294191777706146 7.2202340066432944 7.523591548204422 7.2235076129436475 6.972678154706955 6.6965399682521802 9.9206616282463056 98.720735341310501 80.209430307149887 9.2534904181957227 61.462898194789886 8.9157704114913958 8.5686554312705976 6.6804617643356297 476.7906386256218 8.9192224740982038 244.74670517444611 6.952089577913287 22.187334090471268 7.2208240628242484 11.964046001434324 6.8618518114089992 23.063725471496582 490.85114142298698 574.55223533511162
leaf_count=34 21 26 24 21 24 27 21 20 34 29 20 37 20 193 26 21 22 21 21 20 29 287 242 27 179 26 25 20 1381 26 739 21 67 21 36 20 67 1477 1737
internal_value=1.87934e-06 0.019019 -0.026415 -0.0273129 0.0493661 0.0517822 -0.0279311 -0.0283481 -0.0265324 -0.0238168 -0.0243687 -0.0287212 -0.0247963 0.041292 -0.0118178 0.0537392 0.0320752 0.0224474 -0.0290484 -0.0177382 0.0431102 0.0439423 -0.0255241 0.044616 0.0408876 0.0345579 0.0242905 -0.0170827 0.0540072 0.0310784 -0.025814 -0.0267548 -0.0208537 0.0542772 -0.0227612 0.0390481 0.039217 -0.0293198 -0.0283964
internal_weight=2389.45 1392.05 557.509 545.948 834.541 596.775 537.794 530.682 997.397 411.568 404.491 523.923 397.771 97.2985 22.0357 499.476 30.8901 14.7471 516.873 13.6692 237.766 219.906 375.735 209.985 111.265 49.8016 17.4844 15.3099 492.256 17.8601 366.06 273.886 29.1394 484.011 92.1735 16.143 32.3172 503.204 585.829
internal_count=7109 4097 1675 1641 2422 1730 1617 1596 3012 1241 1220 1576 1200 283 66 1447 90 43 1555 41 692 640 1134 611 324 145 51 46 1426 52 1105 827 88 1402 278 47 94 1514 1771
is_linear=0
shrinkage=0.03


Tree=5
num_leaves=30
num_cat=0
split_feature=24 24 10 1 5 8 8 8 1 25 7 8 10 4 7 5 2 3 8 8 11 25 1 12 2 8 1 2 10
split_gain=3836.99 7.05838 9.51592 3.56889 2.8997 7.14941 2.79905 4.92397 1.8097 1.55419 1.72178 2.33259 3.60916 1.29835 1.27855 1.66068 3.57912 1.86342 1.21268 0.951975 1.24819 0.849065 0.532906 0.522828 0.440463 0.387155 0.328176 0.183878 0.106654
threshold=1.5000000000000002 1.0000000180025095e-35 0.061253583058714874 -0.14506554603576657 0.053715890273451812 -1.9413371086120603 -0.26240299642086024 -0.12071580812335013 1.0841641426086428 10.500000000000002 1.0204321742057803 0.50986647605896007 0.88620147109031688 2.4326781034469609 0.30710050463676458 -0.5691983401775359 0.35691647231578832 -0.21764428913593289 0.52946531772613536 0.25773620605468756 0.13498067855834964 9.5000000000000018 1.146870017051697 -6.6122975349426261 -0.70627254247665394 0.64738839864730846 0.17326189577579501 -0.57791167497634877 0.21938686817884448
decision_type=2 2 2 2 2 2 2 2 2 2 2 2 2 2 2 2 2 2 2 2 2 2 2 2 2 2 2 2 2
left_child=1 -1 3 14 5 -2 28 -8 -7 10 13 24 -13 23 15 -3 17 -17 -16 20 21 -5 -21 -9 -12 -10 -25 -24 -4
right_child=4 2 6 19 -6 8 7 9 25 -11 11 12 -14 -15 18 16 -18 -19 -20 22 -22 -23 27 26 -26 -27 -28 -29 -30
leaf_value=-0.034104111312070133 0.0085405550382315742 -0.029605916282378728 -0.020802911860788784 -0.03387739181695501 0.043394474910349021 0.04036552592010785 -0.0044884891732880541 -0.015641527998125015 0.032291503883881266 -0.010709422012962625 -0.016416945911724726 -0.021614519433589129 0.0020987610957768151 -0.013270487204249441 -0.032547873833156778 0.00028100350004789967 -0.026002921047799218 -0.017786251135106079 -0.015523026245557034 -0.02940155862038684 -0.017828744162543438 -0.026847343145785203 -0.022895472128027415 -0.023601381153034492 -0.031065730352854218 0.0176836498489303 -0.030820811362642187 -0.012023170262466687 -0.030723564835986934
leaf_weight=610.10802665352821 7.3570909500122061 20.003444582223892 10.55476540327072 448.09461548924446 756.42790016531944 334.34840714931488 14.22460228204727 7.2878815531730643 9.2363632619380969 10.585200071334837 7.6521203815937069 11.28510242700577 10.597925484180449 9.1301479935646039 38.948401868343353 11.293664395809175 21.485764861106873 8.3790761530399305 7.2787868082523337 24.771941095590591 8.3833342194557172 40.421044588088989 7.2897595763206482 33.166205823421478 9.836049020290373 8.1205112934112531 52.835771113634109 7.2881364822387678 60.813063740730286
leaf_count=1675 20 55 29 1232 2042 903 39 20 25 29 21 31 29 25 107 31 59 23 20 68 23 111 20 91 27 22 145 20 167
internal_value=2.23904e-06 -0.0314608 -0.029595 -0.0315515 0.0420675 0.0391591 -0.0241934 -0.02173 0.0397736 -0.0232998 -0.0241581 -0.0178312 -0.0105404 -0.0263943 -0.0258202 -0.0220374 -0.017744 -0.00790239 -0.0302526 -0.0326491 -0.0331262 -0.0333517 -0.0259526 -0.0275243 -0.0258907 0.0267928 -0.02834 -0.0185807 -0.0295641
internal_weight=2607.21 1491.71 881.607 643.638 1115.49 359.062 237.969 166.601 351.705 152.376 141.791 39.3712 21.883 102.42 107.389 61.1619 41.1585 19.6727 46.2272 536.249 496.899 488.516 39.3498 93.2899 17.4882 17.3569 86.002 14.5779 71.3678
internal_count=7109 4097 2422 1769 3012 970 653 457 950 418 389 108 60 281 295 168 113 54 127 1474 1366 1343 108 256 48 47 236 40 196
is_linear=0
shrinkage=0.03


Tree=6
num_leaves=15
num_cat=0
split_feature=24 0 10 2 1 0 4 6 5 16 6 6 6 11
split_gain=3607.24 20.1845 8.10536 8.16342 3.95537 10.0745 1.88393 0.707033 2.55826 0.559714 1.5639 0.24632 1.16777 1.48943
threshold=1.0000000180025095e-35 -0.33638969063758845 -1.4289389848709104 0.77765613794326793 1.4226912856101992 1.5669491887092593 -0.98503360152244557 -0.5862477421760558 -0.6014324128627776 200.47236633300784 -0.15047119557857511 -1.312960088253021 -1.820562422275543 -0.30941912531852717
decision_type=2 2 2 2 2 2 2 2 2 2 2 2 2 2
left_child=1 -1 -3 -4 9 6 -6 8 -8 11 -11 12 -2 -14
right_child=4 2 3 -5 5 -7 7 -9 -10 10 -12 -13 13 -15
leaf_value=0.022528125464579926 -0.0249138809874812 0.030683780005575385 0.071083078088163304 0.029915364789848846 -0.0056343580127168223 0.01920958015952496 -0.023315492303449249 -0.024488105806998187 0.0019403290812162095 -0.0027397781371534978 -0.023292247766884072 -0.02524058844613351 -0.0035583338831959746 -0.02084558382513987
leaf_weight=9.3524405360221845 29.90385040640831 6.7802484035491934 475.57276928424835 6.3827512860298148 7.6693792641162863 5.5007619261741629 9.4047114849090558 44.336471974849701 5.3063864707946768 5.2912155985832223 9.5948195159435237 1267.7577826678753 8.2035397589206713 10.393116414546965
leaf_count=34 115 24 1594 23 29 20 36 171 20 20 37 4915 31 40
internal_value=-1.25363e-05 0.0692644 0.070111 0.0706009 -0.0246325 -0.0172708 -0.0205178 -0.0223249 -0.0146619 -0.0250186 -0.0166192 -0.0251009 -0.0210135 -0.0137904
internal_weight=1901.45 498.088 488.736 481.956 1403.36 72.2177 66.7169 59.0476 14.7111 1331.14 14.886 1316.26 48.5005 18.5967
internal_count=7109 1675 1641 1617 5434 276 256 227 56 5158 57 5101 186 71
is_linear=0
shrinkage=0.03


Tree=7
num_leaves=37
num_cat=0
split_feature=24 24 0 25 11 11 0 2 7 5 8 0 10 1 9 2 9 0 1 8 13 1 10 0 8 9 8 5 9 9 8 9 9 8 7 6
split_gain=1258.66 1978.36 22.5082 14.717 10.7658 7.59402 8.13469 7.47327 6.16259 4.80306 7.63655 4.8118 4.4581 3.75357 3.61755 3.3265 2.26584 2.04466 1.67908 1.57337 1.27632 1.16379 1.27475 1.12087 0.932976 0.929887 0.718008 0.366714 0.21202 1.51266 0.28925 0.273229 0.725893 0.151424 0.0808486 0.0749893
threshold=1.5000000000000002 1.0000000180025095e-35 -0.33638969063758845 3.5000000000000004 0.10584146529436113 -0.22070848941802976 2.4158294200897221 0.77765613794326793 0.69661492109298717 0.17917665839195254 -2.2947716712951656 2.0962634086608891 -1.4007479548454282 1.0841641426086428 2.1549091339111333 2.1594794988632207 0.41627372801303869 0.084586430341005339 1.2841300368309023 -0.64760446548461903 73.649951934814467 2.1028115749359135 -1.0474601387977598 -1.2686298489570615 0.18621763586997989 1.6168893575668337 -0.23051956295967099 0.99333670735359203 -0.65995243191719044 -0.58540350198745716 -0.26240299642086024 -1.0689389109611509 -1.5747914314270017 -0.12885768711566922 -0.59122595191001881 -0.0086097600869834406
decision_type=2 2 2 2 2 2 2 2 2 2 2 2 2 2 2 2 2 2 2 2 2 2 2 2 2 2 2 2 2 2 2 2 2 2 2 2
left_child=1 2 -1 -4 5 6 15 8 12 10 -2 13 -5 23 17 20 -7 19 -15 -6 -3 34 -23 -12 -20 26 28 -19 31 -30 -31 32 -25 -21 -14 -11
right_child=9 4 3 7 14 16 -8 -9 -10 35 11 -13 21 18 -16 -17 -18 27 24 33 -22 22 -24 25 -26 -27 -28 -29 29 30 -32 -33 -34 -35 -36 -37
leaf_value=0.014225180702843794 0.0066989302257837403 0.045965155654604392 0.011782156319544688 -0.003993774032592429 0.045663127486048005 0.051906088777331265 0.010780398808864907 0.0025858286125713757 0.00040141860000700216 -0.019593888421543255 -0.012710271118280313 0.0011979503963703709 -0.020700567134599855 0.0010198986407494606 0.018234925701268993 0.020656507230868055 0.037531936623887013 0.046945524803096599 -0.0070816545664242727 0.025994386645130058 0.027328114705459542 -0.025789803247009333 -0.0066032514380691834 -0.026695017956906712 -0.023156644480901479 -0.012480601026465275 -0.02663103100592757 0.028736642714402502 -0.005768435534999534 -0.026690191761928429 -0.013765715144658143 -0.026342728764175833 -0.014660728356397408 0.035776214169146496 -0.029099119640339545 -0.028033388533519252
leaf_weight=11.647984087467192 7.0936093628406516 156.54623970389366 8.1859657764434797 7.0338310301303855 28.04500013589859 436.31496870517731 7.5983184278011313 7.1425016224384299 6.7759565412998191 11.115253388881682 9.5707327127456647 6.6799122691154471 12.227876812219618 6.7019343972206142 8.6854669451713544 7.6529434025287619 22.79504856467247 79.296319514513016 6.9347791671752921 15.687831342220305 8.7050948739051801 6.8862941265106201 6.6774591207504255 9.7950872480869311 8.2232666909694654 7.8299966454505912 261.6740702688694 6.9762429893016806 7.8447044193744686 9.7933038771152532 6.566408604383466 37.57441633939743 19.271947979927063 73.29911082983017 484.25036737322807 564.61710938811302
leaf_count=34 21 446 24 21 80 1236 22 21 20 34 29 20 37 20 25 22 65 226 21 45 25 21 20 30 25 24 803 20 24 30 20 115 59 210 1477 1737
internal_value=8.20773e-06 0.0182383 -0.0260371 -0.0269316 0.0468733 0.0489698 0.042855 -0.0275495 -0.0279645 -0.0260379 -0.0233256 -0.0238756 -0.0283363 -0.024305 0.0403474 0.0441944 0.0512755 0.0411982 -0.0114574 0.0374324 0.0451537 -0.0286635 -0.0174462 -0.0250313 -0.0166958 -0.0253225 -0.0255716 0.0458192 -0.0222632 -0.0175863 -0.0225944 -0.0236768 -0.019469 0.0343598 -0.0289343 -0.0279047
internal_weight=2383.72 1402.43 550.828 539.18 851.603 639.613 180.503 530.994 523.852 981.287 405.554 398.461 517.076 391.781 211.99 172.904 459.11 203.305 21.86 117.032 165.251 510.042 13.5638 369.921 15.158 360.35 352.52 86.2726 90.8459 24.2044 16.3597 66.6415 29.067 88.9869 496.478 575.732
internal_count=7109 4097 1675 1641 2422 1816 515 1617 1596 3012 1241 1220 1576 1200 606 493 1301 581 66 335 471 1555 41 1134 46 1105 1081 246 278 74 50 204 89 255 1514 1771
is_linear=0
shrinkage=0.03


Tree=8
num_leaves=29
num_cat=0
split_feature=24 0 9 9 5 8 10 11 8 8 0 25 8 6 0 6 10 6 9 8 6 6 6 25 9 25 0 2
split_gain=3594.24 11.8068 6.45948 4.63405 2.66021 6.60079 2.49228 3.08867 4.08848 5.27173 3.48786 1.41307 1.38071 1.13956 0.955514 0.916594 0.734165 2.9181 0.720213 1.23015 0.633437 1.96646 0.592215 0.561336 0.364053 0.166263 0.139585 0.0059802
threshold=1.5000000000000002 -0.33638969063758845 2.6737009286880498 -0.62439036369323719 0.053715890273451812 -1.9413371086120603 -0.17335578799247739 1.4295599460601809 -0.23861689865589139 0.18621763586997989 -0.68040069937705983 1.5000000000000002 0.95354339480400097 -0.32367189228534693 -1.2523603439331052 0.39167428016662603 -1.494269013404846 -0.10917474329471587 0.63777959346771251 0.26393137872219091 -0.035098373889923089 -0.45846275985240931 2.1066341400146489 10.500000000000002 1.2523994445800783 2.5000000000000004 2.0962634086608891 1.1460287570953371
decision_type=2 2 2 2 2 2 2 2 2 2 2 2 2 2 2 2 2 2 2 2 2 2 2 2 2 2 2 2
left_child=1 3 11 23 5 -2 20 8 -8 -10 27 13 14 -3 -7 18 17 -13 19 -15 21 -5 24 25 -18 -1 -6 -11
right_child=4 2 -4 6 26 12 7 -9 9 10 -12 16 -14 15 -16 -17 22 -19 -20 -21 -22 -23 -24 -25 -26 -27 -28 -29
leaf_value=-0.019828716844377155 0.0082642992221481273 -0.031079556901468314 -0.0048687413179151606 -0.026602817413738791 0.041881414191056919 0.02448041704717761 -0.027638104128252277 -0.02645843028643588 0.0087144087242995143 -0.026710114979572132 -0.0019348830869696102 -0.030348114160135265 0.02489497649179101 -0.01219928249823744 0.039093090533486467 -0.030470990743401486 -0.032646632739868078 -0.0094876413941094306 -0.0080743100107155633 -0.028073834975131075 -0.03036078120783909 -0.0066603062268528433 -0.018600942279106095 -0.020371869557252908 -0.024130878665242463 -0.031494294683713411 0.030540512475180165 -0.016092163499988522
leaf_weight=7.9532161951065055 7.371595323085784 38.578721016645432 8.3685072362422925 12.294250428676607 747.59308797121048 10.408067494630812 9.7505481243133527 15.605028569698332 13.098777413368223 7.9740574955940193 13.098985552787786 28.859864801168442 13.749457597732542 11.612976431846624 329.73158439993858 10.102224886417387 1139.2463176548481 9.0506407022476179 7.2631115913391104 10.482353717088698 17.745335340499878 7.9740957617759696 7.229323834180831 15.172501504421232 18.425016194581985 60.27058282494545 13.775767296552656 7.6235656142234802
leaf_count=22 20 107 23 34 2005 28 27 43 36 22 36 80 37 32 885 28 3161 25 20 29 49 22 20 42 51 167 37 21
internal_value=1.64381e-06 -0.0307308 -0.0317818 -0.0234151 0.0404478 0.0376662 -0.0188567 -0.0149573 -0.0110382 -0.00661023 -0.0136632 -0.0319537 0.0382536 -0.0267123 0.038719 -0.0217801 -0.0322713 -0.0257398 -0.0178844 -0.0206199 -0.025185 -0.019439 -0.0324616 -0.0288717 -0.032532 -0.0304405 0.0417165 -0.0228027
internal_weight=2600.41 1477.78 1289.22 188.561 1122.63 361.261 105.165 67.151 51.5459 41.7954 28.6966 1280.85 353.889 78.0394 340.14 39.4607 1202.81 37.9105 29.3584 22.0953 38.0137 20.2683 1164.9 83.3963 1157.67 68.2238 761.369 15.5976
internal_count=7109 4097 3576 521 3012 970 290 185 142 115 79 3553 950 216 913 109 3337 105 81 61 105 56 3232 231 3212 189 2042 43
is_linear=0
shrinkage=0.03


Tree=9
num_leaves=17
num_cat=0
split_feature=24 7 2 10 1 0 6 0 0 16 6 6 0 6 6 11
split_gain=3314.74 19.0147 14.7896 6.29829 3.95202 9.76815 1.70052 1.56845 1.47852 0.568563 1.54673 0.459761 0.451706 0.253733 1.17162 1.46903
threshold=1.0000000180025095e-35 0.77703484892845165 0.77765613794326793 -1.4289389848709104 1.4226912856101992 1.5669491887092593 -0.5862477421760558 -0.22867498546838758 -0.4482665210962295 200.47236633300784 -0.15047119557857511 1.1018623709678652 -0.14728788286447522 -1.312960088253021 -1.820562422275543 -0.30941912531852717
decision_type=2 2 2 2 2 2 2 2 2 2 2 2 2 2 2 2
left_child=1 2 3 -1 9 6 8 -5 -6 13 -11 -8 -10 14 -2 -16
right_child=4 -3 -4 7 5 -7 11 -9 12 10 -12 -13 -14 -15 15 -17
leaf_value=0.031077897949216969 -0.024714392145807236 0.010353166951064663 0.025260387833187847 0.038862605476876831 -0.020372291233905854 0.018727065138994903 -0.02491126915657511 0.06654258002922861 0.0020141952428391493 -0.002570750403446296 -0.023075024957831237 -0.011419303899372424 -0.0092833154127708387 -0.025027567692293914 -0.0033853274714466665 -0.020613876908124495
leaf_weight=7.2096529901027671 29.344163566827774 6.1978774070739737 9.8970113098621351 6.6774968504905692 9.5345825254917163 5.55484515428543 39.727525249123573 489.82285380363464 5.2941617071628571 5.2598378658294687 9.4108522236347163 5.0721365809440604 6.0108649730682355 1241.6599766612053 8.1553636789321917 10.218696266412733
leaf_count=25 115 22 35 23 37 20 156 1570 20 20 37 20 23 4915 31 40
internal_value=-1.76916e-05 0.0644462 0.0650776 0.0658083 -0.0244124 -0.0170122 -0.0202723 0.0662492 -0.0122264 -0.0248031 -0.0163569 -0.0236664 -0.00425894 -0.0248865 -0.0207765 -0.0135364
internal_weight=1895.05 519.805 513.607 503.71 1375.24 71.1941 65.6393 496.5 20.8396 1304.05 14.6707 44.7997 11.305 1289.38 47.7182 18.3741
internal_count=7109 1675 1653 1618 5434 276 256 1593 80 5158 57 176 43 5101 186 71
is_linear=0
shrinkage=0.03


Tree=10
num_leaves=41
num_cat=0
split_feature=24 24 0 25 11 2 11 0 7 6 1 10 9 0 2 6 9 0 4 9 6 1 10 1 1 0 3 0 14 1 9 6 0 0 6 1 7 14 22 22
split_gain=1182.65 1835.87 21.6948 14.3676 9.76766 7.23039 6.84592 7.48482 6.07036 4.72054 5.4046 4.36192 3.27701 3.13835 3.05455 2.21802 1.9966 1.86189 1.3545 1.22771 1.1754 1.17366 1.25871 0.945727 2.81053 1.78486 0.657335 0.600082 0.825832 0.573903 0.801646 0.426314 0.405948 0.258757 0.24749 0.202683 0.102244 0.0526097 0.0480614 0.555837
threshold=1.5000000000000002 1.0000000180025095e-35 -0.26641449332237238 3.5000000000000004 0.10584146529436113 0.77765613794326793 -0.22070848941802976 2.4158294200897221 0.69661492109298717 0.13436811417341235 1.0841641426086428 -1.4007479548454282 2.1549091339111333 1.5669491887092593 2.1594794988632207 -0.15047119557857511 0.41627372801303869 0.084586430341005339 -0.71159014105796803 -0.47387722134590143 -1.3633273243904112 2.1028115749359135 -1.0474601387977598 -0.32147398591041559 -0.22422917932271955 -0.32615838944911951 -0.44626326858997339 0.27944085001945501 -3.372518658638 -0.68573129177093495 -0.68255198001861561 -0.28897623717784876 0.48766969144344335 1.6935604214668276 -2.4479448795318599 0.31481567025184637 -0.59122595191001881 -78.360389709472642 32.686138153076179 11.5350399017334
decision_type=2 2 2 2 2 2 2 2 2 2 2 2 2 2 2 2 2 2 2 2 2 2 2 2 2 2 2 2 2 2 2 2 2 2 2 2 2 2 2 2
left_child=1 2 -1 -4 6 8 7 14 11 10 13 -5 17 19 20 18 -8 38 -12 23 34 36 -23 29 -25 35 -11 -21 -29 30 -2 -22 -30 -19 -3 -26 -13 -28 39 -6
right_child=9 4 3 5 12 -7 16 -9 -10 26 15 21 -14 -15 -16 -17 -18 33 -20 27 31 22 -24 24 25 -27 37 28 32 -31 -32 -33 -34 -35 -36 -37 -38 -39 -40 -41
leaf_value=0.01181452493555568 -0.023064697651289167 0.036043127548304348 0.0116023800703197 -0.0039218634004400963 0.035201413499853937 0.0023877967304192066 0.049361747453961873 0.010212285457198605 0.00052640141518603997 -0.014587689962588059 -0.01003913087967313 -0.020336172923369939 0.017481708683101799 -0.0031555366007706151 0.019710196085433996 -0.019680499947988744 0.035862915183933169 0.044877720515410592 0.0072000378223811131 -0.026418270426492075 0.047310300190552573 -0.025446623469327932 -0.0063556686002847499 0.00030249204569357253 -0.0244372542670683 -0.0087975625736972773 -0.017325787480912035 -0.0090131966224024328 -0.01511190362408699 -0.028008174600365213 -0.009373895024620809 0.039428907650375732 -0.024705478933574391 0.02958712966953693 0.020669786441388394 -0.013908442390973072 -0.028781635087413361 -0.027607462912160919 0.046644712404505358 0.020232356926594194
leaf_weight=13.037680000066755 13.839408427476885 9.9604744315147418 8.206591993570326 7.023206800222396 103.21879330277443 7.16601738333702 444.31002759933472 7.6568354666233054 6.7606754302978507 7.130505919456481 6.5984769761562347 12.096110969781874 8.763533413410185 6.9099906980991355 7.7370683252811423 8.1650959849357587 23.127796918153763 78.560358554124832 7.9231140315532702 199.33289042115211 85.804709911346436 6.7953420281410217 6.6418187916278821 7.1133828163146964 31.486764997243881 12.248066544532774 6.701751083135604 6.434018909931182 11.881796449422835 26.400898396968842 8.0659572184085828 64.789064407348633 33.699496358633041 9.2057667076587659 7.4814045131206504 6.7954280376434317 475.97375428676605 564.02903944253922 8.5123938620090467 7.0549550056457511
leaf_count=38 43 28 24 21 291 21 1236 22 20 22 20 37 25 21 22 25 65 220 24 622 240 21 20 22 98 38 21 20 37 82 25 182 105 26 21 21 1473 1766 24 20
internal_value=1.23187e-05 0.0175211 -0.0256591 -0.0266003 0.0446235 -0.0272214 0.046602 0.0408379 -0.027637 -0.0255664 -0.0227893 -0.0280117 0.0384551 -0.0236782 0.0421067 -0.00812309 0.0487718 0.0392565 -0.000775394 -0.0240651 0.0430152 -0.0283406 -0.0171041 -0.0206742 -0.0173319 -0.0197721 -0.0273832 -0.0254069 -0.021106 -0.0242302 -0.0186528 0.044202 -0.0225828 0.0436253 0.0309274 -0.0229699 -0.0286143 -0.0275172 0.0356913 0.0344342
internal_weight=2374.64 1409.88 543.701 530.664 866.183 522.457 650.867 183.43 515.291 964.756 386.895 508.53 215.316 364.208 175.773 22.6867 467.438 206.552 14.5216 357.298 168.036 501.507 13.4372 105.95 57.6436 50.5303 577.861 251.348 52.0153 48.3063 21.9054 150.594 45.5813 87.7661 17.4419 38.2822 488.07 570.731 118.786 110.274
internal_count=7109 4097 1675 1637 2422 1613 1816 515 1592 3012 1203 1572 606 1134 493 69 1301 581 44 1113 471 1551 41 329 179 157 1809 784 162 150 68 422 142 246 49 119 1510 1787 335 311
is_linear=0
shrinkage=0.03


Tree=11
num_leaves=32
num_cat=0
split_feature=24 24 10 1 8 8 6 8 1 9 25 7 5 2 10 8 2 20 4 5 2 5 8 11 25 5 1 2 10 1 6
split_gain=3371.53 7.09603 8.92469 3.43173 2.65216 4.80166 2.52425 4.7487 1.8705 1.75791 2.71127 1.29113 1.62668 3.51169 2.62843 1.21005 0.946408 1.5169 1.39594 2.74081 1.14923 3.2276 0.85551 1.2536 0.81838 0.715425 0.5792 0.213596 0.170357 0.0904172 0.0260038
threshold=1.5000000000000002 1.0000000180025095e-35 0.061253583058714874 -0.14506554603576657 -0.26240299642086024 -0.12071580812335013 0.13436811417341235 -2.2947716712951656 1.0841641426086428 1.8132146596908572 10.500000000000002 0.30710050463676458 -0.5691983401775359 0.35691647231578832 -0.92717376351356495 0.52946531772613536 -0.18565197288990018 0.075987290591001524 -0.5089711844921111 -0.50051692128181446 1.7964344024658205 0.27885203063488012 0.25773620605468756 0.13498067855834964 9.5000000000000018 0.14466402679681781 1.146870017051697 -0.57791167497634877 0.21938686817884448 1.5514733195304873 0.3514509797096253
decision_type=2 2 2 2 2 2 2 2 2 2 2 2 2 2 2 2 2 2 2 2 2 2 2 2 2 2 2 2 2 2 2
left_child=1 -1 3 11 28 -6 7 -2 -9 10 16 12 -3 14 -14 -13 17 18 19 -7 -18 -22 23 24 -5 -20 -24 -28 -4 -10 -15
right_child=6 2 4 22 5 9 -8 8 29 -11 -12 15 13 30 -16 -17 20 -19 25 -21 21 -23 26 -25 -26 -27 27 -29 -30 -31 -32
leaf_value=-0.032704307334856748 0.01303703400832896 -0.028199753807250639 -0.019446275231299437 -0.032366093957692688 -0.003478052130083046 -0.022197840360978421 0.040433735428808112 0.037675629268530554 0.01987545890528964 -0.0096578585175489083 -0.0062932764818895573 -0.031153860355198751 0.0069789462281529468 -0.028129554619610853 -0.014821671030144552 -0.014370426380195027 -0.029237524499289229 -0.030373113905882158 -0.024831918952985577 0.00064513248658752676 -0.029947262697636774 -0.0053911300243317806 -0.028216470775583351 -0.016541649584013968 -0.025514682084150496 -0.011024443964973365 -0.021745881958488623 -0.010953649624780256 -0.029331300039493486 0.030833496354732488 -0.01776999196525313
leaf_weight=597.9226413667202 8.885865241289137 19.596311271190643 10.367303997278212 437.99773925542831 14.077305316925047 7.5309745371341732 677.18571057915688 418.65925192832947 12.294140636920931 11.590533822774885 9.0273469984531385 38.159040093421936 7.2238371372222927 12.157306998968126 12.216880738735197 7.1729962527751914 56.176425904035568 11.116030454635618 17.566710799932487 10.480149596929545 9.6729304790496844 9.757018178701399 24.374835520982742 8.2477383315563184 39.712229669094086 7.203850805759429 7.1765027940273285 7.1955568790435773 59.643314778804779 10.080103188753126 8.9690518081188184
leaf_count=1675 24 55 29 1232 39 21 1809 1119 33 32 25 107 20 34 34 20 157 31 49 29 27 27 68 23 111 20 20 20 167 27 25
internal_value=1.65174e-06 -0.0300431 -0.0281666 -0.0300822 -0.022906 -0.020508 0.0389744 0.0366932 0.0371392 -0.0220714 -0.0230333 -0.0244515 -0.020708 -0.0164977 -0.00677582 -0.0288657 -0.0241431 -0.0200638 -0.0167525 -0.0095714 -0.0267512 -0.0184835 -0.0311657 -0.0316257 -0.031851 -0.0214 -0.0247457 -0.0174067 -0.028162 0.0259202 -0.0247334
internal_weight=2589.44 1462.33 864.41 630.2 234.21 164.199 1127.11 449.919 441.033 150.122 138.531 105.495 60.1634 40.5671 19.4407 45.332 129.504 53.8977 42.7817 18.0111 75.6064 19.4299 524.705 485.958 477.71 24.7706 38.7469 14.3721 70.0106 22.3742 21.1264
internal_count=7109 4097 2422 1769 653 457 3012 1203 1179 418 386 295 168 113 54 127 361 150 119 50 211 54 1474 1366 1343 69 108 40 196 60 59
is_linear=0
shrinkage=0.03


Tree=12
num_leaves=16
num_cat=0
split_feature=24 7 0 10 1 0 7 4 6 5 16 6 6 6 11
split_gain=3058.44 16.7501 10.7264 4.46157 3.95696 9.46446 2.77553 1.86849 0.702143 2.49741 0.58087 1.53377 0.257612 1.17844 1.43875
threshold=1.0000000180025095e-35 0.77703484892845165 -0.33638969063758845 -1.4289389848709104 1.4226912856101992 1.5669491887092593 -0.91898426413536061 -0.98503360152244557 -0.5862477421760558 -0.6014324128627776 200.47236633300784 -0.15047119557857511 -1.312960088253021 -1.820562422275543 -0.30941912531852717
decision_type=2 2 2 2 2 2 2 2 2 2 2 2 2 2 2
left_child=1 2 -1 -4 10 7 -5 -6 9 -9 12 -12 13 -2 -15
right_child=4 -3 3 6 5 -7 -8 8 -10 -11 11 -13 -14 14 -16
leaf_value=0.022605912819599651 -0.02453048632106573 0.0098130778036194122 0.029942420789594137 0.031846007415194583 -0.0051614333850205822 0.018253853230064059 0.062043973308429472 -0.022958485925790549 -0.024061745933241833 0.0021311739986149721 -0.0023703164075026331 -0.022856502619425088 -0.024819323300677487 -0.0032559349520247171 -0.020371775281277135
leaf_weight=8.0226373076438886 28.812031731009483 6.2749409079551688 6.8009192049503318 6.0077950358390799 7.5381364822387686 5.6082220673561087 512.14380365610123 9.1123519837856275 42.605392903089523 5.2749729454517356 5.2227440774440774 9.2210610508918727 1215.2524134367704 8.119059622287752 10.033942088484762
leaf_count=28 115 22 23 20 29 20 1582 36 171 20 20 37 4915 31 40
internal_value=-2.25633e-05 0.0602861 0.0608609 0.0614014 -0.0241966 -0.0167483 0.0617559 -0.0200224 -0.021865 -0.0142189 -0.0245924 -0.016082 -0.0246769 -0.020552 -0.0132863
internal_weight=1886.05 539.25 532.975 524.953 1346.8 70.1391 518.152 64.5309 56.9927 14.3873 1276.66 14.4438 1262.22 46.965 18.153
internal_count=7109 1675 1653 1625 5434 276 1602 256 227 56 5158 57 5101 186 71
is_linear=0
shrinkage=0.03


Tree=13
num_leaves=40
num_cat=0
split_feature=24 24 0 25 11 2 11 0 10 6 8 1 0 9 2 9 0 8 1 1 13 1 0 13 3 3 9 1 1 0 1 1 6 0 0 0 0 0 14
split_gain=1112.42 1708.88 20.9253 13.8906 8.83908 6.94007 6.23791 6.9473 5.45108 4.66884 6.11306 3.1939 3.50083 3.04052 2.85384 1.79113 1.76753 1.52382 4.3744 2.08389 1.2285 1.11788 1.09683 1.31579 0.745698 0.668157 0.661195 0.66485 3.13987 0.610359 0.955053 0.642722 0.463139 0.371575 2.27375 0.239759 0.164368 0.166023 0.0671037
threshold=1.5000000000000002 1.0000000180025095e-35 -0.33638969063758845 3.5000000000000004 0.10584146529436113 0.77765613794326793 -0.22070848941802976 2.4158294200897221 -1.4007479548454282 0.13436811417341235 -2.2947716712951656 0.8917829990386964 1.5669491887092593 2.1549091339111333 2.1594794988632207 0.41627372801303869 0.084586430341005339 -0.64760446548461903 -0.13795775175094602 -0.338364228606224 73.649951934814467 1.2841300368309023 -0.19491708278656003 -104.23844909667967 -0.15653450787067411 -0.44626326858997339 -0.47387722134590143 -0.32147398591041559 -0.22422917932271955 -1.04224556684494 0.14061249047517779 -0.099559005349874483 -2.4479448795318599 -0.13056001067161557 0.24133180081844333 1.6935604214668276 0.27944085001945501 0.48766969144344335 -78.360389709472642
decision_type=2 2 2 2 2 2 2 2 2 2 2 2 2 2 2 2 2 2 2 2 2 2 2 2 2 2 2 2 2 2 2 2 2 2 2 2 2 2 2
left_child=1 2 -1 -4 6 8 7 14 -5 10 -2 12 26 16 20 -8 17 -6 19 -19 -3 -13 23 -10 -23 -11 27 33 -29 -30 31 -31 -24 -12 -35 -18 -28 -38 -27
right_child=9 4 3 5 13 -7 15 -9 22 25 11 21 -14 -15 -16 -17 35 18 -20 -21 -22 24 32 -25 -26 38 36 28 29 30 -32 -33 -34 34 -36 -37 37 -39 -40
leaf_value=0.01330818544548615 0.0032217693836465115 0.041856664456747558 0.011305865162044989 -0.0013886294410625037 0.041839054799350302 0.0021700379380311073 0.047100316958133763 0.0096552761272833392 -0.02514867489948459 -0.014138462734556255 -0.027623719039704241 -0.0013802402305080864 -0.0015768330688154244 0.016705990701082449 0.018777846879745846 0.034335900381188687 0.042932281683373853 0.02481693474611869 0.034877810208354648 0.0046745666425519767 0.024619732823440696 -0.021996876048675795 -0.016677219425227569 -0.0056956073725538637 -0.007220558860003585 -0.016887087964904235 -0.025943014314596394 0.00063641656708316309 -0.026882122597504488 -0.011437553851211545 -0.008904469018443743 -0.024867279127094258 -0.028018332850904288 -0.0054077388841590026 -0.026526188337503125 0.028368950922690934 -0.015335213295885034 -0.023148931124834977 -0.027164155865059603
leaf_weight=11.786518990993498 8.0083359479904157 161.40473291277885 8.2402268648147565 7.3574960827827445 28.890876412391663 7.1916020512580863 450.78176870942116 7.7120299339294425 6.7118590176105499 7.0372499525547019 26.571399450302124 7.517295420169833 6.5219762027263632 8.8409621715545637 7.8161374926567069 23.413564026355743 79.648882031440735 12.534228175878527 70.987721502780914 7.8609340190887442 8.9480447173118574 7.3928425312042245 8.4434639513492566 6.5370054244995099 7.1340811252593967 6.6020550727844229 193.30227389931679 7.06314793229103 14.293217450380324 7.6084437370300266 11.074426770210264 14.536163747310642 480.10627689957619 7.9406711161136654 12.343032658100126 9.3105178177356702 12.362137407064436 37.227666884660721 553.33941361308098
leaf_count=34 24 446 24 22 80 21 1236 22 21 22 84 23 20 25 22 65 220 35 198 22 25 23 26 20 22 21 614 22 45 24 35 46 1507 25 39 26 39 118 1766
internal_value=1.83385e-05 0.016866 -0.0252959 -0.0261869 0.042618 -0.0268059 0.0444875 0.0390211 -0.0272187 -0.0251149 -0.0223379 -0.022894 -0.0236033 0.0367822 0.0402312 0.0465437 0.037547 0.0341267 0.031262 0.0176348 0.0411002 -0.0110702 -0.0275939 -0.0166238 -0.0156727 -0.0269379 -0.0240148 -0.0211091 -0.017963 -0.0206841 -0.0173096 -0.0209466 -0.0278568 -0.0243216 -0.0189013 0.0417404 -0.0251366 -0.0215427 -0.0270733
internal_weight=2362.4 1414.52 536.374 524.588 878.15 516.348 660.076 185.881 509.156 947.876 380.897 372.889 350.845 218.074 178.169 474.195 209.233 120.274 91.3829 20.3952 170.353 22.0442 501.799 13.2489 14.5269 566.979 344.323 101.431 54.5754 47.5123 33.219 22.1446 488.55 46.8551 20.2837 88.9594 242.892 49.5898 559.941
internal_count=7109 4097 1675 1641 2422 1617 1816 515 1596 3012 1203 1179 1111 606 493 1301 581 335 255 57 471 68 1574 41 45 1809 1091 320 172 150 105 70 1533 148 64 246 771 157 1787
is_linear=0
shrinkage=0.03


Tree=14
num_leaves=32
num_cat=0
split_feature=24 0 9 9 5 8 10 11 1 8 0 24 7 2 9 6 8 1 8 6 6 11 1 0 8 0 0 0 2 2 2
split_gain=3166.81 11.2566 6.10353 4.44484 2.36196 5.88045 2.35414 3.05591 4.2556 4.45951 3.18117 1.55893 3.41862 3.06391 7.2278 4.54122 1.53192 1.45984 1.07257 0.704108 1.93191 0.553348 1.26721 0.489179 0.350043 0.341541 0.195297 0.0935008 0.0855975 0.0490955 0.135495
threshold=1.5000000000000002 -0.33638969063758845 2.6737009286880498 -0.62439036369323719 0.053715890273451812 -1.9413371086120603 -0.17335578799247739 1.4295599460601809 -0.90886837244033802 0.18621763586997989 -0.68040069937705983 1.0000000180025095e-35 -0.045768041163682931 -0.38240270316600794 -0.50661119818687428 0.17514022439718249 0.50986647605896007 1.0841641426086428 0.61907094717025768 -0.035098373889923089 -0.45846275985240931 0.4986852109432221 0.36702677607536321 -0.50016671419143666 -3.6511447429656978 -1.2686298489570615 2.0962634086608891 1.3948007225990298 1.1063892245292666 1.0283959507942202 1.2773517966270449
decision_type=2 2 2 2 2 2 2 2 2 2 2 2 2 2 2 2 2 2 2 2 2 2 2 2 2 2 2 2 2 2 2
left_child=1 3 11 21 5 -2 19 8 -8 -10 28 -3 13 14 -13 -16 -14 25 -18 20 -5 24 -23 -19 -1 -7 -6 -27 -11 -15 -31
right_child=4 2 -4 6 26 17 7 -9 9 10 -12 12 16 29 15 -17 18 23 -20 -21 -22 22 -24 -25 -26 27 -28 -29 -30 30 -32
leaf_value=-0.017988395786655231 0.0074207074331540468 -0.032055319690372161 -0.0042561836762469466 -0.025308083626640349 0.038971278733167102 0.023957817518260621 -0.026764672730901815 -0.025436268812749033 0.0083282661667280176 -0.025436774289641945 -0.0011529779278371514 -0.027727317065888383 -0.031041646870056491 -0.028490124762057412 0.014465170915191578 -0.015862179600358423 -0.010908278562258646 0.03059414569899092 -0.025728462996239539 -0.029184776560971237 -0.0055890378911733797 -0.0096952907489665681 -0.027062538828932246 0.016321798589928618 -0.030578011353507961 0.036633425175638806 0.028232577159647707 0.024123796722255911 -0.014436352931360148 -0.014276826192709494 -0.024580725255346953
leaf_weight=7.4517308473587027 7.4107792079448691 578.44587543606758 8.3133615255355817 12.044511973857881 751.80056613683701 9.7308288216590864 9.9344432055950147 15.37969797849655 13.376290351152418 7.4979989230632729 12.995193988084798 19.751494020223618 495.48871296644211 78.159116417169571 7.8891946375370008 7.8879072964191437 7.4520147442817679 7.8544266223907497 34.786679416894913 17.417598515748978 7.8717397749423972 8.2062642872333544 10.311215311288832 9.7073182463645917 55.765883564949036 320.52824598550797 13.858657598495482 8.2339403927326185 7.1789765059947968 7.4301714003086117 14.540199905633925
leaf_count=21 20 1640 23 34 2005 26 28 43 37 21 36 56 1411 221 22 22 21 21 98 49 22 23 29 26 158 855 37 22 20 21 41
internal_value=-2.96419e-07 -0.0293966 -0.0304359 -0.0222085 0.0376274 0.0350283 -0.0177386 -0.0139534 -0.0100668 -0.00548517 -0.0122199 -0.0306062 -0.0293158 -0.0244799 -0.016091 -0.000738975 -0.0304881 0.0355805 -0.0234265 -0.0239274 -0.0181541 -0.0275964 -0.0202571 0.0240094 -0.0293972 0.0361083 0.038814 0.0363942 -0.0213202 -0.027268 -0.0218693
internal_weight=2574.7 1445.58 1260.14 185.432 1129.12 363.466 103.696 66.3626 50.9829 41.0485 27.6722 1251.83 673.385 135.658 35.5286 15.7771 537.727 356.055 42.2387 37.3339 19.9163 81.7351 18.5175 17.5617 63.2176 338.493 765.659 328.762 14.677 100.129 21.9704
internal_count=7109 4097 3576 521 3012 970 290 185 142 114 77 3553 1913 383 100 44 1530 950 119 105 56 231 52 47 179 903 2042 877 41 283 62
is_linear=0
shrinkage=0.03


Tree=15
num_leaves=17
num_cat=0
split_feature=24 7 2 25 1 4 6 6 5 10 9 16 6 6 6 11
split_gain=2832.98 14.9933 11.8111 6.044 3.96259 5.90511 2.2355 0.87174 2.42051 0.757209 0.640707 0.593567 1.52235 0.268017 1.18552 1.42151
threshold=1.0000000180025095e-35 0.77703484892845165 0.81626620888710033 3.5000000000000004 1.4226912856101992 -0.95334139466285694 1.2646294832229616 -0.5862477421760558 -0.6014324128627776 -1.4007479548454282 -1.5747914314270017 200.47236633300784 -0.15047119557857511 -1.312960088253021 -1.820562422275543 -0.30941912531852717
decision_type=2 2 2 2 2 2 2 2 2 2 2 2 2 2 2 2
left_child=1 2 3 -1 11 10 7 8 -7 -5 -6 13 -13 14 -2 -16
right_child=4 -3 -4 9 5 6 -8 -9 -10 -11 -12 12 -14 -15 15 -17
leaf_value=0.024658756397704467 -0.024339053198088212 0.0092439152761833489 0.015026015628433757 0.036640437878325723 0.0096561875528791818 -0.022694054299476067 -0.00058330394217235605 -0.024545919508809719 0.0021900431670083998 0.058331274419469434 -0.0036963691419503539 -0.0021651487609739249 -0.022644284485434627 -0.024617473570457911 -0.003064147871803567 -0.020139952674308442
leaf_weight=6.9585670530796042 28.242169171571732 6.3557429313659659 6.7380608320236197 7.748652607202529 5.6058348119258881 8.6958642154932004 4.8211857527494422 39.145144000649452 5.2652799785137168 528.59280261397362 5.5510289967060071 5.1848078668117532 9.0321236550807917 1188.7854972183704 8.0656724572181719 9.8553805947303754
leaf_count=23 115 22 23 25 21 35 19 160 20 1582 21 20 37 4915 31 40
internal_value=-2.7112e-05 0.0566797 0.05721 0.0577046 -0.0239862 -0.0164879 -0.0202811 -0.0220255 -0.0137902 0.0580867 0.00325513 -0.0243873 -0.0158088 -0.0244732 -0.0203152 -0.0130228
internal_weight=1874.64 556.394 550.038 543.3 1318.25 69.0843 57.9275 53.1063 13.9611 536.341 11.1569 1249.17 14.2169 1234.95 46.1632 17.9211
internal_count=7109 1675 1653 1630 5434 276 234 215 55 1607 42 5158 57 5101 186 71
is_linear=0
shrinkage=0.03


Tree=16
num_leaves=47
num_cat=0
split_feature=24 24 0 25 21 2 7 6 8 8 10 1 21 1 0 0 10 11 2 1 9 1 10 1 2 3 9 1 1 4 0 1 1 0 0 0 0 8 1 7 22 0 0 7 14 9
split_gain=1047.27 1593.43 20.2106 13.5116 8.26745 6.79623 5.83296 4.64323 5.9067 4.27935 4.12927 3.38231 3.37916 3.12579 3.43083 1.76607 1.6779 2.27578 1.629 1.59207 1.28664 1.19514 1.25338 0.946508 0.865424 0.671181 0.67038 0.678219 3.08488 0.95483 1.83761 0.631185 0.440924 0.384087 2.26299 0.378528 2.22331 1.45497 0.920419 0.363308 0.252765 0.184531 0.179501 0.140175 0.0821066 0.0635583
threshold=1.5000000000000002 1.0000000180025095e-35 -0.26641449332237238 3.5000000000000004 1.0000000180025095e-35 0.77765613794326793 0.69661492109298717 0.13436811417341235 -2.2947716712951656 -0.28464442491531367 -1.4007479548454282 2.308197140693665 23.522650718688968 0.8917829990386964 1.5669491887092593 -0.94694375991821278 0.88620147109031688 1.5292707085609438 -0.60554105043411244 0.23639201372861865 0.24827695637941363 2.1028115749359135 -1.0474601387977598 1.1154488325119021 0.52370563149452221 -0.44626326858997339 -0.47387722134590143 -0.32147398591041559 -0.22422917932271955 -0.68339920043945301 -0.53134614229202259 1.4226912856101992 0.16506168991327289 -0.13056001067161557 0.24133180081844333 -0.35898967087268824 -0.54019537568092335 -0.23051956295967099 0.35308855772018438 0.088496617972850813 -16.748348236083981 0.27944085001945501 0.48766969144344335 -0.59122595191001881 -78.360389709472642 -1.0689389109611509
decision_type=2 2 2 2 2 2 2 2 2 2 2 2 2 2 2 2 2 2 2 2 2 2 2 2 2 2 2 2 2 2 2 2 2 2 2 2 2 2 2 2 2 2 2 2 2 2
left_child=1 2 -1 -4 9 6 10 8 -2 11 -5 15 24 14 26 45 35 19 -15 20 -18 43 -23 -21 -6 -9 27 33 -29 30 -30 -20 -31 -10 -35 36 -11 -37 -38 -14 -17 -28 -43 -12 -27 -3
right_child=7 4 3 5 12 -7 -8 25 13 16 21 -13 39 18 -16 40 17 -19 31 23 -22 22 -24 -25 -26 44 41 28 29 32 -32 -33 -34 34 -36 37 38 -39 -40 -41 -42 42 -44 -45 -46 -47
leaf_value=0.011063230681804651 0.0032188786565511278 0.021504312763457073 0.011040180494447938 -0.0038301125030763086 0.04571302134166861 0.0021693778167910147 0.00071475020776772056 -0.013747182711140121 -0.027223699662852315 0.036154033156605647 -0.019554527096557053 0.021269130285275599 0.033023623391100716 0.0013815272602812822 -0.0013416614233325193 0.027318624354706372 0.0036327832327902234 0.036342435855738431 -0.022002930137556179 0.034562051532222006 0.021624499106490162 -0.024757229356900466 -0.0056811196072182992 0.017493780832126524 0.032093029456756093 -0.016458487068993805 -0.025518258934820966 0.00093136187041973576 -0.021343753394003958 -0.025899005004832859 0.00019563633027960643 -0.0082390551710673637 -0.014895429978993511 -0.0050223278267930074 -0.026151652523053025 0.021148193158032833 0.01035615622803843 0.038842600913945514 0.026409701474972631 0.017500730876428904 0.04338731316323062 -0.014884139394026772 -0.022707583559310504 -0.028070223679402886 -0.026745769947910485 0.034503148469863555
leaf_weight=13.163333356380461 8.006549119949339 9.3971549570560473 8.2699598670005781 7.0084491670131674 336.81853270530701 7.1915847957134238 6.7336347401142111 6.9529768228530875 26.072813779115677 37.458894312381744 11.79550528526306 10.493441641330717 7.5954843163490278 6.8032142817974117 6.4889454245567313 7.3120862543582907 7.1955926418304426 25.456370204687119 7.3887463212013227 11.27982944250107 7.2159445285797119 6.5960943102836609 6.5419534444808942 9.03392046689987 14.910412698984144 6.5013545751571646 189.75388768315315 7.0182085633277884 7.2057271003723145 23.309878438711166 6.2709921002387983 7.6635398268699646 9.9933055937290174 7.864891558885577 12.128814727067946 8.3316206037998182 7.240684628486636 144.82826742529869 10.509830057621 7.2462615072727203 215.97553306818008 12.190078526735304 36.588734477758408 461.45035561919212 542.50212144851685 9.4992925524711591
leaf_count=38 24 26 24 21 914 21 20 22 84 103 37 29 21 21 20 20 20 70 23 31 20 21 20 25 41 21 614 22 23 75 20 24 32 25 39 23 20 396 29 20 588 39 118 1473 1766 26
internal_value=2.34899e-05 0.0162623 -0.0249373 -0.025876 0.0408002 -0.0264983 -0.0269141 -0.0246832 -0.0218984 0.0380709 -0.0272918 0.0412782 0.0445669 -0.022454 -0.023164 0.0420542 0.0349111 0.0289118 -0.0107272 0.0225998 0.0134599 -0.0276213 -0.0163322 0.0281484 0.0452283 -0.0265176 -0.0235773 -0.0206662 -0.0175116 -0.0202401 -0.0119999 -0.0159452 -0.0231276 -0.0238999 -0.0184752 0.0364975 0.031663 0.0380235 0.0207628 0.0270279 0.0429853 -0.0247047 -0.0210907 -0.0278997 -0.0266541 0.0294446
internal_weight=2347.25 1416.55 528.751 515.588 887.799 507.318 500.126 930.705 374.748 521.228 493.392 252.678 366.571 366.742 344.886 242.184 268.551 60.1817 21.8555 34.7253 14.4115 486.384 13.138 20.3137 351.729 555.956 338.397 99.8646 53.7981 46.7799 13.4767 15.0523 33.3032 46.0665 19.9937 208.369 55.2094 153.16 17.7505 14.8417 223.288 238.533 48.7788 473.246 549.003 18.8964
internal_count=7109 4097 1675 1637 2422 1613 1592 3012 1203 1426 1572 689 996 1179 1111 660 737 166 68 96 40 1551 41 56 955 1809 1091 320 172 150 43 47 107 148 64 571 152 419 49 41 608 771 157 1510 1787 52
is_linear=0
shrinkage=0.03


Tree=17
num_leaves=32
num_cat=0
split_feature=24 0 9 9 10 11 1 6 7 9 6 1 0 24 7 2 9 6 13 10 2 6 6 25 1 1 0 9 1 2 2
split_gain=2978.01 11.0002 5.91584 4.33999 2.28068 2.99235 4.13773 3.25668 5.72358 2.95515 2.24732 3.13653 1.99862 1.6107 3.33983 3.00403 7.00841 4.40477 1.43973 1.37073 0.827681 0.71079 1.89522 0.628509 0.779658 1.06782 0.281496 0.225133 0.781933 0.0599464 0.148468
threshold=1.5000000000000002 -0.33638969063758845 2.6737009286880498 -0.62439036369323719 -0.17335578799247739 1.4295599460601809 -0.90886837244033802 1.0721569061279299 -0.65422117710113514 0.24094597995281222 0.13436811417341235 1.0841641426086428 1.5669491887092593 1.0000000180025095e-35 -0.045768041163682931 -0.38240270316600794 -0.50661119818687428 0.17514022439718249 73.649951934814467 1.2699356079101565 -0.64676946401596058 -0.035098373889923089 -0.45846275985240931 10.500000000000002 -0.14213909953832624 -0.55712974071502674 -1.2686298489570615 -0.68255198001861561 1.5514733195304873 1.0283959507942202 1.2773517966270449
decision_type=2 2 2 2 2 2 2 2 2 2 2 2 2 2 2 2 2 2 2 2 2 2 2 2 2 2 2 2 2 2 2
left_child=1 3 13 23 21 6 -6 8 -8 -10 11 12 26 -3 15 16 -15 -18 19 -16 -21 22 -5 24 25 -1 -2 -13 -29 -17 -31
right_child=10 2 -4 4 5 -7 7 -9 9 -11 -12 27 -14 14 18 29 17 -19 -20 20 -22 -23 -24 -25 -26 -27 -28 28 -30 30 -32
leaf_value=-0.026403661472493473 0.023714631473521899 -0.031452491370795609 -0.0040362273550766763 -0.024737584104878852 -0.026216506665768229 -0.024909962879907818 0.020307021595703117 -0.01915248285455573 -0.017990833532328634 0.0029018708774397675 0.037764514422606199 0.014264470732752299 0.016582656119746131 -0.027135406482416129 -0.030450311154991909 -0.027884638691158304 0.014454783712244863 -0.015453329027777147 -0.016183844949232615 -0.026189639799345844 -0.011645479430989097 -0.028599913904791885 -0.0052014430588732735 -0.018551764175000065 -0.03104950950169412 -0.0094519236162619105 0.035454087393290284 0.016474115621970389 0.032670516834520082 -0.013791267984273745 -0.02403865198663941
leaf_weight=10.491891145706179 10.11590465903282 570.97263613343239 8.2921343445777875 11.913197815418245 9.8271229267120344 15.245661616325377 7.9563075006008104 10.025713145732878 11.398082941770562 11.511117696762083 677.95050981640816 7.8289404213428524 7.8586344718933097 19.511637330055237 500.51307371258736 77.238397002220154 7.8886228501796705 7.8400058746337891 10.53334519267082 9.8213657736778277 9.4635928869247419 17.220790207386017 7.8314040601253501 14.760790973901747 48.523720026016235 7.035132259130477 407.11306717991829 10.100228905677797 7.8718032836914054 7.3691917359828976 14.394773840904234
leaf_count=30 27 1640 23 34 28 43 22 28 32 32 1809 21 21 56 1445 221 22 22 30 28 27 49 22 42 139 20 1086 27 21 21 41
internal_value=-1.68429e-06 -0.0287859 -0.0298211 -0.0216547 -0.0172334 -0.0135083 -0.00966561 -0.00515717 -0.000152838 -0.00781064 0.0363934 0.0342528 0.0349219 -0.0299908 -0.0286895 -0.0238967 -0.0155826 -0.000485658 -0.0298555 -0.0301009 -0.0199784 -0.02335 -0.0176131 -0.0270066 -0.0285912 -0.0204769 0.0352268 0.022337 0.0249163 -0.0266708 -0.0213272
internal_weight=2556.42 1427.58 1243.84 183.741 102.929 65.964 50.7183 40.8912 30.8655 22.9092 1128.84 450.889 425.088 1235.55 664.574 134.243 35.2403 15.7286 530.331 519.798 19.285 36.9654 19.7446 80.8115 66.0507 17.527 417.229 25.801 17.972 99.0024 21.764
internal_count=7109 4097 3576 521 290 185 142 114 86 64 3012 1203 1134 3553 1913 383 100 44 1530 1500 55 105 56 231 189 50 1113 69 48 283 62
is_linear=0
shrinkage=0.03


Tree=18
num_leaves=16
num_cat=0
split_feature=24 7 2 10 1 0 4 0 25 9 0 16 24 5 9
split_gain=2632.77 13.4519 10.5109 5.26605 3.97269 9.10216 1.80969 0.898758 1.21874 0.635356 1.67697 0.602955 0.933364 0.215813 3.77885
threshold=1.0000000180025095e-35 0.77703484892845165 0.81626620888710033 -1.4289389848709104 1.4226912856101992 1.5669491887092593 -0.98503360152244557 -0.22867498546838758 4.5000000000000009 -0.5423411726951598 -0.4482665210962295 200.47236633300784 1.5000000000000002 -0.38608975708484644 1.3406843543052676
decision_type=2 2 2 2 2 2 2 2 2 2 2 2 2 2 2
left_child=1 2 3 -1 11 6 -6 -5 -9 10 -8 13 -13 14 -2
right_child=4 -3 -4 7 5 -7 9 8 -10 -11 -12 12 -14 -15 -16
leaf_value=0.025297334539432614 -0.023225628443382752 0.0088051087833900445 0.014416804511227043 0.033351047263337472 -0.0049084226256911499 0.017938119042364652 -0.022982010323183179 0.032129604582859267 0.055300984901514 -0.024283740039270231 -0.0051423072960653767 -0.00571676642199601 -0.022101643718382261 -0.024659258749539295 0.0014866806444405562
leaf_weight=7.9630231261253348 237.19503919780254 6.4184923171997061 6.8192654550075522 7.201806277036666 7.4681677073240271 5.6431281566619864 10.904631435871126 6.7925263047218314 536.14304301142693 34.92993737757206 9.0958138704299909 6.3447945266962034 7.6581785976886749 964.84898662567139 5.5829131603240958
leaf_count=26 993 22 23 23 29 20 45 21 1560 146 36 25 32 4085 23
internal_value=-3.22737e-05 0.053523 0.0540146 0.0544718 -0.0237809 -0.0162282 -0.0195523 0.0548474 0.0550707 -0.0214199 -0.0155001 -0.024188 -0.0155535 -0.0242751 -0.0226536
internal_weight=1861.01 571.338 564.92 558.1 1289.67 68.0417 62.3986 550.137 542.936 54.9304 20.0004 1221.63 14.003 1207.63 242.778
internal_count=7109 1675 1653 1630 5434 276 256 1604 1581 227 81 5158 57 5101 1016
is_linear=0
shrinkage=0.03


Tree=19
num_leaves=44
num_cat=0
split_feature=24 24 0 25 11 2 7 11 0 5 1 0 10 9 2 0 6 9 0 11 11 1 4 6 9 0 1 10 11 1 9 14 11 6 5 6 10 6 10 10 7 6 14
split_gain=986.786 1488.64 19.6305 13.011 7.7635 6.56135 5.62609 5.48389 6.23626 4.70814 5.04715 4.78786 4.00413 2.76078 2.59256 1.82432 1.77148 1.61905 1.60324 2.06191 5.02483 6.32959 1.33284 1.19184 1.18761 2.12217 1.17884 1.24179 1.10241 1.0964 0.890893 0.647132 0.627942 0.530666 0.397559 0.38447 0.34696 0.269737 0.223347 3.68184 0.143169 0.136235 0.111804
threshold=1.5000000000000002 1.0000000180025095e-35 -0.33638969063758845 3.5000000000000004 0.10584146529436113 0.77765613794326793 0.69661492109298717 -0.22070848941802976 2.4158294200897221 0.17917665839195254 1.0841641426086428 1.5669491887092593 -1.4007479548454282 2.1549091339111333 2.1594794988632207 -1.2686298489570615 -0.15047119557857511 0.41627372801303869 0.084586430341005339 1.5292707085609438 0.44375458359718328 0.10264822095632554 -0.71159014105796803 -1.3633273243904112 -1.0689389109611509 -0.049522548913955682 2.1028115749359135 -1.0474601387977598 0.87753269076347362 1.0841641426086428 1.6168893575668337 -23.399065017700192 0.86260882019996654 -0.28897623717784876 0.99333670735359203 -2.4479448795318599 -0.57074677944183339 0.50470092892646801 1.0343292355537417 1.2133921384811404 -0.59122595191001881 -0.0086097600869834406 -78.360389709472642
decision_type=2 2 2 2 2 2 2 2 2 2 2 2 2 2 2 2 2 2 2 2 2 2 2 2 2 2 2 2 2 2 2 2 2 2 2 2 2 2 2 2 2 2 2
left_child=1 2 -1 -4 7 6 12 8 14 10 11 15 -5 18 23 -2 22 -9 19 20 29 28 -12 35 25 36 40 -28 -22 -6 31 -26 -23 -25 -20 -3 -17 -35 -33 -40 -14 -11 -43
right_child=9 4 3 5 13 -7 -8 17 -10 41 16 -13 26 -15 -16 24 -18 -19 34 -21 21 32 -24 33 30 -27 27 -29 -30 -31 -32 38 -34 37 -36 -37 -38 -39 39 -41 -42 42 -44
leaf_value=0.012653791857667093 -0.0087286511243277586 0.031702502437033063 0.010665495467446471 -0.0037755068857539334 0.037949001479994186 0.0020488344379405855 0.00061007129359176961 0.043301957950040181 0.0083693605534327174 -0.017838569503572165 -0.0094249768069164692 0.00032702309647967626 -0.019196161194627335 0.015009403098184956 0.016962311724364246 -0.013107036817492205 -0.01626915607261336 0.031505127590297249 0.03934019337215957 0.038658795941191905 -0.0033558516875125247 0.019711678239752596 0.0082348914905263811 0.041712646844291663 -0.011504280717078081 -0.001063123872027037 -0.0244357118679711 -0.0054169924627703392 0.011511363391859614 0.023565559285467604 -0.011702920619904949 -0.025161908717819793 0.034722824621251328 0.030483709292498874 0.02384875541922488 0.017258224844167107 -0.024128066526005083 0.039817110209277057 -0.0021688669805153679 -0.024167962580763768 -0.027667636092053239 -0.015984959128415403 -0.026411591301662918
leaf_weight=11.881576567888258 9.4736407697200757 10.293759018182756 8.3119766116142255 7.0005345344543448 36.0159991979599 7.2051537632942191 6.743715524673461 459.43370819091797 7.8319513201713553 10.475767374038695 6.4921224117279053 8.1002564728260023 11.650336831808088 8.997064530849455 7.9559396207332602 8.9017626941204124 11.036696761846541 23.872423321008682 83.468939363956451 34.12858259677887 7.9699503183364895 10.193788141012194 6.9059962928295153 88.786497294902802 6.1297596395015708 6.5894205868244162 6.4953952431678772 6.5020483732223493 8.3341953456401807 13.527168095111845 8.0123849511146528 240.04094791412354 12.453104764223097 41.555131763219833 7.3017044961452475 7.7084878385066977 13.535174697637556 25.415657371282578 8.2342033684253675 46.841053336858749 455.06875079870224 6.3871237635612479 516.11480149626732
leaf_count=34 30 28 24 21 98 21 20 1236 22 34 20 25 37 25 22 29 35 65 226 93 22 28 21 240 20 21 21 20 23 37 26 789 34 113 20 21 44 69 27 154 1477 21 1716
internal_value=3.08611e-05 0.0157079 -0.0245877 -0.0254802 0.0391534 -0.0261003 -0.0265147 0.0408838 0.0358359 -0.0242682 -0.0215244 -0.0224341 -0.026891 0.0337583 0.0369674 -0.0229637 -0.00791572 0.0427855 0.0344751 0.0313067 0.0280709 0.0191516 -0.000382554 0.0377811 -0.0233354 -0.0162709 -0.0272197 -0.0159882 0.00446988 0.0345657 -0.0239439 -0.0242297 0.0290853 0.0388771 0.0383675 0.0267512 -0.0205013 0.0345595 -0.0244542 -0.0209762 -0.0274977 -0.026182 -0.0263149
internal_weight=2329.37 1416.1 520.859 508.978 895.244 500.666 493.461 672.854 189.547 913.271 380.293 355.859 486.717 222.39 181.715 347.758 24.4348 483.306 213.393 122.623 88.4942 38.951 13.3981 173.76 338.285 29.0264 479.717 12.9974 16.3041 49.5432 309.258 301.246 22.6469 155.757 90.7706 18.0022 22.4369 66.9708 295.116 55.0753 466.719 532.978 522.502
internal_count=7109 4097 1675 1641 2422 1617 1596 1816 515 3012 1241 1165 1576 606 493 1140 76 1301 581 335 242 107 41 471 1110 94 1555 41 45 135 1016 990 62 422 246 49 73 182 970 181 1514 1771 1737
is_linear=0
shrinkage=0.03


Tree=20
num_leaves=32
num_cat=0
split_feature=24 24 10 1 8 8 5 8 9 25 8 7 5 3 8 8 3 5 1 1 1 11 8 11 25 1 1 1 1 10 10
split_gain=2803.52 7.05309 8.29239 3.32429 2.55259 4.72699 2.18612 5.38141 1.60914 2.57253 1.36703 1.31549 1.61966 2.42668 1.59603 1.26016 0.875925 2.74308 2.4068 1.66342 2.44056 1.51156 0.823697 1.28557 0.800098 0.652478 0.40594 1.64448 0.527315 0.280203 0.00202542
threshold=1.5000000000000002 1.0000000180025095e-35 0.061253583058714874 -0.14506554603576657 -0.26240299642086024 -0.12071580812335013 0.053715890273451812 -1.9413371086120603 1.8132146596908572 10.500000000000002 0.73739072680473339 0.30710050463676458 -0.5691983401775359 -0.3882021009922027 0.055119385942816741 0.52946531772613536 -0.44626326858997339 -0.50984290242195118 0.20858897268772128 0.17326189577579501 0.0020655613625422124 1.0641879439353945 0.25773620605468756 0.13498067855834964 9.5000000000000018 1.146870017051697 -0.32147398591041559 -0.23524502664804456 -0.27142171561717982 0.21938686817884448 -1.1556236147880552
decision_type=2 2 2 2 2 2 2 2 2 2 2 2 2 2 2 2 2 2 2 2 2 2 2 2 2 2 2 2 2 2 2
left_child=1 -1 3 11 29 -6 7 -2 9 16 26 12 -3 -14 30 -13 17 -7 -19 20 21 -18 23 24 -5 -24 -9 28 -28 -4 -15
right_child=6 2 4 22 5 8 -8 10 -10 -11 -12 15 13 14 -16 -17 19 18 -20 -21 -22 -23 25 -25 -26 -27 27 -29 -30 -31 -32
leaf_value=-0.03089752621255339 0.0065320178817211416 -0.026425288506733088 -0.017552989111945957 -0.030479452767462348 -0.0019153144842250698 -0.026964827990348033 0.036389750797880357 0.035853034157666185 -0.0085711314755691527 -0.0050847057014616536 0.023572667554744006 -0.029399046787686983 -0.0035872053528800303 -0.016380951196449417 -0.0066657542487677801 -0.012631709821106347 -0.026013325404081411 -0.016753875341314048 0.0047856073367570197 -0.027511677724434049 -0.00179801617724632 -0.0093979929766980375 -0.026587792476375299 -0.014776810277088945 -0.023786299914567054 -0.015699005664876177 0.026766300223188242 0.033121579178942047 0.014747996008205023 -0.027612585373892499 -0.026926066560407923
leaf_weight=575.15971499681473 7.4431585967540732 18.88404056429863 10.02493780851364 419.49115094542503 13.803110659122465 12.826235115528108 763.39594039320946 171.78869870305061 11.433833450078962 8.8855477869510633 22.467866659164429 36.743884861469269 12.689978271722792 6.9697904884815243 7.3700072765350333 6.9734902679920188 20.872984379529957 10.8889277279377 7.0929231345653525 58.757675915956497 7.0149691104888907 8.4116720259189588 23.639455378055573 8.0092142522335035 38.467233508825302 13.992400437593458 14.975486665964128 135.89191791415215 10.484726637601851 57.642109781503677 12.496093302965166
leaf_count=1675 20 55 29 1232 39 37 2042 459 32 25 60 107 36 20 21 20 60 31 20 169 20 24 68 23 111 40 40 363 28 167 36
internal_value=-4.66264e-06 -0.0282095 -0.0263195 -0.0282061 -0.0211985 -0.0188483 0.0352571 0.0327822 -0.0204233 -0.0213584 0.0333117 -0.0226385 -0.0189243 -0.014777 -0.0197494 -0.0270667 -0.0224582 -0.0167655 -0.00845313 -0.0241094 -0.0180123 -0.0217087 -0.029288 -0.0297414 -0.0299703 -0.0230503 0.0338961 0.0316045 0.0225615 -0.0263996 -0.0241353
internal_weight=2534.99 1408.54 833.382 605.727 227.655 159.988 1126.45 363.052 146.185 134.751 355.609 102.127 58.4099 39.5259 26.8359 43.7174 125.865 30.8081 17.9819 95.0573 36.2996 29.2847 503.599 465.968 457.958 37.6319 333.141 161.352 25.4602 67.667 19.4659
internal_count=7109 4097 2422 1769 653 457 3012 970 418 386 950 295 168 113 77 127 361 88 51 273 104 84 1474 1366 1343 108 890 431 68 196 56
is_linear=0
shrinkage=0.03


Tree=21
num_leaves=17
num_cat=0
split_feature=24 7 2 25 1 0 4 0 10 9 0 16 24 11 4 8
split_gain=2453.72 12.215 9.47942 4.69311 3.9851 8.83145 1.7952 1.01303 1.72459 0.641647 1.65647 0.615449 0.923267 0.228574 0.617866 0.0660165
threshold=1.0000000180025095e-35 0.77703484892845165 0.81626620888710033 3.5000000000000004 1.4226912856101992 1.5669491887092593 -0.98503360152244557 -0.23433592170476911 -1.4007479548454282 -0.5423411726951598 -0.4482665210962295 200.47236633300784 1.5000000000000002 -4.6195905208587638 0.041501963511109359 3.7157696485519414
decision_type=2 2 2 2 2 2 2 2 2 2 2 2 2 2 2 2
left_child=1 2 3 -1 11 6 -6 -5 -9 10 -8 13 -13 14 -2 -15
right_child=4 -3 -4 7 5 -7 9 8 -10 -11 -12 12 -14 15 -16 -17
leaf_value=0.022730202924940456 -0.0068445720004597071 0.0083536696733023143 0.013806732629588104 0.029645621927674694 -0.0047111165615948084 0.017534123937964642 -0.022784725047737892 0.029351280048891738 0.052393582665242154 -0.024094983460783165 -0.0049722697441364353 -0.0055240922022447621 -0.021882438499619045 -0.02419703375137271 -0.021834509773073649 -0.01593940293239951
leaf_weight=7.1771575212478629 5.305271238088606 6.4834535717964163 6.9011662304401389 6.2123114168643943 7.413776457309722 5.6887815892696372 10.680773764848711 7.1554397642612448 550.23094347119331 34.160148337483406 9.037139877676962 6.2966462373733503 7.4864155650138855 1159.0486169457436 7.4528490751981735 8.4946521669626218
leaf_count=23 22 22 23 20 29 20 45 22 1565 146 36 25 32 5011 32 36
internal_value=-3.72512e-05 0.050741 0.0512015 0.0516287 -0.0235807 -0.0159691 -0.0193103 0.0519558 0.0521509 -0.0211967 -0.0152549 -0.023994 -0.0152885 -0.0240826 -0.0165517 -0.0241506
internal_weight=1845.23 584.16 577.677 570.776 1261.07 66.9806 61.2918 563.599 557.386 53.8781 19.7179 1194.08 13.7831 1180.3 12.7581 1167.54
internal_count=7109 1675 1653 1630 5434 276 256 1607 1587 227 81 5158 57 5101 54 5047
is_linear=0
shrinkage=0.03


Tree=22
num_leaves=63
num_cat=0
split_feature=1 7 8 0 9 7 9 5 8 0 0 9 25 11 6 7 7 1 1 9 1 25 7 0 7 11 0 0 1 25 2 1 6 2 2 1 5 2 1 2 13 7 9 2 2 25 7 0 7 6 9 25 8 11 7 0 4 0 8 8 9 9
split_gain=290.419 409.313 231.152 165.667 77.307 50.5514 66.8909 43.3055 40.9355 24.601 24.2677 36.5023 22.4124 20.1848 21.2919 19.7358 19.5689 21.5707 18.8197 16.4803 15.3229 16.4985 14.7467 13.0798 12.2928 11.7727 11.5088 11.2504 11.9886 10.9407 10.754 10.5989 10.1795 10.0395 9.70706 9.87412 8.80471 8.73295 8.70666 10.4629 8.49517 8.42078 9.69095 8.39603 8.26586 7.84171 9.33294 7.84149 6.60931 6.3436 5.98314 5.93866 5.27121 5.14268 5.13562 4.57398 4.526 4.33731 3.95096 3.92921 6.32145 3.87497
threshold=-0.1422440707683563 -0.0032591775525361295 0.1681042015552521 2.583908319473267 -0.4823137074708938 -0.53844553232192982 -0.72392699122428883 0.0094130546785891073 -1.7256048321723936 2.0962634086608891 0.48766969144344335 -0.62439036369323719 10.500000000000002 0.18929532170295718 1.0000000180025095e-35 -1.0168078541755674 0.69661492109298717 -1.3558686375617979 0.32905636727809912 2.1180360317230229 0.15400433540344241 7.5000000000000009 -0.74911394715309132 -0.66089111566543568 0.59584489464759838 -0.85636860132217396 2.8530396223068242 -0.39546328783035273 0.0020655613625422124 4.5000000000000009 1.1063892245292666 0.22969771176576617 -0.33188715577125544 1.3628414273262026 0.061528874561190612 1.3215169906616213 -0.94667071104049672 1.7428433895111086 0.032698007300496108 0.20587854832410815 73.649951934814467 3.1175286769866948 0.48030522465705877 1.1063892245292666 0.21205734461545947 9.5000000000000018 0.31166225671768194 0.86097031831741344 -0.24809647351503369 0.69966402649879467 -0.79622551798820485 9.5000000000000018 0.10143325850367547 0.87753269076347362 0.30710050463676458 -0.20868831872940061 -0.077180415391921983 0.033212076872587211 1.4485597610473635 0.31514145433902746 0.6935604214668275 -0.60774475336074818
decision_type=2 2 2 2 2 2 2 2 2 2 2 2 2 2 2 2 2 2 2 2 2 2 2 2 2 2 2 2 2 2 2 2 2 2 2 2 2 2 2 2 2 2 2 2 2 2 2 2 2 2 2 2 2 2 2 2 2 2 2 2 2 2
left_child=4 5 3 23 13 6 20 18 19 16 11 -7 15 14 25 31 32 -18 27 54 21 -2 61 -3 -20 51 -22 -4 -29 -12 -11 43 -10 55 -17 -36 -15 53 39 -31 -25 42 52 -8 45 47 -47 -34 57 -49 -27 -1 -19 -33 -6 -9 -46 -13 59 60 -44 -14
right_child=1 2 7 -5 8 10 12 33 9 30 29 48 22 36 -16 34 17 41 24 -21 26 -23 -24 40 -26 50 -28 28 -30 38 -32 37 44 -35 35 -37 -38 -39 -40 -41 -42 -43 58 -45 56 46 -48 49 -50 -51 -52 -53 -54 -55 -56 -57 -58 -59 -60 -61 -62 -63
leaf_value=-0.004715089160157491 0.032394607119552776 0.0038210268975143037 -0.019950786216325522 -0.023755990481492344 0.0084191380514295078 0.027801719915361268 -0.019371810343232366 -0.025569246119367835 -0.027345381502848029 0.026253727166647443 0.014326524606663968 -0.012342248580156982 -0.0021519302807162513 0.01295144726023202 -0.021409099804749029 0.012966427890430321 0.034313196944682142 -0.0074470089106984695 -0.0066436309029099241 -0.014159726668672268 0.028982277717532444 -0.02217733289349879 0.010519833123557682 0.041074028629676712 0.027179006953696773 0.035622160190569546 -0.0075737041455957131 -0.016975570500442724 0.024948434861921567 0.021670830097069931 -0.017032031239113128 0.040307725606182114 -0.020943761162710572 0.0088272533206072232 -0.022730330218332734 0.015159884170909729 -0.014347541659827295 -0.00035161346243770024 -0.026436616183303303 -0.025076538251916393 0.0091519424681216245 -0.026651054078840063 -0.019796308629402466 0.017502215291305454 -0.0052360935409538744 0.015438031357681662 -0.019974752490440884 0.0093880386005304132 -0.023035508970237824 -0.01999252127378329 0.011885977193728602 0.020676213599420831 0.011026946935991334 0.0094672906630239931 0.038347321228310749 -0.010569488597590156 -0.022754202038330108 0.013479608262878346 0.0029745626575611401 -0.021469327100041354 0.015643205920046133 -0.023112994700763827
leaf_weight=18.982472002506256 6.5709502100944528 9.1234604418277723 20.860487729310989 39.282300055027008 8.5031474232673663 22.382216095924377 12.356258302927019 55.880692958831787 186.74281233549118 15.333763033151628 6.0900071859359732 14.902671754360201 8.8135011792182905 13.384652018547056 11.663336783647535 10.871632754802702 8.4451301693916303 30.513823330402374 11.450652897357939 11.333620250225065 73.17132106423378 13.641606956720352 13.960120409727095 461.84439086914062 51.12421190738678 37.15859717130661 8.2466229200363141 8.9503660798072833 15.363800793886183 7.3322988450527173 6.7375894188880912 17.600549370050434 73.688350439071655 11.388565838336943 42.196715146303177 6.5106044411659232 40.885052144527435 10.758938431739805 183.32509565353394 7.9374588131904602 8.2946476936340314 29.805422365665436 9.3957874476909655 8.5537515580654127 14.789807766675947 16.878176331520084 9.7204747200012189 16.506026566028599 40.870470076799393 9.6391690373420698 14.55863434076309 13.330636262893675 23.875822126865387 7.6085338592529288 15.523276150226591 30.183525323867798 237.42784780263901 8.2965700924396497 8.9652331173419935 57.243189334869385 7.0769624710082999 105.1326330602169
leaf_count=59 18 27 69 128 25 62 41 188 617 43 18 48 28 39 38 32 23 96 35 37 203 45 42 1242 143 102 25 29 44 21 22 48 242 34 139 19 130 33 604 26 24 100 31 25 47 51 32 50 136 32 43 38 71 22 42 96 790 25 28 190 21 351
internal_value=3.95179e-05 0.00891769 0.0243398 0.0349877 -0.0126998 -0.00861175 -0.000850475 -0.00260648 -0.0164101 -0.0178755 -0.0178009 -0.00440702 -0.00935461 0.00702521 0.0152564 0.000183085 -0.0188079 -0.00996778 0.0104568 0.0148237 0.019489 -0.0037456 -0.0179726 0.039842 0.0209826 0.0205374 0.0252326 -0.00426199 0.00945471 -0.0234092 0.0128746 0.0127093 -0.0215267 -0.0170095 -0.0117876 -0.0174625 -0.00750222 0.0223737 -0.0246323 -0.00267691 0.0405314 -0.0123998 -0.0091303 -0.00417723 -0.0185925 -0.0121692 0.0022416 -0.0159928 -0.0159132 -0.0017814 0.0292925 0.00606621 0.000715308 0.0317159 0.0285151 -0.0204905 -0.0217517 -0.00293235 -0.0155381 -0.0177993 -0.004547 -0.0215245
internal_weight=2308.99 1360.88 723.747 518.545 948.109 637.131 345.994 205.202 798.145 762.785 291.137 86.4519 244.363 149.963 95.6937 116.457 740.714 175.321 107.75 35.36 101.631 20.2126 127.906 479.262 62.5749 84.0303 81.4179 45.1747 24.3142 204.685 22.0714 56.878 565.393 97.4528 59.579 48.7073 54.2697 35.968 198.595 15.2698 470.139 166.876 137.071 20.91 378.65 126.432 26.5987 99.8335 64.0697 26.1452 51.7172 32.3131 54.3896 25.2091 24.0264 86.0642 252.218 23.1992 82.6812 73.7159 16.4727 113.946
internal_count=7109 4070 2059 1421 3039 2011 1071 638 2590 2486 940 271 780 449 280 359 2421 560 320 104 291 63 421 1293 178 242 228 142 73 669 65 169 1861 318 190 158 169 103 651 47 1266 537 437 66 1244 407 83 324 209 82 145 97 167 70 67 284 837 73 270 242 52 379
is_linear=0
shrinkage=0.03


Tree=23
num_leaves=31
num_cat=0
split_feature=24 0 9 9 11 9 6 1 0 24 7 2 9 6 7 3 13 4 9 11 3 2 25 1 1 9 0 1 2 2
split_gain=2641.53 10.6568 5.69853 4.23909 2.15069 4.21613 2.10242 2.8443 1.85208 1.6814 3.22826 2.9917 6.75426 4.27925 1.55405 2.18289 1.45291 1.31239 0.873368 0.823228 0.73213 0.892773 0.654233 0.814216 1.06577 0.34899 0.290964 0.235098 0.115502 0.194211
threshold=1.5000000000000002 -0.33638969063758845 2.6737009286880498 -0.62439036369323719 -1.0266026258468626 -0.46819129586219782 0.13436811417341235 1.0841641426086428 1.5669491887092593 1.0000000180025095e-35 -0.045768041163682931 -0.38240270316600794 -0.50661119818687428 0.17514022439718249 2.1395455598831181 0.12083595618605615 73.649951934814467 0.30299776792526251 0.81072229146957409 0.0054879379458725461 2.036282062530518 1.1593676805496218 10.500000000000002 -0.14213909953832624 -0.55712974071502674 0.93930506706237804 -1.2686298489570615 1.5514733195304873 1.0283959507942202 1.2773517966270449
decision_type=2 2 2 2 2 2 2 2 2 2 2 2 2 2 2 2 2 2 2 2 2 2 2 2 2 2 2 2 2 2
left_child=1 3 9 22 -5 -6 7 8 26 -3 11 12 -11 -14 15 -7 18 -17 -12 -19 21 -21 23 24 -1 -20 -2 -9 -13 -30
right_child=6 2 -4 4 5 14 -8 27 -10 10 16 28 13 -15 -16 17 -18 19 25 20 -22 -23 -24 -25 -26 -27 -28 -29 29 -31
leaf_value=-0.025367807503253917 0.022116732894970202 -0.030352482594301355 -0.0033712571760700417 -0.025284130959246462 0.0070456187962257928 -0.025263507176112105 0.035522776496070593 0.015662295972580009 0.015323560216919527 -0.0260474672120115 -0.029344002856289943 -0.026836345812269524 0.01497809039576843 -0.014627157518149116 -0.0050583481330505973 -0.001842693615080031 -0.015087836424450841 -0.0054754894914599561 -0.012670996248874009 -0.012056366874777499 -0.0090086599637079958 -0.028254206453541406 -0.017520787607001428 -0.030008946115518593 -0.0085322516792053285 -0.024014675641140792 0.033305388031052235 0.025209342197931636 -0.012681348802672411 -0.023002946555195528
leaf_weight=10.231655627489092 10.111658066511152 554.62169453501701 8.2243641614913923 19.6291324198246 7.4123227000236502 22.661432564258575 673.27271041274071 13.855580359697344 7.8680648803710929 18.997446686029434 476.26971629261971 75.376377612352371 7.8427577018737775 7.7347800135612488 11.245397388935087 8.0383095741271955 10.316920548677443 7.0036294162273398 7.2124449312686947 8.0802892744541222 8.1231623291969282 9.0081416666507703 14.473225206136702 47.238163679838181 6.9211284816265097 20.593151271343231 405.03228095173836 11.971965968608854 7.2150911092758205 14.076799958944319
leaf_count=30 27 1640 23 57 21 65 1809 37 21 56 1419 221 22 22 32 23 30 20 21 23 23 26 42 139 20 60 1086 32 21 41
internal_value=-8.96297e-06 -0.0276629 -0.0286989 -0.0205899 -0.0162125 -0.0137498 0.0342053 0.0321546 0.0327932 -0.0288695 -0.0275506 -0.0228129 -0.0145102 0.000282468 -0.0158944 -0.0177217 -0.0287128 -0.0129665 -0.0289613 -0.015603 -0.0181002 -0.021685 -0.0259339 -0.027528 -0.0194189 -0.0216143 0.0330867 0.0208624 -0.0256035 -0.0202311
internal_weight=2510.66 1388.55 1208.48 180.066 101.202 81.5727 1122.11 448.84 423.012 1200.26 645.635 131.243 34.575 15.5775 74.1604 62.915 514.392 40.2535 504.075 32.2152 25.2116 17.0884 78.8642 64.3909 17.1528 27.8056 415.144 25.8275 96.6683 21.2919
internal_count=7109 4097 3576 521 290 233 3012 1203 1134 3553 1913 383 100 44 212 180 1530 115 1500 92 72 49 231 189 50 81 1113 69 283 62
is_linear=0
shrinkage=0.03


Tree=24
num_leaves=16
num_cat=0
split_feature=24 25 0 1 0 2 4 6 5 16 6 6 6 11 8
split_gain=2294.76 10.4946 6.16196 3.97847 8.52357 1.90813 1.77381 0.721444 2.42464 0.617024 1.52307 0.329617 1.27356 1.45799 0.410142
threshold=1.0000000180025095e-35 3.5000000000000004 -0.33638969063758845 1.4226912856101992 1.5669491887092593 0.77765613794326793 -0.98503360152244557 -0.5862477421760558 -0.6014324128627776 200.47236633300784 -0.15047119557857511 -1.312960088253021 -1.820562422275543 -0.30941912531852717 3.7157696485519414
decision_type=2 2 2 2 2 2 2 2 2 2 2 2 2 2 2
left_child=1 -1 -3 9 6 -4 -5 8 -8 11 -11 12 -2 -14 -13
right_child=3 2 5 4 -6 -7 7 -9 -10 10 -12 14 13 -15 -16
leaf_value=0.015633996812178207 -0.023797284498466503 0.019111944734598249 0.049420841383300308 -0.0045686051779092584 0.016991893149599216 0.026013073155138917 -0.022268841080263089 -0.023291739208760022 0.0027720756231042073 -0.001460255840099512 -0.022134306537392026 -0.024103576094144485 -0.0018954942866695665 -0.019403381731699785 -0.012253295254594739
leaf_weight=9.8868322968482953 26.535037681460381 7.8912205696105948 570.41513615846634 7.3744163215160361 5.7496392428874961 6.6447828710079184 8.5127904713153821 39.216944754123688 5.1703573614358893 5.0533800423145285 8.5508123785257322 1104.1881908327341 7.745663300156596 9.2764092683792096 5.7860862910747519
leaf_count=32 115 26 1596 29 20 21 36 171 20 20 37 4890 31 40 25
internal_value=-4.91121e-05 0.0482997 0.0488242 -0.0233913 -0.015741 0.0491968 -0.0190898 -0.0209917 -0.0132624 -0.0238103 -0.0150806 -0.0239001 -0.0195532 -0.0119839 -0.0240529
internal_weight=1828 594.838 584.951 1233.16 66.0241 577.06 60.2745 52.9001 13.6831 1167.14 13.6042 1153.53 43.5571 17.0221 1109.97
internal_count=7109 1675 1643 5434 276 1617 256 227 56 5158 57 5101 186 71 4915
is_linear=0
shrinkage=0.03


Tree=25
num_leaves=44
num_cat=0
split_feature=24 24 0 25 21 2 7 5 8 0 1 8 1 19 1 21 1 0 3 0 1 0 0 9 1 3 0 7 9 9 8 1 1 1 2 7 9 1 1 6 14 9 1
split_gain=888.861 1316.09 18.2563 12.1985 6.56733 6.27673 5.26663 4.54949 6.16846 4.79147 3.35908 3.29302 3.03873 2.95758 2.93991 2.73914 1.64402 1.61571 1.51793 1.40274 2.76914 2.10414 4.33902 4.28159 1.19318 1.19235 1.11576 1.06444 1.42423 0.963652 0.825899 1.81299 2.51143 1.56931 0.662081 0.47631 0.222976 0.210861 0.745121 0.161985 0.142023 0.103424 0.00282819
threshold=1.5000000000000002 1.0000000180025095e-35 -0.26641449332237238 3.5000000000000004 1.0000000180025095e-35 0.77765613794326793 0.69661492109298717 0.17917665839195254 -1.9413371086120603 2.4158294200897221 1.0841641426086428 -0.28464442491531367 2.1028115749359135 1.0621868968009951 2.308197140693665 23.522650718688968 1.2841300368309023 -0.94694375991821278 -0.54971119761466969 1.5420863628387453 -0.38217638432979578 -0.34852209687232966 -0.55870237946510304 -0.030301438644528386 -0.17772405594587323 -0.15653450787067411 -1.2686298489570615 -0.55693614482879628 0.41627372801303869 1.6168893575668337 -0.23051956295967099 -0.32147398591041559 -0.19443999975919721 0.14061249047517779 0.52370563149452221 0.088496617972850813 1.6168893575668337 -0.68573129177093495 -0.81385496258735646 -0.0086097600869834406 -78.360389709472642 1.0676417350769045 -0.099559005349874483
decision_type=2 2 2 2 2 2 2 2 2 2 2 2 2 2 2 2 2 2 2 2 2 2 2 2 2 2 2 2 2 2 2 2 2 2 2 2 2 2 2 2 2 2 2
left_child=1 2 -1 -4 11 6 12 8 -2 10 26 14 27 -14 17 34 -12 18 -3 21 -21 22 24 -24 -13 -18 -10 28 -5 30 31 37 -33 42 -6 -17 -23 38 -28 -9 -41 -29 -34
right_child=7 4 3 5 15 -7 -8 39 9 -11 16 19 13 -15 -16 35 25 -19 -20 20 -22 36 23 -25 -26 -27 29 41 -30 -31 -32 32 33 -35 -36 -37 -38 -39 -40 40 -42 -43 -44
leaf_value=0.010087821389809806 0.0056636871487163948 0.013185413232290309 0.0099936198264627858 -0.0049604316554548774 0.040853844708370106 0.0020264138449047871 0.00030772906834728537 -0.017100185518028912 -0.010386947841469993 0.0042359187488270186 0.0027858347226337688 0.018437345751981943 0.0012032050638607361 -0.024413586071861032 0.018657627584009687 0.030218395721236201 -0.021889683278948135 0.038465865448370322 0.032962156289249825 0.032436351981579375 0.012329892771150893 0.035107697114555393 0.025497119959412975 0.0006271998815952773 0.03420731574615498 -0.004089796476239348 -0.022486725536286539 -0.027166650710979637 -0.024600662928086121 -0.010173750434390861 -0.024263000862285888 0.0007783046068343954 -0.014778897524715716 -0.0048959021423678464 0.028855102674334079 0.015071439271183413 0.024569829685858816 -0.02645907786429497 -0.008784143796621291 -0.01521121640027741 -0.025720383258892286 -0.017071525216927994 -0.025282135384492019
leaf_weight=13.31466507911682 7.3655016720294944 7.7354848086833981 8.3842998743057233 6.5725732743740064 342.29580441117287 7.2037788331508628 6.770492196083068 10.178929418325422 8.9823040962219221 6.1518467068672171 6.4645931124687221 9.1626259088516218 7.8043660521507245 7.2494418919086456 10.671899139881132 7.7442709505557996 8.0758619606494904 227.27350914478302 11.538170844316481 13.388508200645449 14.288980603218077 152.76091834902763 15.172064423561098 10.218113243579863 45.915629029273987 6.2884280085563633 16.372728109359745 432.94646334648132 7.3276451826095581 7.4721264243125907 235.76671949028969 8.2903420925140363 5.9171770513057735 6.7166456878185263 15.187646746635435 7.3715010285377502 12.532277166843413 26.967952847480774 6.8612232804298392 6.1919928491115561 495.74463859200478 7.2245993614196768 11.573454707860948
leaf_count=38 22 21 24 21 914 21 20 34 29 19 20 25 24 24 29 21 26 608 31 36 39 410 41 28 124 20 55 1455 24 25 803 27 20 22 41 20 34 91 23 21 1716 24 39
internal_value=4.78823e-05 0.0148338 -0.0239331 -0.0248733 0.0365017 -0.0254979 -0.0259179 -0.0235634 -0.0208361 -0.0213896 -0.0218434 0.0340905 -0.0262962 -0.0118853 0.0368949 0.0398354 -0.00951404 0.0376058 0.0260666 0.0313276 0.022848 0.0321861 0.0271468 0.0158914 0.0319594 -0.0148706 -0.0225795 -0.0267468 -0.0162702 -0.0228827 -0.0231481 -0.0197179 -0.0134535 -0.0181651 0.040426 0.0242252 0.0344613 -0.0234311 -0.0189697 -0.0254855 -0.0256212 -0.02704 -0.0227203
internal_weight=2289.44 1408.06 504.798 491.484 903.257 483.099 475.896 881.382 369.267 361.901 355.75 530.658 469.125 15.0538 257.219 372.599 20.8289 246.547 19.2737 273.439 27.6775 245.762 80.4684 25.3902 55.0783 14.3643 334.921 454.071 13.9002 325.938 318.466 82.6995 32.4976 24.2073 357.483 15.1158 165.293 50.2019 23.234 512.116 501.937 440.171 17.4906
internal_count=7109 4097 1675 1637 2422 1613 1592 3012 1241 1219 1200 1426 1572 48 689 996 66 660 52 737 75 662 218 69 149 46 1134 1524 45 1105 1080 277 108 81 955 41 444 169 78 1771 1737 1479 59
is_linear=0
shrinkage=0.03


Tree=26
num_leaves=33
num_cat=0
split_feature=24 0 9 8 5 3 2 9 5 8 24 7 2 9 8 8 10 5 8 0 0 8 0 13 9 0 8 0 11 2 2 3
split_gain=2503.9 10.207 5.41331 4.05984 4.1232 4.03675 2.49798 4.85776 1.93906 4.97981 1.58488 3.03433 2.94565 6.53018 3.38442 1.47864 1.46829 2.18878 1.31646 1.8966 1.25285 1.1524 0.928867 0.651592 0.305591 0.290554 0.254495 0.235026 0.218285 0.110026 0.187022 0.0990702
threshold=1.5000000000000002 -0.33638969063758845 2.6737009286880498 -0.23861689865589139 -0.53532069921493519 -0.48309220373630518 0.54689162969589245 -0.34252741932868952 0.053715890273451812 -1.9413371086120603 1.0000000180025095e-35 -0.045768041163682931 -0.38240270316600794 -0.50661119818687428 0.21313102543354037 0.50986647605896007 -0.14481078088283536 0.82077273726463329 0.73739072680473339 -0.50016671419143666 -0.51297107338905323 0.61907094717025768 -1.2523603439331052 73.649951934814467 -0.0077197120990604154 2.0962634086608891 -3.2200322151184078 -0.83835282921791066 0.62462124228477489 1.0283959507942202 1.2773517966270449 0.021000093780457977
decision_type=2 2 2 2 2 2 2 2 2 2 2 2 2 2 2 2 2 2 2 2 2 2 2 2 2 2 2 2 2 2 2 2
left_child=1 3 10 26 -5 -6 20 -8 9 -2 -3 12 13 -12 -15 23 -9 -18 22 -20 24 -17 -11 -13 -7 -10 27 -1 -28 -14 -31 -24
right_child=8 2 -4 4 5 6 7 16 25 18 11 15 29 14 -16 21 17 -19 19 -21 -22 -23 31 -25 -26 -27 28 -29 -30 30 -32 -33
leaf_value=-0.011646312352138021 0.0058384044729735797 -0.029841626207277677 -0.0035212011404772339 -0.026854252454732996 0.0047829066879011804 -0.028760126553663903 0.011846250345047687 -0.024602067632870393 0.034542019178961866 0.019452414089636414 -0.025650163287020415 -0.028949060172674637 -0.026466503745585863 0.012807845932418606 -0.013562894835003789 -0.0087136285250782354 0.0033188826821056627 -0.016525789978197238 0.033305291932356741 0.013822181610512945 -0.0096488335806304663 -0.023693187203595791 0.032756992599639032 -0.015399766482309655 -0.016705204776919249 0.024560249464401246 -0.0285043790597409 -0.022602081496861305 -0.018976299668469913 -0.012495020233323028 -0.022678890024961339 0.024442364749435851
leaf_weight=6.8399609923362759 7.4624863862991324 545.68878814578056 8.2402893304824811 23.684588700532913 10.292478024959562 13.655611306428913 7.1077024936676017 8.5727844536304456 742.09870946407318 10.478917241096495 18.78386315703392 459.11245286464691 74.628738880157471 8.2254365980625135 7.3400138020515433 7.1691668331623069 7.4381455779075685 12.652751833200453 8.2024598121643084 14.176244258880613 8.4453448057174665 33.34946021437645 303.97199442982674 6.8287003338336936 9.0769887268543243 13.768626391887663 48.791324555873871 10.480722367763518 11.624727219343184 7.1851604580879238 13.962149411439894 16.372334212064743
leaf_count=20 20 1640 23 70 29 40 20 25 2005 28 56 1391 221 23 21 21 21 36 22 38 24 98 818 20 26 37 145 31 34 21 41 44
internal_value=-7.98059e-06 -0.0271894 -0.0282142 -0.020241 -0.0159618 -0.0123213 -0.0149825 -0.00916696 0.0333184 0.0309777 -0.0283832 -0.0270882 -0.0224643 -0.0142129 0.000304443 -0.0282297 -0.0146013 -0.00936979 0.0314909 0.0220825 -0.0211627 -0.0213165 0.0320589 -0.0287839 -0.0248534 0.0343929 -0.0255235 -0.0191475 -0.0270099 -0.0252462 -0.0199392 0.0324094
internal_weight=2485.71 1369.18 1190.51 178.663 100.926 77.2418 66.9493 35.7714 1116.53 360.664 1182.27 636.585 130.125 34.3493 15.5655 506.46 28.6637 20.0909 353.202 22.3787 31.1779 40.5186 330.823 465.941 22.7326 755.867 77.7367 17.3207 60.4161 95.776 21.1473 320.344
internal_count=7109 4097 3576 521 291 221 192 102 3012 970 3553 1913 383 100 44 1530 82 57 950 60 90 119 890 1411 66 2042 230 51 179 283 62 862
is_linear=0
shrinkage=0.03


Tree=27
num_leaves=48
num_cat=0
split_feature=13 0 12 14 1 1 0 11 25 10 0 13 15 8 8 1 7 7 10 4 6 10 22 7 0 10 10 7 0 8 9 7 4 6 10 1 1 5 8 6 6 6 10 1 10 6 6
split_gain=531.848 565.899 198.785 179.257 152.098 87.8473 85.9285 55.5806 26.3838 24.9831 23.1608 10.8989 10.5156 6.2304 6.06662 5.48819 5.2234 5.21077 4.61326 5.65597 14.6709 3.68403 2.97996 2.7995 2.726 3.8517 5.17493 7.72505 2.58216 2.2637 25.5629 1.92379 1.90374 1.47973 1.28973 1.12538 5.72437 0.740868 0.547793 0.486229 3.05417 0.411375 0.408157 0.356473 0.0654952 0.0769692 0.90556
threshold=-42.439897537231438 1.5669491887092593 2.0252776145935063 48.283641815185554 0.43099611997604376 -1.3558686375617979 -0.23433592170476911 1.5803437232971194 4.5000000000000009 0.40960317850112921 -0.39546328783035273 328.97055053710943 -4.1379001140594474 -1.0194156765937803 -0.64760446548461903 1.0165523290634157 -0.55693614482879628 0.72202575206756603 0.90957430005073558 -0.1714084595441818 0.16080377250909808 -0.23670038580894467 -13.462201118469237 0.65843093395233165 1.048157870769501 -0.062566215172409997 -0.77927947044372547 -0.12042441219091414 1.6935604214668276 1.1781527400016787 0.83491632342338573 -1.3318989872932432 -2.1482274532318111 -0.10917474329471587 -0.10997739061713217 -0.77256834506988514 -0.79981648921966542 -0.46476520597934717 -0.46272760629653925 -0.49878436326980585 -0.60712063312530506 1.1018623709678652 -0.18604747205972669 1.3215169906616213 -2.0537221431732173 -1.3633273243904112 -1.820562422275543
decision_type=2 2 2 2 2 2 2 2 2 2 2 2 2 2 2 2 2 2 2 2 2 2 2 2 2 2 2 2 2 2 2 2 2 2 2 2 2 2 2 2 2 2 2 2 2 2 2
left_child=2 3 6 5 14 7 42 13 -8 -5 -9 15 -13 -2 -3 24 34 -15 19 20 21 43 -10 -23 29 26 37 -28 -16 32 -31 -21 -7 -30 -6 36 39 -26 -4 40 -34 -33 -1 -17 -37 46 -46
right_child=1 4 38 9 16 11 8 10 22 -11 -12 12 -14 17 28 18 -18 -19 -20 31 -22 23 -24 -25 25 -27 27 -29 33 30 -32 41 35 -35 -36 44 -38 -39 -40 -41 -42 -43 -44 -45 45 -47 -48
leaf_value=-0.010724293214946433 -0.023467779537505829 0.014500187712847962 -0.011997590341031865 0.045650903437762264 0.033364544205025853 -0.0084369795547995022 -0.0070637982652551595 -0.020383444672315985 0.020655607916544621 -0.020630731667513256 0.045917895211129718 0.028752459975024073 -0.021265894714311662 0.01511959119958632 0.0014811563794815961 -0.0093421245943010097 0.04742018330390655 -0.020639969012389962 -0.023839892338681001 -0.0013405452238114796 0.040149017444651901 0.014918121670567877 0.047184060383000617 -0.0094719008533235474 -0.006964107239309225 -0.023619907564003884 0.023701305296352601 -0.020298871002301124 -0.0061704487531965089 0.033149922235487447 -0.023885049253122861 -0.02343554291984019 -0.022514681396852781 -0.02194164317071812 0.013064288920662704 -0.015659973892263628 0.0090663579846561124 -0.022524385644301276 -0.023910974923810033 -0.02240722578590747 0.0051220189230366461 -0.010026544194921447 -0.022575757353466973 -0.022915259325524753 -0.022324673217111672 -0.023985170753879972 -0.005295545758041878
leaf_weight=7.13373935222626 22.629809156060219 5.8252093642950049 7.2563621699810019 44.711970180273056 11.086636751890184 9.2931911945343 8.205886170268057 4.9174683690071097 6.0719004720449439 5.186155602335929 33.309696719050407 7.0168909728527069 6.2022065818309766 8.8036477416753751 6.2325282990932456 4.4444423168897655 173.88404625654221 4.8657109737396231 33.588241294026375 5.0222074538469306 5.2847509980201712 6.1381994932889929 280.3043348044157 9.4175049662590009 5.1258084475994137 25.263437956571579 7.9790928959846497 5.0403860807418805 7.6043812185525885 7.2795521020889273 51.612865284085274 24.150425747036937 10.985399797558783 30.973692089319229 6.2129884213209143 8.3743679076433164 5.3641787767410269 11.019745185971262 43.513473883271217 86.074825003743172 4.6858415156602851 4.616614192724227 12.39676286280155 11.101368978619574 10.317020222544668 707.25389367341995 4.7605305165052405
